{"parameters": {"c": 1.0, "feature_layer_names": ["fc8"], "n_jobs": -1, "context_function": "cpu", "num_devices": 1, "tol": 0.0001}, "last_layer_name": "prob", "target_model": {"model": {"parameters": {"multi_class": "multinomial", "verbose": 0, "solver": "sag", "dual": false, "max_iter": 100, "class_weight": "balanced", "C": 1.0, "n_jobs": -1, "tol": 0.0001, "fit_intercept": false, "random_state": 1, "intercept_scaling": 1, "warm_start": false, "penalty": "l2"}, "attributes": {"classes_": ["int64", [0, 1, 2, 3, 4]], "intercept_": ["float64", [0.0, 0.0, 0.0, 0.0, 0.0]], "n_iter_": ["int32", [100]], "coef_": ["float64", [[0.015970351806325875, -0.009618270278624497, -0.007584226655379847, -0.015917589862674258, -0.031262354311446215, -0.010054771715210896, -0.02494497625107199, 0.004187699054456919, 0.01404485759361453, 0.0114512485814684, 0.01968148652112464, 0.016395926174935144, 0.003117347703172645, -0.000791331371992138, -0.008070479303291841, 0.009664561989557074, 0.00045967192172377764, 0.0023618405279440696, 0.0016461497505307235, 0.01742485495520297, -0.004879429023346032, -0.02849199413382467, -0.02446987898325758, 0.005113318802127713, -0.008721021868673165, 0.00764589286361571, -0.005103556404366978, -0.009505600281311553, -0.007069155360584535, -0.018486552411137412, 0.00578001800105157, 0.019361811847874145, 0.008397254059293592, -0.02193987241040266, -0.013339724156399597, -0.015780727875590754, -0.010939849391631097, -0.015263022618461583, -0.004173549384403785, -0.00010475855465540228, -0.005634659997541627, -0.012659037573537863, -0.0014700654999382468, -0.00816779545139963, -0.0029806195456148887, 0.00364450110960802, -0.013197917051999505, -0.0022581641792954552, 0.026313877589158218, -0.013328056475158721, -0.011804055245023103, -0.009529380478105436, -0.0004364637620625335, -0.0037671813399309754, 0.016643637274711517, 0.016516534484975056, 0.011527762512414694, 0.020698577956372716, -0.010522585764686903, 0.020624106135964805, 0.01239614292892538, 0.018126904391828198, 0.016175603353539708, 0.026404406321631768, 0.007668129111047664, -0.00502046164649735, 0.00801078294196617, -0.00047413679762323884, -0.002101471847095892, 0.021467625654062853, 0.0012140671700650305, -0.044374753261112815, -0.0138238666551583, -0.007463776886063361, -0.006035350190748428, -0.011225298965812947, -0.005441257091563718, -0.015939703722260983, 0.005850830670259597, -0.02883346051824137, -0.026916948435807168, -0.0007133105151125232, -0.006245355758230116, 0.011374155621586678, 0.014087513756158479, -0.010865476963039139, 0.010061986804163264, -0.005195862635639517, 0.0027670051922607667, 0.008648045060571301, 0.014277008032372454, -0.007629044025128092, 0.0038820004518678175, 0.0047614217310850415, -0.02473385750519876, -0.00596475262841761, 0.02071767109451671, 0.019544571002720782, -0.025111552299566478, -0.001287446863706958, -0.003869423542831654, 0.005833619109727474, 0.015899436452612596, -0.021897023817672882, 0.0009761148431878235, -0.0005303414215787136, 0.011741677092362996, 0.012201632441100898, 0.009112409623212745, 0.003220634612282995, 0.004631796976433077, -0.005427157321606265, 0.009172211470714854, -0.009794462293515152, -0.03047790160002101, -0.005094923671673149, 0.02801795069982982, 0.015495586610222439, -0.00805247417040219, 0.009726047762162017, 0.014185649499070389, -0.00040392802917403695, 0.0031230875365783786, -0.005249287322183335, -0.02248493000679813, 0.011449763959298025, -0.02969454825345397, 0.01095243867249448, -0.018772699921116996, -0.010625631245111095, 0.006937963964367748, -0.029248414935555668, -0.004673173820158051, -0.02085943968275393, 0.009549178293383472, -0.021722399937223347, -0.0110124846321518, -0.018455584935397642, -0.021385161498879035, -0.010359476286965636, -0.01917037215579669, -0.019012357366239834, -0.03146259219177434, -0.027187319841453058, 0.0006631542486303446, 0.01982542443308987, -0.024197672714277835, -0.00983261194543561, -0.0015899820941017182, -0.004673889571838912, 0.0008198274441957202, 0.004703155496809539, -0.016728486110293494, -0.018269207695992908, 0.0043348463629938345, -0.010433256039962424, -0.010717155137085974, -0.01660102335660358, -0.007672613613443121, 0.00016358847609295932, -0.006424548928131572, 0.01196916941717085, -0.0030933392287892493, 0.0023443725285272445, -0.015031544392687394, 0.0030741213139783815, -0.006838279870755852, 0.003654762410289965, -0.007535635316770185, -0.0008303530265196425, 0.010796016787736725, 0.004516756925367046, 0.0017290803123090827, -0.005540672994930684, 0.004417948754686539, -0.009338920330917783, -0.004304679321776246, -0.008589478152211377, -0.0018627308475392625, -0.012259289679583734, 0.0007263673997447747, 0.006346998842257545, 0.006430127251214734, 0.001032645490217727, 0.008833908530553951, 0.0017398849255058236, 0.0008812812431647597, -0.010290988015566946, 0.008894178584836187, 0.008621524238485492, 0.0024925380544889883, 0.015853494935747496, -0.0012476048953359723, -0.001604408181381753, -0.0007035387286346731, 0.0007808773187462322, -0.014470414494737566, -0.004346392320789145, -0.0005664144118563359, 0.00040761024514718373, -0.0035941684381067093, -0.004274719936089152, 0.00669886787680792, -0.014460439569151846, -0.008435559112345508, -0.010270128582441768, -0.010949403099782975, 0.0020850581709668152, 0.005821421883397059, -0.006525377852050967, -0.010494454048119767, -0.014284119125611495, -0.0043145435627703855, -0.01132785604914193, -0.004845447890446383, -0.02020520434440158, 0.0037005017274065436, -0.011677418365921604, -0.007047641083685351, 0.01549503189888862, 0.0027605510164435887, -0.01086768654033134, 0.0008143565435986047, 0.012375941217851296, 0.001555479930225906, 0.008351255514172583, -0.002649890398883664, -0.004646360154624162, 0.017216306948214615, -0.0012795129904509572, 0.012432085255035507, 0.003415446824637805, -0.012923648867409867, -0.004571033846026306, 0.005539151976207208, -0.008314655589969968, -0.0036025104003877093, 0.001957779673682261, -0.0015765427293575006, 0.005174101401876026, 0.0019417220598756356, 0.0017051274681734569, -0.008345302192289475, 0.0033919420889078457, 0.0008563765973952262, 0.002601951790759891, -0.00023890570354692772, 0.0012127564383724123, -0.008010919254663218, -0.008570769597611596, -0.013433878004728403, -0.002071857316826581, -0.01633140444915707, -0.0051302822425678615, 0.001375977868595128, 0.003054515943263295, -0.005785491066561303, -0.0016003385730237755, -0.005317214699890163, 0.00736772205966225, 0.00820034602871673, 0.008989375887561454, -0.011856056916243701, 0.014856573227542772, 0.0016054539110065302, 0.001966500293389102, -0.00023864793194814938, 0.01594947420207404, -0.0015263676726775164, 0.00039457453581804116, 0.0006130794805511651, 0.0047787456573351915, -0.029959275943572766, -0.00984432574300009, -0.004030214381343766, 0.00455057503671671, 0.006869085256299726, -0.00381907107369354, -0.005010529133679675, -0.015817929652502602, 0.011220371148492706, -0.01996598762505526, -0.013656419960209906, -0.015822403418214257, -0.005772427579613049, -0.02354736696351841, 0.001006922262474965, -0.011693641785460165, -0.010512212020695744, 0.014464807547955729, -0.011312205267786264, -0.0024130241804375995, 0.001384798248345923, -0.00484167535872396, 0.008536414833899464, -0.002964074868855645, 0.007834668194491957, 0.008476071135632252, 0.0021102903315677398, -0.006673768913583589, -0.011685889255831925, 0.007432799074403265, -0.010921357105891028, 0.0005274248757664491, 0.015548092815436804, -0.009815417924854792, -0.009691277922938448, -0.007195345011472779, 0.007804761953080804, -0.003793502751707952, -0.010446901110074737, -0.00673840855425061, -0.01469948259469173, -0.01697395464139372, -0.0214766386953133, -0.014264631061621116, 0.00019710524950724773, 0.029915870264362928, 0.013374876086520484, -0.006990078636435237, 0.021946638103798353, -0.008438339837412628, 0.0006295804201259014, 0.010543868852930923, 0.008255906658141935, -0.007944681016680694, -0.027867837839913007, -0.01328542924340347, 0.019797573256157313, 0.01104243530715292, 0.0018798421422004585, -0.017161039679340368, 5.7683145857105036e-05, 0.02106477518405347, 0.018594137848597033, -0.001035292772841727, 0.03131104691535854, -0.01576697826632031, 0.007398409705472406, 0.0053959338305616745, 0.01605010112812408, 0.012577315639787572, 0.011407214865912244, 0.004637888244780939, 0.003764190785690811, 0.018105198279618005, 0.0014240802026370695, 0.01785494921836162, 0.023741469237324928, 0.005678192211424872, 0.016922654977036558, -0.024225161500562156, -0.010280327285808355, -0.006953755474009523, 0.012665150538824577, 0.00752941437773938, 0.01223933241111883, -0.0025443554938979103, 0.004876170818324948, 0.012247322450503582, -0.003768209442862426, 0.00835596799481392, 0.013546981141021418, -0.007644649586964776, 0.03225250950781567, 0.0019636091302657668, 0.005610869750873857, 0.018912542282830843, 0.010087756857918418, 0.014550289571220336, 0.010199956515497223, 0.006694001331720797, -0.0018060519057083607, -0.006120997384110914, -0.009168058056167577, 0.004985353068174183, 0.0024878421769873784, 0.009975087100295892, 0.012623889077271301, 0.013136439026177806, -9.229940708473875e-05, 0.016183525958561047, 0.01781831298720308, -0.0094987045200594, -0.003936441292421501, 0.00667964171281186, -0.02687586404447258, 0.004491155018704237, 0.025944308104608127, -0.005459816094793381, -0.0013845427489565549, -0.004892248879899015, 0.011188848419196241, 0.013782050091662622, -0.012182108804326876, -0.0017121672164357087, -0.002042724236177938, 0.01286556812936507, -0.0028757143902442875, 0.0025925729506677195, -0.010437152555198401, -0.0008764856843465137, 0.0019287673293507575, -0.028456908347088302, -0.01217596845320234, 0.02460466923112542, -0.029236332327351247, -0.0027332085558781183, 0.009990650158837365, -0.0518501594651013, -0.00763062850601991, -0.008959061586550294, -0.00016220160582301754, -0.015222654529383269, 0.006334746691451599, 0.02158800224660362, -0.03911169434783238, 0.02816213959957236, -0.0005619840893029146, 0.022048328898306678, -0.015172583954181345, 0.011001761472270888, -0.007002064422819211, -0.003815040170509036, 0.0010231554369085538, 0.00043066126340465317, -0.034757675199466855, 0.006055086932872584, -0.01271786067164562, 0.00600130425766544, 0.01709114848840892, 0.0038164006180601865, -0.007306086780859849, -0.015150879032720893, 0.016140396999686883, 0.0070134554879598895, -0.011430432452938786, -0.0006269222281842485, -0.03217900155430078, 0.019629096524088965, 0.0020325652263042337, -0.007113394814583292, 0.009428251954944997, 0.03152290746031528, 0.0031692058507064636, -0.011246185398432564, -0.026436223583731606, 0.01672296721571929, 0.008857468666638092, -0.0018014198064764942, -0.006918116359845689, 0.01893695017796095, 0.014513435264899758, -0.010402155382465412, -0.00233711068729736, 0.0020777161097856427, -0.00713359710686969, 0.013516123515003396, -0.03036328462008455, -0.0018853551190561226, -0.009911580553122598, -0.014815838477765396, -0.002684854917325487, 0.013421419885551475, 0.02435856944561946, -0.014883994498409114, 0.024492050438755606, 0.013395174668643777, -0.014833782865573528, 0.02174492032194652, -0.004984297743828513, 0.008945173556795043, 0.002738435181340436, -0.0057801600963290935, -0.008989454099241857, -0.001690002923594348, -0.006649164463175072, -0.008478004988868306, 0.010161188055467292, 0.01846963090596323, 0.0011050512266971824, 0.011913901370885147, 0.015928825289515332, -0.004140846995537264, -0.0005027152459315471, -0.001664087647086679, -0.006358365437390962, 0.005749819446202227, 0.02811332785433769, 0.030198910839704704, 0.013126617171013663, 0.014110212935345853, -0.010021302084262794, -0.051972943452277764, 0.004949639124652989, -0.023586750629903595, 0.024693273341519033, -0.0036143941950384176, 0.0032948810477489337, 0.00021431850627032613, 0.01605707454100928, -0.013424837107438123, 0.05628179342385892, -0.005456291049385634, 0.01959328122906724, -0.0044995727712785144, 0.05198678848412619, 0.027397494034975784, -0.012761754292105212, 0.006978138015358747, 0.002187886808605661, -0.007562104130678742, -0.01550524417713587, 0.009735374944404648, -0.02285866066740133, 0.006721397418859753, 0.0020280276733020005, 0.012567707705299108, 0.008511486580260385, -0.0063721533812346205, -0.024054526441912256, -0.002942052311117187, 0.009112958233119918, 0.011173786085927392, -0.0055934987842258125, 0.006421989301507872, -0.03861285151047821, -0.026424572287233567, -0.0036282008130022665, 0.0022806171922957028, -0.023536658693477108, 0.015010264857933086, -0.026843879618566203, 0.01956109183295089, -0.0215332316320389, 0.006261139834146987, 0.0012782060778843971, -0.0017260626103874762, -0.003336108823076923, 0.0069331988462983316, -0.016474515475259823, 0.031028650541854105, 0.024783872866444796, -0.006773157372869936, 0.015189350274194772, 0.01591957171061416, -0.03048785532096901, 0.004693470791128473, -0.024999331963465668, -0.018281187585639447, 0.0025403480331955878, 0.030287552714297165, -0.0027712056014527592, -0.03310009882097024, 0.005522843762258559, -0.018158100807053313, -0.038206702387476005, 0.006016805522177245, 0.008351791304047838, 0.0031494716092867175, -0.002461832576739605, -0.008081486734950252, 0.0021584655111440277, -0.02131400139498079, -0.008535804107167647, -0.033053474292449654, 0.017845627096120056, 0.017848229932561518, 0.004661226078295457, 0.0002331422937287036, 0.0013594941258863221, -0.013011289312452058, -0.013336379839374893, 0.006200132751646975, 0.011736566654552721, -0.016115300226863593, -0.03021430045923205, 0.013422134096963039, -0.011970220195077264, -0.01576690624922965, -0.01037505381578464, -0.004748647694894808, 0.012734188363210672, 0.010981680346683403, 0.02292714775587591, -0.023420292350303427, -0.008833674132455498, 0.01477601620439852, -0.010923194146567596, 0.0063671676900320506, 0.00031014365676144094, 0.006423134049672922, 0.0019384560839186165, 0.009305447488411379, 0.0032639765713835707, 0.003079680758757869, -0.005927982305399629, -0.0072038310794850895, -0.020248056143364133, 0.009215157507198948, -0.0005048970307239457, -0.015331360354275039, -0.004755379647846685, -0.013968597474915431, 0.003058047636123024, 0.0034265848512550147, 0.007023480753777257, 0.00147024000399742, 0.01344471799369052, 0.016616555502722462, -0.04231549343405365, -0.04588412684020366, -0.025794027362484043, -0.009861407714899262, -0.012387204503913498, 0.01468726865787244, 0.04304525703744558, -0.011072022226728349, 0.005247392868169243, -0.00037060753023551555, -0.029996446200645118, -0.00042874258936425073, -0.0031979400505921796, -0.01677735582137589, -0.0032088725799116562, 0.0017775528677777866, 0.0071528541460807215, -0.0029057346504072394, 0.003921530937145182, 0.002152292868325061, 0.015324128396639498, -0.020012554231760824, 0.008808713878469402, -0.0008213630000225071, 0.02167694761355217, -0.0024816255646053307, 0.018181894025301824, -0.020207898234691248, -0.0068719648065315615, -0.019236359935130926, 0.0007101101889471973, 0.020775370791892893, 0.0002537746756905195, 0.028477931120753593, 0.025887643562045492, 0.019446743965902916, 0.010950362386235056, -0.01728208074661269, -0.029808325590034247, 0.02240926349806204, 0.021891636345824136, -0.0015356964579910045, -0.009569884049929677, -0.0069168071424663665, 0.005225074311560585, -0.02124570771363837, -0.008945184816441746, -0.013023848433046216, 0.04072915801559566, 0.01976022649511145, -0.014499324901426218, -0.00693435745099341, -0.00806876536247751, 0.0017738438355229447, -0.02338567219261126, -0.016463967823890625, 0.054391146062936574, -0.007109809043438426, -0.007059167380370282, 0.0010027701450200754, -0.01357359587113452, 0.01681548318058338, 0.018414484391493045, 0.013683518217765553, -0.027196774513639624, -0.018353801283451425, 0.036339518978312696, -0.004317826999811924, 0.038722460228240864, 0.03676333566403447, -0.00590134044521349, -0.017114110621452783, -0.011865474949440841, -0.014962557478922308, 0.005560902243227776, -0.022373979275643878, 0.028381114858957536, 0.0026489974527622497, -0.00995418480429558, -0.009838551171586397, -0.0004830638648471403, -0.006006701673168305, -0.007066437546784057, 0.0070862690501242685, -0.01305854292855017, 0.02776960658926296, 0.012400047017004985, -0.02049157407959978, -0.011763986754988754, 0.02546584064523391, 0.01750126536839475, 0.005881181571623732, -0.021504318998604523, -0.0066785958795104955, 0.0020725149170655703, 0.00510714043811255, -0.01295429324228542, -0.002123503701962087, -0.012914038161006646, 0.013427906179796265, 0.01498958485196523, -0.019065656207850834, -0.0037467484848023374, -0.0032889698217703415, 0.012211593047349702, -0.013860861066847419, -0.021770393581336544, 0.006720584884072841, 0.0046256648383368616, -0.0020619384955050746, -0.006390310466973196, -0.002442898121162763, 0.007931432132924318, -0.01113141944206952, -0.038999221270161075, 0.005160921073481163, 0.005862711355874315, 0.008394265911032511, 0.0015859944896683166, -0.01035246380637177, -0.013449185169581095, -0.006967201239589163, 0.011588277832174414, -0.00017043795673454763, 0.013954249461935153, 0.012078468308393181, -0.018432910877425653, -0.0028737149245115444, 0.005548367015274392, 0.007308428498435319, -0.019153504869000845, -0.033926989161342416, -0.00814596297237053, 0.004373653994354363, -0.009589703670528566, 0.009037781847247791, -0.0005395223955138433, -0.007049466747848882, 0.03064576231289514, 0.004315943876743647, -0.02193738853649184, 0.006057484837789701, 0.001750528677617321, 0.0006776782119853875, 0.01371340041228096, 0.007340493331462404, -0.010488264958072672, -0.011648464720584147, -0.007711332299639597, -0.0009099123161752027, -0.03412301031939136, -0.004629159997440068, 0.005686985109105319, -0.012965715806360039, -0.008080041151713712, 0.0034664113320264076, -0.010350175224761029, 0.0033167333715136203, 0.026174359493325756, -0.03475913696742731, 0.0009943626408034424, 0.0101206731457729, 0.027960570381914913, -0.0010912586038388525, 0.03240750554158221, -0.004300823707906729, 0.008242801685185912, -0.016559146978142827, 0.01135242953574341, 0.007448747073341006, 0.0036105957233255404, -0.01850785151994862, -0.03557596824303904, -0.028633158179542966, 0.004861889926925246, 0.013865887382238639, -0.01109964341178385, -0.015776875602384798, 0.003688872396209754, -0.016675673208809815, 0.013420005512551611, -0.006345644497948238, 0.000593129317481571, 0.004222895526690455, -0.005966491187508527, -0.011740908676109354, 0.0196469858170816, 0.016830031697793055, -0.026820914315516874, -0.014544895653915825, -0.004041641435987248, -0.0122289923451641, -0.0013286356712289464, -0.008006644177724563, -0.0050733651718198715, -0.0008984332584920296, 0.01588578127745987, 0.01471581287476467, 0.00620529137910528, 0.010880614954456146, -0.008743679227244663, 0.016996839663721456, -0.017061260652618704, 0.01133780354395418, 0.004861287366634645, 0.0043419585893963355, -0.0009748733172880272, 0.0023130353955655336, 0.02609020454438967, -0.004081199316579859, -0.00566552960845034, 0.004494061204220406, -0.012273092285248774, 0.017127805549926857, 0.01706471066890337, 0.02093414335790993, 0.007110082885335681, 0.016606660012209888, 0.020105471638864628, -0.003134207048420924, -0.001493125313143783, -0.017881593619747272, 0.008555064629661309, -0.014453318259240826, -0.005415821695864392, -0.01619911997231457, 0.00045610098057589265, 0.007994812201780024, 0.0024090604543292823, 0.02734970941690022, 0.02939227278418533, -0.030953028096583225, -0.009690925770742825, 0.01270777852415023, -0.01313867164673056, -0.050190576238467434, -0.022967466869906486, 0.0074198850912765, 0.02255252183144784, 0.007397302638865587, 0.03195095334568008, -0.025810958221240694, 0.04054795264095601, 0.023258941889870082, -0.0008274003478943767, 0.009713491804901315, -0.00939924105759821, -0.003609002812830686, 0.020722846464664615, 0.006988453426538322, 0.018465448089717118, 0.023405435732692274, -0.008722909186877613, 0.0021753298783329755, -0.002068570856719099, -0.0030213605690844855, -0.011042603710573229, -0.006547217681496531, -0.03455359061930331, -0.03171655401439943, -0.02298577120305204, 0.00098865102928148, -0.005631219324461477, -0.007673019106820758, 0.003566940936276108, 0.011907294286335905, -0.002829572875739908, -0.016830886370436775, 0.010093872699739737, -0.0160864873601673, -0.010929418239481663, -0.03945208960493541, -8.631643742649908e-05, 0.008483604112684126, 0.01811081402691191, -0.014344861719600966, 0.011956263526964725, -0.0018039378208348637, 0.02571117591792075, -0.006162337969898866, 0.018542262823834303, -0.006649443390789479, -0.05625413963224849, 0.01714554845532727, -0.028182138669222968, -0.02054513010409045, 0.01455929167626288, 0.0048383938723868215, -0.011023973887809577, 0.0008190905510483447, 0.018871975105360504, 0.007826707053939194, 0.023329883553086104, 0.01218401987587479, -0.03443833519565721, -0.010615356623945514, 0.007770399078456097, 0.0007884693874561395, -0.012694243664285239, 0.020897006662471632, 0.03137045935908936, 0.03966785211822016, 0.010588466278975953, 0.00582734153782936, -0.002878873786621976, 0.028410487808480614, -0.012680583752533687, -0.018164184424019705, -0.023685035710144835, -0.020168582187968832, -0.005968175116176453, -0.028614257214678956, -0.024814248053430847, 0.008950036987905563, 0.02255377024790015, 0.016850876408017544, 0.005161689965142523, 0.0017368877431344209, 0.021759448397815562, 0.006498095361779243, 0.037150514036994216, 0.036671350223913615, 0.03276872616724355, 0.021479426774063934, 0.0330911559875342, 0.006073386039770312, 0.008766793541650454, 0.010236258106039493, 0.012887445297435206, 0.014190726518553546, 0.013503478885644985, 0.013398051306331033, 0.019418992948463196, 0.0033843255179702002, 0.009608902801307795, 0.007547674404260347, -0.023634655013003138, 0.013816217603319208, 0.011496743525581232, -0.0034885313997010036, 0.024296136272074338, 0.023937404424336978, -0.0006100547387041544, -0.0174665173445827, 0.03742768028121935, 0.018297021641978186, 0.028148497443267223, -0.008892521403038207, 0.0036432795024852957, 0.012492007598362359, 0.014796747345207506, 0.02596586052413802, 0.020075094456683974, -0.006327451533370211, 0.011526082443964357, 0.019984877537710218, 0.007054678571320263, 0.025083884595663068, 0.013133285038584635, 0.02403385350840707, 0.00450927434573638, -0.0032425787597264565, -0.002782833421085717, 0.007553844776100135, -0.005303956710131552, -0.027897412571854262, -0.007012538503923857, -0.030763621418710255, -0.022677794034099044, 0.015625588063612826, 0.018024127297201105, -0.020188120453876846, -0.001116911683999651, -0.0057800967961918635, -0.01957677149233541, 0.0017179744321813837, -0.012073741930113829, 0.016292248762405214, 0.03136516504636228, -0.008362051197103808, 0.02469088956940415, 0.012164706522673605, -0.0017623305948007955, -0.004435217070879901, 0.03625313826889371, 0.010390351572143961, 0.005868087494931327, 0.02348768526182138, 0.021881176801109622, 0.017688209489246126], [-0.008621368150896053, 0.015334604918505745, -0.0009174350994529463, -0.007013913529935244, -0.01257662212176223, -0.02280138141712381, 0.0075676577091493185, -0.005186595399115788, -0.0009877716484176567, -0.006933473962651656, -0.0034183998014668993, 0.0021814971893936294, 0.006419932748238104, 0.023611121636314587, -0.008437558916477924, 0.017385965435678753, 0.0029785686882161035, -0.00935420953697231, -0.0006799824872892906, 0.0064209384518675704, 0.008682603055902871, 0.007556434550670475, 0.004472854844582196, 0.014991463720982548, 0.011577208173576306, 0.002110344167460139, -0.00885448147475398, -0.02470618033169637, -0.02088166631307617, -0.011449933549809565, -0.002039001150125383, -0.024305805799008918, -0.026535542913074812, 0.013556036752151055, -0.008185041306406885, 0.009035130186829504, 0.009488305059301382, 0.016126777833171714, -0.050863097200521144, -0.011230664108030242, -0.01689814850684849, -0.02731464094418424, -0.0033866504370300907, -0.022639095980625516, -0.01126746547188509, -0.004314785111524549, -0.025032320389859697, -0.0442014454808928, -0.0022625979241127706, 0.010589911758004835, 0.017643752274316672, -0.016088321188104132, -0.010267261728634822, 0.009261519465768833, 0.013459024334272705, -0.01744267364383974, -0.0010097474948904744, -0.004594503820748235, 0.034279644107792814, -0.02955898265532904, 0.0022761859825185856, -0.011696520662649434, -0.01415499971483192, -0.0005445818508713707, -0.018783798654115388, -0.004765902331584273, -0.007615869478402087, 0.014494738577614947, -0.020351646175457292, 0.017856463245726744, 0.01981967592480053, -0.011132919455905634, 0.026937514929175066, 0.02515234623122337, 0.044846558058834744, 0.054508407582032695, 0.03803992963167283, 0.04024184104842791, 0.004491118248014113, 0.019906869484079538, -0.005659745613998549, 0.0096511785304802, 0.0015481225743182094, 0.021840433526536855, -0.0037686441033305458, -0.0035777495899041163, -0.011204575674680872, 0.015224290469572908, -0.014844855004029236, -0.017469117384249843, -0.0004000601943632547, -0.001743006063194339, 0.007198747539476379, 0.007137162684163348, 0.020928224663231815, 0.013408819514750413, -0.0023259345114389736, 0.004334835539317366, -0.0032856060981128277, -0.009129878408664943, 0.013077214253235176, 0.005691209746587368, 0.009843845495516099, -0.014289180378695886, -0.0020348919599466908, -0.01740400835467668, -0.0005134905808513621, -0.007007858288591792, -0.024258411666156752, -0.021653837524094006, -0.011586643102808065, 0.0027332084547114265, 0.007076875570686766, 0.003325720356549686, 0.03284070269397048, -0.012692101073181045, -0.00923546876212084, -0.027982657967183105, -0.017251500740270154, -0.00024237106584525252, -0.0125709192606058, -0.021184813434574932, -0.010324408683806192, 0.005378644182215873, 0.014972661478272965, 0.013588322202998283, 0.0012001299169112276, -0.005138324768093136, -0.0032344810221850793, -0.011127499538019297, -0.02218518189400602, -0.0033168772662600043, -0.008752652748317642, -0.0022474271110439017, 0.004313919273579202, -0.002232681177977234, 0.008465823618782817, 0.023578516396782583, 0.002826831059182164, 0.024131220912855154, 0.028896688751571867, 0.0314893628818663, 0.022758343881232247, 0.0071897350342029565, 0.009844541134796457, 0.019584285631365196, 0.02277318004845567, 0.007070866124739676, -0.012172622129802928, -0.01877091595269361, 0.011005513687550981, 0.0034940116519637946, -0.009172779950037159, -0.009869841786128115, 0.006132587070498109, 0.012767951768750825, 0.0077675822911168835, 0.0017623964628300352, -0.013714944463069097, -0.012564064750782084, -0.016171818971927977, -0.004479763008266425, 0.010303760947923889, -0.004143052459671618, -0.005249462005235469, 0.0006702687879994312, -0.006618110965408799, 0.0022070895117258624, -0.001133390301424059, -0.007196171935662849, 1.7104108354545551e-06, -0.003297359466589546, -0.008126884878321401, -0.002304931147780523, 0.009802845761688155, -0.005652668970733061, -0.0286551941461925, -0.005397415714997746, -0.008869830371837925, 0.00573472251386403, -0.004619928445096811, -0.018432214640540484, 0.025176285821809686, -0.0012757106728259573, 0.012677340280689942, 0.00188806143307215, 0.007805805948307258, -0.00017788374673381946, -0.004460329131393804, 0.0052187330783252705, -0.01771811794476845, 0.013892335474368005, 0.013866545179200237, -0.00028853539417024373, -0.012027858939211466, 0.011896835160827316, 0.001365754516439717, 0.008965531970620099, 0.0045117827448064845, -0.002343129945753194, -0.005702829506705136, 0.004103712347719623, -0.001596732932339217, 0.012506393516975203, 0.009133474523224227, 0.006015976010957607, -0.0071117381008612675, -0.00821679747259788, -0.0014961031363411245, 0.011189276961231575, -0.00474458943634811, -0.0022373176301479785, 0.009905560719869127, 1.8226659913785843e-05, 0.0137867520542003, 0.0008961311237298115, -0.011768959427728124, 0.021049430811888186, 0.0017623779853366745, -0.002482668824898943, -0.0038324875118723577, -0.00813583526940421, -0.009289839804440377, 0.012618179113524823, 0.005222425640794486, 0.004379570846848215, -0.009252034310951555, 0.004002266086142132, -0.014698833503907771, 0.003481393751525418, 0.007495309978627496, 0.0043900903809189025, 0.0014111246113324319, 0.0041359054187835136, 0.010229086253323746, 5.60725345758748e-05, 0.010250590052696809, 0.006358439474586533, 0.014784296573517102, 0.02916652990069674, 0.017472746042542175, 0.008262858860731095, 0.018437129756984506, 0.007257120430453815, -0.0037415993032943106, 0.009607399099262896, 0.002494408467907721, 0.008262442280936479, 0.0050424594077002945, 2.5031120133851978e-05, 0.006860321204832721, -0.004561924746929629, 0.013448492163108228, 0.006335585287830864, 0.0030664052497005982, -0.003762561414140585, -0.002620835362553479, 0.007348228527815695, 0.009521819663192614, 0.010622193471317458, -0.010544915858147277, 0.0023435787290963313, 0.009067963516624552, 0.009193085357961418, 0.00600910346865363, -0.002257078637480276, -0.011515519031866808, -0.004363200353682329, -0.003081615581132082, -0.0010440631092495604, -0.002894388249015421, -0.0003235897793254681, 0.004449312221862299, -0.0032854696096578126, -0.009045625158958652, 0.009733732372439045, 0.007173598650326541, -0.00414888174258003, -0.006513765290636808, -0.004391357782697221, 0.002794360507781827, 0.008977627533075684, 0.013437890729917523, 0.00929243434706318, 0.007966556876740263, 0.009877098390086051, -0.005013769564529609, 0.008202826146702919, -0.004132024085031464, 0.007432620662467807, -0.010829586776721585, -0.00913164904633781, -0.0032014880402886255, -0.01312197662632552, -0.007796279938553458, -0.0015350117632042031, -0.0036345567220452462, -0.001890981340617038, 0.017621032972650094, 0.018883948835914464, -0.021941885967920238, 0.0012021412436442635, -0.014870924510028052, -0.016657685228167327, -0.016255769820076364, -0.0016665287804038835, -0.007031080865566729, -0.003498055442279369, 0.004283586017382011, -0.0028966031883847433, -0.01337907274221247, 0.01062275995727604, 0.013000252138747878, 0.008403328326104574, 0.003543906750455676, -0.0032687790890956374, 0.017001834809201685, -0.01498688996696173, 0.013821547652904947, 0.018073779935662306, 0.005175617686968807, 0.008179829508332275, -0.007467567195788901, -0.017730606129796486, -0.019310897354935793, -0.02391483599050403, -0.021552253036854888, 0.013596515037900962, 0.006837708378095283, 0.005325014357338938, -0.004839513987929487, -0.001883590298093977, 0.0014402099047949501, 0.015914109269687598, -0.006348212016881546, 0.0011247656947058044, 0.011157275257783096, 0.006860907195808893, 0.003371621673735252, -0.01702175212944984, -0.006837654810328562, -0.02002033761219592, -0.0019976929026905023, -0.008321675784903358, -0.010719985113084689, -0.011145991444257182, 0.004413457760763266, 0.004380114158554646, -0.00543139363967831, -0.02393394831782069, -0.006979882722149579, -0.013288873697564233, -0.008793894295885007, -0.024325275129163205, -0.012612768793136754, -0.0005643253463570832, 0.000919764724869375, 0.0012126257204480124, -0.011722167069355607, -0.0034861169015701467, 0.005104441053633912, -0.008095641565357591, -0.007859276061623476, 0.017283004080222, -0.009282260047494289, -0.020965959908121404, -0.01139760868869266, -0.005716121622475496, -0.015683368188459997, -0.0093891979964306, 0.0035660165815342335, -0.010322019830597723, -0.008066838925566885, -0.005074730878628019, -0.0058146627393654325, -0.028532937088910835, -0.02848820081812735, 0.0007991898162346816, -0.021514628884331723, -0.027713804447099123, 0.004249021037087544, -0.006830317001701092, -0.004851117821233843, -0.013839580181043467, -0.029225253813454147, 0.011371715082254139, 0.0023136252466139386, -0.015890090174813905, -0.009379906293273014, -0.006392353724186422, -0.007892497914604486, 0.0029815205651707987, -0.04132628774423054, -0.02482811823566958, -0.020886693007190073, 0.006402982751073586, -0.008607797477376191, 0.00043933030842537653, -0.00904685846765211, -0.0006231391111222519, -0.009210179445579166, -0.01664554535678529, 0.002842670331982369, 0.01299373183758936, 0.007471266268540118, -0.00044348032204307575, 0.022736788252445045, 0.00804487061652221, -0.006060240781833945, 0.0037196877211228487, -0.012253264007389457, -0.0009173501442841898, -0.0036555039052922206, -0.011701767447842884, -0.005781994973095268, -0.015976033696516553, -0.01389272625292708, 0.007365169772622037, 0.031657284537436034, -0.020674953465562296, 0.012623495147397587, 0.01534716190102134, -0.009086846986713488, -0.025774139801266742, -0.021204356046348398, 0.0043364682208452835, 0.016480887303994184, -0.0001647557732189761, 0.002520687854514394, -0.01810086779505839, -0.01935413721036007, -0.02164008765892967, 0.0005586575721433759, -0.022605263551927855, -0.009966303744330074, 0.041079850954477415, -0.017540529486404673, 0.03182799676677597, -0.0070772546714505235, -0.002832186490576038, 0.006646006802491452, 0.0074237796523411, 0.018996502974272585, -0.030035735415507005, -0.02861678608797038, 0.003213882795666543, -0.012313176910206744, -0.0086308301726596, 0.005228501312397487, -0.002873939882006862, 0.0005978819136519022, 0.019775932454605072, -0.01486892067375343, -0.004414854874812078, 0.0001422373556150989, -0.013044893133368663, 0.017191183853822144, 0.0034207898304297944, 0.022634525637387517, -0.010329917602919922, 0.03520846230156293, 0.022010279012030735, 0.03221863060588377, 0.011534034907051429, -0.01054216027616518, -0.030512944038060444, 0.01637268255560475, -0.010724909332960282, -0.0029713392435913796, 0.012499934136062119, 0.04118680385632732, 0.028280330448935773, -0.0036668988815648424, -0.02248900156209403, 0.0066187358045380115, 0.0165084001158861, -0.007681364742151772, -0.011862874259207342, 0.002469229455908681, -0.00631752462361485, -0.0016493745519575618, -0.001002197043932364, -0.007920535221304393, -0.0013478677552951686, 0.01575135124294365, 0.01090081118024645, -0.008994242512858863, 0.004865829189816564, -0.020723777186245587, -0.013544467053340073, -0.012569337222404133, -0.02395939817861554, 0.0020002246493968337, 0.004393585227813428, 0.004586434875071386, 0.00019177947326759758, -0.006007181979855655, 0.017388577038786716, -0.009746555050389285, 0.009642706998473612, -0.00042322145572067197, -0.005208799710369652, -0.004292197282898772, 0.010154681441102147, -0.0014710302345987275, 0.013492511421069546, -0.01113884112504802, 0.013592811670572646, -0.0002945174915588145, -0.015173303989057106, 0.006655217947907644, -0.0038502377056534977, -0.027679934889563686, 0.0007251522246695276, -0.01264542377810464, -0.003449701992102188, -0.022473906344876837, 0.036545320839772744, -0.007600034260868398, -0.002570698129824802, -0.014140061369763769, -0.005409139753432071, 0.006946271232800299, 0.01411742556649484, 0.0203748165110424, 0.017536029075484776, 0.003627409954945503, 0.0025891658844996667, -0.015626882632762053, -0.03616371699294066, -0.02979630398412025, 0.001410480918390776, 0.01410592874214366, -0.01591042977274369, 0.018373672696910356, -0.011905794920997213, 0.01526052988702098, -0.009541597633718795, 0.0030605357510762325, -0.022326839523610732, 0.037956965641773074, -0.008796284995989284, 0.016080966752274085, 0.001760707163885399, -0.0021042419268284085, 0.006130060960689053, 0.0056917712256046174, -0.013271102644396134, 0.0006416102218727033, -0.006065386472758804, -0.005771291123080537, -0.011108749758349943, -0.0010083414593669597, 0.003116867660929994, 0.031526658199397095, 0.006139760213848312, 0.0057674936427974, 0.03305433848972919, 0.00170868215502592, -0.006756015727555438, -0.03254553695034403, 0.0033015686388589683, 0.026853514912789454, 0.029850252190117853, 0.007253307100531472, -0.03625219166742466, -0.006881490606925905, 0.003775665904614316, 0.015663634558441063, 0.001265881338801361, -0.010796245788881137, -0.008039587458119455, 0.014704810538211793, -0.007166664296116134, -0.02692018332282545, -0.006130301708572187, 0.0006648056777834388, 0.009648316794916378, 0.0110630951159695, 0.0019490072537268804, -0.009936122759771885, -0.0033263534439959804, -0.012550161543378013, 0.016621408225857743, -0.02822132104806159, -0.007074838135592143, -0.01039339196626453, 0.022146354361802716, -0.004800109377990234, -0.005144758058551367, 0.006245589002962008, -0.004047093226790117, 0.010800900204837031, -0.024353214712193646, 0.012417562030741059, -0.012797626884580419, 0.005785534060886777, 0.0033040736414702617, 0.00042198020675061014, -0.02211852194919909, 0.012453018714985765, -0.018729117104341827, -0.012640164403552524, 0.00660367971173092, 0.00502358455320663, -0.0009736044243627045, -0.00027152596401961674, -0.010211130109486351, 0.018801557344170678, 0.0022487182781943745, -0.020832206687299733, -0.02930608545186042, -0.026317737278019785, 0.011471067381965312, -0.002175183165177747, -0.017012894893070226, 0.00593264895854524, 0.0033013083140794094, 0.022996263009298405, 0.018569285474651094, -0.00895818625037476, -0.009532090076019246, -0.002431789438861604, 0.021214366699682453, 0.00012981749425182502, 0.011299627564289313, 0.02378209442604474, -0.012211942985462418, 0.02904411126938791, 0.001649144811071691, -0.0028910812448867626, -0.0026539287412956753, -0.005110464249414975, -0.01672571562287344, -0.008326515978267194, -0.004201491191290161, -0.008302953801279026, -0.004235086755882009, -0.000772830832245721, -0.015546643067289518, 0.005920594442491898, -0.0001504124707373241, 0.0011588383752137632, -0.006410961514354373, 0.05295565340457598, -0.01210116154713494, -0.009651897302598456, -0.01493659105465458, 0.022995573417290017, 0.02388464781461532, 0.01844101374494565, 0.009073791322044868, 0.004701813934124246, -0.003769183898906884, -0.005254635494554191, -0.0004672322576060517, -0.0011107640101891446, 0.05534072436026527, 0.007141165497826073, 0.0020679858301229123, -0.00974385875881266, -0.010715797423236782, 0.0108630259884165, 0.006345412795548535, 0.02230918858460965, -0.006549790460535717, 0.019226479773723694, 0.002910130659321006, 0.01773567793671219, 0.014233117877867046, 0.0026730330467732827, -0.002374982968784175, -0.006585697776819597, -0.0007928700897779192, -0.007662869064296857, -0.005961886796057374, -0.022245322415029675, 0.029673532214512712, -0.02304026568305172, 0.017000649372089678, -0.010308293477859028, 0.010002149396452612, 0.02827543208521566, 0.0029002207328658633, -0.012112137461175345, 0.0030421164785723737, 0.0032261172547185116, -0.0027668866774432617, 0.022569644251780523, -0.008260065714093712, -0.012404552854584694, -0.015219676943422097, -0.009735998239139726, 0.009110727906445348, -0.004461558300742757, 0.006800303802527224, 0.026096454908677298, -0.004051601662389064, 0.00024050044013652214, -0.006221114037527514, 0.0005819788679443303, 0.006269353635089639, -0.02204494933540632, -0.01886193311151232, 0.007284983524008276, -0.014889227781062307, -0.0010489428880827182, -0.006474187898332197, 0.012351770291807656, 0.005094941262230261, -0.002619729462525694, 0.008651395307391606, -0.0036154503271816447, 0.014445637414862433, -0.03632229487708659, 0.009313706583789052, 0.013156716775402885, -0.009158954022812615, 0.03300934480111148, -0.009000765735360482, -0.0039503934687803105, -0.010145504793052679, -0.015186648222909752, -0.011555820880255238, 0.0031901774468281238, 0.011777114009013335, -0.010693539414783562, -0.0030335607071924355, -0.02716816897203227, -0.012199366386924346, -0.003931415275034447, 0.042690830124151015, 0.0008890099028108155, 0.020641298967733902, 0.0035735509877977095, 0.0029198624975139836, -0.014225695353260657, 0.0007522222735043935, -0.009757270574320546, -0.008865695389782801, -0.0029627946825066414, -0.018187681197603146, 0.00820316078400172, -0.0016740330793213146, 0.05479302589714856, 0.02825049708148708, 0.001862596781173618, -0.004200673913477457, -0.003372304895669682, 0.026647711409813285, -0.011118417547153122, 0.001838602402509644, -0.004093219133962855, 0.009556843721585224, 0.03261126028886571, 0.012094444298725688, 0.003640760801732625, -0.001189924232311151, 0.013594336247502082, 0.005295412393620792, 0.029329974859547317, 0.006410647966730624, -0.00912150631049744, -0.0015354119949695592, 0.007740205333413318, -0.00892190740369722, 0.0028669728825051707, 0.007457494985528721, -0.02000322242663999, 0.002564638859025092, -0.018236606687928057, 0.017782297680854587, -0.019840546320496494, 0.01389132187155094, -0.008086967410325932, -0.009702976684598375, 0.0015791013730840507, 0.018393716403258223, 0.004505986801755622, -0.001889092092952812, 0.022702053495644633, -0.02385338610074353, 0.010447597711682693, 0.025186119224600925, 0.03014400887730246, 0.00391927177043135, 0.004670936679140043, 0.008153807340875969, -0.02676072265314442, 0.005305363489848696, -0.008915386706672534, 0.01793404105262699, 0.0023987746725387606, -0.020206995006253684, 0.006992314151243087, -0.013669521654794334, -0.01762771675746866, -0.01645027791408916, -0.005318701622944217, 0.027903641485202933, -0.022909200629244238, 0.0052496953808226976, -0.00047489040013343594, 0.01316434905462152, -0.005709188557890854, -0.0222334398070278, 0.003848505931924299, 0.0012555361407007406, -0.003028876580558434, 0.01223582984959575, -0.0026695707104026595, 0.010570096031634097, 0.0338495639331766, 0.007560837012350961, -0.0019013576569354054, 0.045555431524160646, 0.04197379942284634, -0.0067416520290014504, 0.0207517957604671, 0.00030268977299239934, 0.004685418803397545, -0.0012965144355707207, 0.001272206545010071, 0.0023812293429753585, 0.006768388981502629, 0.000987547150074007, -0.009952306714343372, 0.015798525751538433, 0.0025953469339316075, 0.008343938574004532, -0.009610682828279843, -0.023524760225566453, 0.03124343347683422, 0.015843026000355597, 0.0253848845916972, 0.01235921303947327, -0.013115268563541229, 2.4630106908193947e-05, -0.014305290466684249, 0.030243558150908442, 0.012792741596373626, -0.02486166783966768, 0.007586500302964685, -0.0004905428187482178, 0.02764200710410355, 0.028464876277973474, 0.01427100268463594, 0.014256260369178386, 0.004413071490615448, 0.007126128893143482, -0.011280419492055408, 0.010742064191657066, -0.02068448421190167, -0.00555673190722946, -0.017020509400468446, 0.01338470292724185, -0.02883106716541664, -0.010099328193265502, -0.012096615453490297, 0.0035153528832146575, -0.030655059830836235, 0.004307631594687795, 0.04238311035064863, 0.003971121167325173, -0.014072409200543968, -0.020467410594250248, -0.014147917732016325, -0.0008607687288924805, -0.0019868457770411086, 0.013848189604567325, -0.01302910578192172, 0.004105386354474131, 0.013530107398698936, 0.016812912088023886, -0.002603400603379151, -0.011918443432690398, 0.02819633436215116, 0.007062059268470362, -0.023043050663538706, 0.01982088728421767, 0.0035697842411180386, -0.04332207081141111, 0.032204016155908, 0.004331224188829413, 0.04223064665098345, -0.025649662530784278, -0.007014810956664309, -0.011143876417415067, 0.015501491647582888, 0.0034172776305106353, -0.03034668116299006, -0.007168682676771282, 0.013486062338034453, -0.023703043689456575, 0.011275639390757892, 0.016681382544684684, 0.028002980953017554, 0.03689472548347827, 0.016565519703507836, 0.00564996623287068, 0.007755813737632674, -0.006051001960562129, -0.02142430938090033, -0.0021335218397609533, -0.0006260668744583898, 0.003858689052579883, 0.002227723725616557, 0.00951952905816852, 0.03674928774905707, 0.025342956887261313, 0.01445119418219305, 0.0036815410220057557, -0.005381222820235473, 0.00869029500311501, 0.01727648748269722, -0.010305236642611567, -0.01461222024693538, -0.016600234703510117, 0.0031760018128143626, -0.023668136496954897, 0.004385727346643711, -0.015466214308840806, 0.014048955941471312, -0.004022927827221393, -0.008238261348548704, 0.0057796154155826465, 0.0011966224093265352, -0.011250095849335827, 0.008674186841889822, 0.004678924518959774, -0.006069056734201049, -0.013965855233842143, -0.026027161826706745, -0.0044277613280720935, -0.008298837000558678, 0.01202782966662366, -0.04187166316517684, -0.030897193148709458, -0.04166383332460875, -0.011141959735795931, -0.004505832727723699, 0.009868249081517946, 0.0042251858086197035, -0.010335230141171528, -0.02513861135542976, -0.014885624915493032, -0.026692832029071942, 0.011836682422899076, -0.009449481363971205, -0.012196512345959315, 0.011846637102245901, -0.00965054231579609, -0.011566924039129055, 0.014536774225412774, 0.02368930258484219, -0.03414466110642, -0.027205025658161366, -0.004433275690861235, 0.01716437311497065, -0.012928033137192351, 0.005845196469643325, 0.004643828049025776, -0.005182965676338081, 0.013570738811091918, -0.0030407837345575598, 0.00815613851850062, 0.023793392171618084, 0.009047043254277843, -0.0067270177830941955, 0.006775895039642539, 0.004192428522821566, 0.004090054118125062, 0.02472023214818871, -0.027028044078208666, 0.03303786052758271, 0.001181511516577849, 0.024597287215582218, 0.009948856109099466, 0.014081506164135027, 0.006105256366481563, 0.030055878542226005, -0.018604263450575784, 0.0105818783741027, 0.0007513301382269068, -0.01688155799453424, -0.0329181783214907, -0.01644497113630823, -0.0032475492728420816, -0.01185654408884286, 0.008652461671224552, -0.005547732158014778, -0.02039806793464754, 0.0041836949806130655, -0.01628261868173917, 0.0008585493969504958, -0.02048516548340171, -0.03252249711531405, -0.01026333129569133, 0.0032255815826657723, 0.005399917598039505], [0.008430010875978885, 0.009573725783577774, 0.002607800394108797, 0.02843302629348162, 0.016667052922613414, 0.03407079621379129, 0.008892894983218937, -0.010496314926274591, -0.009651301364450807, -0.0272481359336437, -0.005424307198964813, 0.01705481141798692, -0.012840310643675695, 0.007096865713136512, 0.001627650352531494, -0.011834694346023323, 0.004994468388568145, 0.013368107705012384, 0.005004931000992185, -0.006448523247195282, 0.030397288610173608, 0.023487590977386636, 0.02855373892377242, -0.015982264096987858, 0.031038130301624434, 0.010821944712446631, -0.012212138797288373, 0.004048195670647373, 0.012793508711782786, 0.0046784163782640775, -0.0068399588731805775, 0.0011788020650926722, -0.006189934013717595, 0.015665591724693357, 0.032843790396840884, 0.011341926225956171, 0.00019917312724730758, 0.009947610199888232, 0.016125159375189047, -0.005317840897758639, 0.013125945428791308, -0.006822408117626486, 0.0006910300409899031, 0.006330307409880829, 0.0020805616671568314, -0.028844784216858602, 0.024353071318208856, 0.02505660136024095, -0.03141114334870702, -0.030244385041603764, -0.006143628749728669, 0.038641295941843484, -0.011061420764549523, 0.0011862737190676312, -0.04301705470916653, 0.0053899407912022445, -0.022359065306253867, -0.025098040708278, -0.021687031649199526, 0.005754344858158037, -0.018655770483442267, -0.011749004621642026, -0.018846737565321438, -0.024954465789870164, 0.010863138171353192, -0.021814559766352565, -0.02323871792784483, -0.0049715727441167245, -0.018765548248914618, -0.018336243137926835, -0.007883107578386313, -0.015263145436593715, 0.009937606363689587, 0.001396079866414506, -0.010155294524636593, -0.007915322975282621, -0.0019343284423620562, -0.006034200429454837, -0.008315052071746756, -0.03651399002698795, 0.007312745244231584, -0.006804860146151059, 0.0013337391022718327, -0.017679040624841585, -0.002839563235891946, -0.008566056260988724, -0.011266969465674789, 0.025798940843046236, 0.027846736869573094, 0.010815091692247782, -0.011758496666086065, -0.01184602244595475, -0.01662869592655371, 0.015252309568302888, 0.001017699992642474, 0.009642684757389162, 0.02302584497277543, 0.00610856920230213, 0.044011483952621895, 0.01943016978143449, 0.011301679813438768, -0.021107509591368676, -0.012859143893545531, 0.04446989714672054, 0.007395364142126933, 0.025226285178307713, -0.003476346323221892, -0.04820042616913519, -0.033695088734347775, -0.012507233243236398, -0.011881303353264148, -0.027247828119539182, -0.017127202444444413, 0.016060350080382882, 0.01075135553294408, -0.02170988552513675, -0.03910126357153683, -0.006828817419518119, -0.012589867016756724, -0.002385054750392904, -0.02766099623525045, -0.010455368445897527, -0.02297644046742783, -0.035036155162622824, -0.02794484885970527, -0.01966824074673656, -0.017030046542570346, -0.015255842268735702, 0.008596373731998138, 0.022268775202530764, 0.030281363678771874, 0.019237714053850847, 0.02792402132828285, 0.009670971364342482, -0.004271152397412222, 0.00028925298672707086, 0.004300788409086547, 0.016080401461209995, -0.009049893556397196, -0.013641762808456819, -0.002521305992297251, 0.0035983064948573256, -0.0026756265327454233, 0.006516233263433821, 0.010140436068386745, 0.03092313675782782, 0.03215425113570248, 0.024244734597398402, 0.020275913313027714, 0.03619449691636749, -0.005336154694009553, 0.020087683170285323, 0.005333361339693532, 0.013098039884607997, 0.0050684389823600585, 0.001780185044777829, 0.002471846516174157, 0.005050575888376928, 0.03188353467746897, 0.004892477704147653, 0.001847447029985651, 0.008844157779919674, 0.013381893076815065, -0.004946984510623884, 0.015689648767585086, -0.010421287480301846, 0.021590486746518537, 0.011947590385204536, 0.010041415197118637, -0.010315960932779573, -0.021354554544826782, 0.022368934286394568, 0.02962272344664976, 0.014906226266822304, 0.002347504937976256, -0.009694844280797654, -0.008866066494588218, -0.0029605485783242014, 0.012386749453227024, 0.016855988964276526, 0.01670523898703705, 0.009408023580695252, -0.013383627694125906, 0.0037908785488003243, -0.003307521247465985, -0.0007181655213326258, -0.004989497115796532, -0.0027351935015831343, -0.004773919940905917, -0.011534674869931911, 0.0021088953601949103, -0.02618814112996061, -0.0041978879215964415, 0.0011821017199891717, 0.0023913179133182175, 0.014168581710773427, -0.0002899266443030249, -0.009181032830771933, -0.01207355301326194, -0.008004468829099597, -0.009914689961157084, 0.0013647281080275471, 0.004482474090929398, 0.004968386352164292, 0.012592747273317934, -0.009418161613488912, -0.005369828942962391, -0.003115249712030653, 0.007969056454827237, 0.005139671769422191, 0.012284251022650664, -0.0038028161897788026, -0.02054926516579597, -0.009121480427541562, -0.018733145831242835, -0.005229135805904346, -0.024772196758652946, -0.01865394360628668, -0.012793737107753752, -0.009595813133297736, -0.009108467074108175, -0.005262480909453838, -0.012951200901252149, -0.0015745004483547118, -0.0013432285415478132, 0.011788860384538661, 0.005852123872639528, -0.007074954273488484, -0.017981985166373192, -0.009933137451633501, -0.013213484616475537, -0.020707667757193727, -0.006358660245799464, -0.0038510295636823354, -0.0060269134727597784, 0.0020857879477630186, 0.0039623496216801436, 0.0038509134608100083, -0.005665784738936232, -0.015292896733146178, -0.00880232120635673, 0.00254161052476718, 0.01764622154293474, 0.02251249350751069, -0.015995230059023112, 0.032466887857035255, 0.007076121545410207, 0.0067105765682128424, 0.02129349739707366, 0.01977368258274965, 0.014205866602822094, 0.007988434981840226, -0.0020437568763445515, 0.02375022828985332, 0.008840370028041151, 0.010086248635181455, -0.0011370553396266633, 0.0008033246459285207, 0.002988751053332193, 5.0135687459145884e-05, -0.010507296686106544, -0.0002703991650113213, 0.014404470361634421, 0.014957978560426558, 0.010711551045651017, -0.0030253851013774375, -0.0026204790240481396, -0.008949928623994937, 0.015088782924064896, 0.0028127119353195625, -0.0018600790899815608, -0.006968150741505428, 0.011883231479838982, 0.012176982515722478, -0.002202890805911839, -0.007554497829737609, -0.013759824273921717, 0.016856033201317205, -0.0043895376493637474, 0.008017010277123367, -0.007601308075306379, 0.035217229919733126, 0.026467702413685113, 0.03267336720942426, 0.03298215202019032, 0.036306912729778054, 0.032348387966770885, 0.035550005940664306, 0.017769775257986783, 0.002894042115615589, 0.013431722160385191, -0.0026829676002541824, 7.775232096675729e-05, 0.006581213716810674, 0.005191212599158958, -0.008503541986511178, 0.007267123632266377, -0.022886684279209295, -0.018727101912444255, -0.020755987237522353, -0.012739760561654528, 0.012224438356345015, 0.0009330846693031911, 0.015276938931493208, -0.0015788697049586215, -0.016026292110037133, 0.013273509747350488, 0.004007668332409157, -0.015619694766766045, 0.0017347099658731255, -0.006423865175627101, -0.01616654119579162, -0.018805165936561237, 0.004961231943350155, -0.010009225560321898, -0.005544645411610883, -0.007127135689913048, -0.017774132802336827, -0.010247461874851605, 0.013074716467845212, 0.009133199526637659, 0.014538746891324674, 0.04098610963558224, 0.0012494669119779605, 0.03841154675217554, 0.03683347227890892, 0.05389520090238959, 0.020444289099471012, -0.0015548647667975469, -0.03840710975192313, 0.022496141648288732, 0.021425392523256204, 0.03031011379404549, -0.00046534857343663214, -0.020999798712310096, 0.023404774366731444, -0.0119549004633682, -0.0015958792100749513, -0.0030470133205684866, 0.008949835400701697, -0.007270147262228718, -0.016533727057847787, -0.013677290998394246, -0.028176080213905875, -0.00813954365940547, 0.004291846311835811, -0.014653875192671707, -0.009070437025717767, -0.0014807719447726612, 0.02183712723199442, 0.0062468228047202895, -0.0012789426227008934, 0.013956329293450476, 0.012341155016469145, -0.01027714453405413, 0.009648072338393954, 0.013890537974568561, 0.028770414940317856, 0.013004117286509874, -0.007791610977294564, 0.01326174064912237, -0.006091418132650749, -0.008858070218069015, 0.014772445468725486, 0.01243542919682447, 0.021302249553161384, 0.0019823860696960133, 0.008900930469944009, 0.0191225815072501, 0.017682543048683736, 0.01259374670538042, 0.0071006343459315835, -0.0007559993001862211, 0.0334544676208263, 0.0065595426024287655, 0.013328794042347398, 0.022895198866307954, 0.010592727316869206, 0.026686539738993872, 0.02641983033807877, 0.015409332577008623, 0.01761643330451255, 0.03444206092079711, 0.03883045252826568, 0.034743239218236764, -0.01011069111948053, 0.011116668305260166, 0.022564145800901676, 0.0067644654113066, 0.016140090240233784, -0.003177658433586847, -0.005466558466243013, 0.025995851055286782, -0.0030758841512590978, 0.026959258541876925, 0.013145636770999645, -0.03743625378327185, -0.006981234688839592, 0.006484309434270488, -0.0034445275427030632, -2.157530827074044e-05, -0.005970775606664049, -0.01194974848117632, -0.004079553125729723, 0.010943003090134842, -0.012459275966264614, -0.013053021108387672, -0.006962841555302527, 0.008484092789523294, 0.02755313064613548, -0.006993187739307617, 0.002326445187683879, -0.019902378634833677, 0.016945433632030167, 0.011996798591955307, -0.04885612239642256, 0.029044932726009182, 0.007074347784585134, -0.036122892492309835, -0.006889378972520324, 0.004764610756871371, -0.01964251652699587, 0.054347627833470816, -0.0014083053717658992, -0.00971111162636867, -0.0045690391323204675, 0.010617963236959661, -0.0009021602393822674, -0.006903012798772535, 0.005646958436601334, 0.013332685341337549, 0.017881883239471635, -0.03649265083287721, 0.046197411355954385, 0.0035013082365607986, -0.009891889073549083, 0.013028157969754239, -0.03662034082736111, -0.0049298803199324176, 0.004099361065819347, -0.03764295522935002, -0.029238700570269626, -0.018457640202213688, 0.014434118522377597, 0.016196267579299064, 0.020690148481628194, 0.016755943823866925, 0.00012621297968127526, -0.0071226299765959735, 0.007437836819278602, 0.005185289047063296, -0.03963131134784826, 0.03157071857674375, -0.004431984877968157, -0.015612864383084566, 0.013865418410285402, 0.02527582936797371, 0.033185368118451214, -0.01727323746766525, 0.04326485336843604, -0.019954231620963686, 0.000689076847900104, -0.0033153284870367245, -0.007096002350308932, -0.011305748669506921, 0.02717420700595072, -0.01571525401234097, -0.023723766374226567, -0.001796352466045669, -0.01791934620514157, -0.046285545204899865, -0.01700115284583839, 0.007050554580578994, 0.018609195324212336, 0.0294281804627724, 0.033161712923392844, 0.008729966675322262, -0.009862152302745694, -0.0054149751283860265, 0.014940379181798557, -0.005216451822087787, -0.0014228745990218742, 0.0067789274567694475, 0.001234575515425366, 0.01315786126343527, -0.01976543087552072, -0.006393048232900929, -0.016392132967546654, 0.0011276874035462178, -0.020278551928486047, -0.007159376707901827, 0.03519468037945324, 0.013711634907925218, 0.01489906982439452, -0.00906625878690119, -0.0032768599828785793, -0.011249835688504895, -0.012188273809687776, -0.01607469499698757, 0.007829038930720792, -0.040921207511637185, 0.018253527333956746, 0.02374586130689058, -0.016019585434633585, -0.010738828554198242, -0.0063490118543479, -0.03311270771869629, 0.0031599918940742344, 0.017099444694879697, -0.017932162634009326, -0.042029145926380865, 6.852612891904139e-05, 0.008323636852176427, -0.03229775671506065, -0.007480416793025141, 0.009911357860068283, -0.0028024220447702827, -0.02105354781370451, 0.017239860814416114, -0.0021466117605539623, 0.011411710681680625, -0.0043034816895361405, -0.00027548975354206655, -0.018644047870883893, 0.0007434880727679572, -0.008515445422490098, 0.029526128453700905, 0.02610370007311765, 0.013435203847099363, 0.04270260685951035, -0.00694435417396042, -0.028009519489420733, -0.02311991204560056, -0.008506267430251784, -0.001566825089291881, 0.012593796568835785, -0.023916215645462594, -0.009082202263343386, 0.009269722413343099, 0.008160414551131723, -0.024929294106743622, -0.020646042920119977, -0.02761018320946738, 0.03615961517087193, -0.001256132881329866, 0.029907143865773592, -4.9627738665657474e-05, 0.0009647194938217297, -0.0015925282875882266, -0.000865989426446776, 0.010825167628248668, -0.01931350181933715, -0.010556846472995906, 0.0037948856099210447, -0.02077890514328847, -0.008693808277842122, 0.0033411064651277097, -0.010117249518121828, -0.03594931977298386, -0.004244960856908804, 0.01717874761370706, -0.006563117837483219, 0.007160021207622728, -0.0353051197156505, 0.01769327705341457, 0.023865023837062394, -0.03085242593639067, 0.00033829263050772927, -0.0011353598679382456, 0.0004093427683317212, 0.04730027620219906, -0.010988353105118101, -0.020616632755000964, -0.002379488886131723, 0.03337495950791858, 0.008047485134285482, -0.02108753261429366, 0.007368635864378926, -0.008070798970666928, -0.0056559866073851404, 0.02082076830264229, 0.005248432290480494, -0.008738676757673852, -0.00408287041455817, -0.0009976764444480357, -0.021089470919033168, -0.00013336954809467584, 0.019279875531267174, 0.02802779964863316, -0.0032474488707704276, 0.008980267022664613, 0.004074303999012341, 0.00047541202534980215, -0.01438758581524269, -0.010519282373330288, -0.004088540922112996, 0.0151167294376749, 0.0010968134341681856, -0.0014117618874991222, 0.012469646246560988, -0.0099378044341898, -0.011901183914488743, 0.05622619246800245, 0.010436036214067156, 0.0009105737656251561, -0.01103483142637549, 0.028351659402720882, -0.017271534707295217, -0.0026687919970481123, -0.0016768928036457464, 0.006826853454150062, 0.009130038274832766, 0.03722569377854871, -0.007722217663842473, 0.005762210567650562, 0.024239944908437852, 0.0003446059671631602, -0.014921957651370773, -0.012309367038673451, -0.014725890366389004, 0.007049170945749598, 0.013321227647880955, 0.010397177652602266, -0.001981611562360419, -0.02072610913687746, -0.01719410705916848, -0.02820247206750633, -0.016875692847396824, -0.022431106360973042, -0.04106903450874262, 0.007958363778390203, -0.007782149368002775, 0.005357632418048571, 0.027893983500802973, -0.01328326972128104, 0.018960140814475376, 0.009465472999805007, 0.011237178640536668, 0.015899553636821172, 0.02017311032406065, 0.013960192407430821, -0.004609634983415138, -0.01070304999137301, 0.012629423291781057, -0.04664346127013739, -0.027043968616191138, -0.023920261977531544, 0.009568840332636235, 0.002856902443607257, -0.012530697440474439, -0.033210076358448436, 0.008804600503649115, -0.007993010570401998, -0.020687535435627177, -0.010531180965864124, 0.0019053753336548307, 0.017780971177212522, -0.04122313408922417, 0.010748342502655795, -0.027520141673732814, 0.016933188949182876, 0.0025708147680547884, -0.006840496004589962, -0.011342433339733874, 0.014893761699537485, 0.023352961271811728, -0.042912560782623586, 0.009793192887015129, -0.002449297125073454, 0.01950113975226884, 0.026667130581709508, 0.0038154674248647093, 0.0350807547675884, -0.0012130554721055077, 0.026885868279113177, 0.014785082605639878, 0.025774993129062333, -0.002719899120613233, 0.007934593195265885, -0.03635931924641023, 0.023760594383413616, 0.011918418215330923, -0.015366594268639696, -0.0205551460340494, 0.006294519525758272, 0.0039039674747199434, -0.010224272637584105, -0.030922137272044962, -0.02472465869902332, 0.004660250511128709, -0.001291919121340002, -0.012597382585576888, -0.0009191545732320411, 0.01958799944329641, 0.015353485750743188, 0.010564823311787217, -0.008917810598706456, 0.01818697055497025, -0.006179855687176947, -0.026828688464294047, -0.015439568982818118, 0.04303869973817407, 0.042984267483839884, 0.01653920055379026, 0.01303508662421507, -0.0068187055688953896, 0.0027112522453822535, 0.002151138405981855, -0.01928531303739734, -0.022097434377292245, -0.013101327518734954, -0.04017221374830708, -0.0005166840303436327, 0.0028604292135520734, 0.0007242346085260368, -0.024242614327819354, 0.009415721715863672, 0.018723846131813094, -0.0019328002033165176, 0.04127730601734557, 0.0002821238841792989, 0.010288774813980352, 0.06463992884746592, 0.04615328435981212, 0.019025681820261427, -0.01204612189807205, -0.004245803701025583, 0.0011777143322601762, 0.032706775530074506, 0.004886558147703274, 0.014063425396592201, -0.037004038891678935, -0.016787751014281475, 0.0004013379906106799, -0.021457451285770257, -0.021451680135119583, 0.03456796835100467, -0.01942457340229151, -0.012983752534556909, -0.012906165891870963, 0.010443194680133732, 0.008930574296945135, 0.004196104180299268, 0.002974402806843694, -0.03540826212915085, -0.008573099507180814, 0.004199569538501388, 0.02991896195926469, 7.471503829411929e-05, -0.019706843889830745, 0.01236301985927535, 0.01691895146951274, 0.028970179095055677, 0.013640860128997229, -0.025879889114546372, -0.012343371556400693, 0.008220568184971175, -0.015547120652967674, 0.017579357968504596, 0.016990690081932682, 0.007024983657802583, -0.006046464309047582, -0.03346213813952782, 0.0010095928900525541, -0.009475945868240583, -0.019276780447573333, 0.015870864100448124, -0.009028800460179936, 0.022109019587676644, 0.024310392853926072, 0.01699230782954942, 0.005005104384451176, -0.0018897349157198503, 0.002968954960706778, 0.023851938414494397, -0.011563929315169398, -0.03778053895608429, -0.022998828493235406, 0.010297774844096032, -0.0044080383788577425, -0.008357353849250754, -0.01755566684759627, 0.02840884015965397, 0.006517823652336761, -0.008208421008853712, 0.01091134764250675, 0.01049363109484853, -0.0305266693439719, 0.0013592267694600864, 0.01119737919794155, 0.016172562515584084, -0.004786025093161554, 0.014438969228845385, 0.02323931079266221, -0.010918038788714467, 0.03890834086958398, 0.03007908428741984, 0.014199281143352858, 0.042350159548976106, 0.008673165625748417, -0.01212011783742401, -0.00218399521722918, 0.011237436443231606, 0.016970648760818413, 0.0006687101395159003, 0.05651298704360299, 0.0012566194537938157, -0.018529535390939822, 0.006744634452596842, -0.02857454264431645, 0.0003736696056958939, 0.008324120549227064, -0.044188907427187014, 0.010177525672121808, -0.0036471683685399656, -0.00475705080882687, -0.000828357028554707, 0.021024652557370335, -0.0022266385570232205, -0.007245341338617706, -0.0272847991149673, 0.019289562715577805, -0.005267056865460173, -0.002813055593426891, -0.02729479733385809, 0.0022248893164652046, 0.007554353266952932, -0.04500322480075926, -0.011128210741081525, -0.01864661380046374, -0.02119238958655587, 0.023079135810393104, -0.012275686898600934, -0.02921134632741768, -0.0076023718572133326, -0.0014626048034296736, 0.023364922124856243, 0.014589015931401527, -0.017835824499657094, -0.018792056767931577, -0.030543631414815593, 0.03349215359325918, 0.008537855263919928, 0.012015228975441977, -0.03023639357825582, -0.014414640841861046, -0.0017517706674535598, -0.0115443901314523, -0.023527669621566355, 0.017286782075648023, 0.028204391721826105, 0.022745328249030635, 0.013507482053785349, -0.0028450940870888394, -0.0040800628435989075, -0.019593729496810142, 0.009373660657957623, 0.001915728104883043, -0.004870767442634214, 0.009335179766823997, -0.023580809667331427, -0.0057477426306928, -0.040378303497317754, 0.012939353648406513, 0.01354939406114853, 0.010240772017234319, -0.006184428551589594, 0.009015675656194154, -0.00848287975341356, 0.008160949524950967, 0.0363389826809536, 0.026002575012689082, -0.0004659516015539954, 0.0034456835157806306, 0.009278906176324831, -0.02037284999545948, 0.003173295601639112, 0.0008422071874535671, -0.005424270704139208, 0.03021135543142332, 0.012909110163730239, 0.013948853660327517, -0.015405056364835176, -0.04287733849878732, -0.007436119319302647, -0.0069354596129297405, -0.028926376776997054, -0.010918420563387871, -0.00048563800975614765, -0.018825193124509434, 0.04277389511456854, 0.019985309080662757, 0.011738165413024082, 0.0030296584831313055, 0.006823567501211942, -0.0031911092974285377, -0.018566405209900178, -0.011812476990943222, -0.006458061014087664, -0.0030651243890888694, -0.024273009605534447, -0.0182566644872139, 0.0008070926592320941, -0.02515873174411912, 0.038876324916004235, 0.019731071130729215, -0.007105131473464275, -0.04644713991483718, 0.009300042985086403, -0.020626149713192963, -0.018474630710956872, -0.026489230987201764, -0.007107275500106077, -0.031743134707742926, -0.016204641052147573, 0.003867279981186743, 0.009152755020507245, -0.0004630050509432926, -0.017846853739519594, -0.004175466953855795, -0.01050875008393875, -0.015954977517760573, -0.030467675163160915, -0.032043608134802115, -0.022407265477317122, -0.0327822480858784, -0.03033961941429922, -0.020703925080735607, -0.028943751319410585, -0.022887994497755776, -0.029642225166347295, -0.016640309152272065, -0.011848946116748117, -0.0038261827104802207, -0.029102422123770504, -0.04271927566264232, -0.01737049078638961, -0.006806510638439086, -0.02544141898405111, 0.0038842662488711983, -0.0057482445096318415, -0.012872606801641262, -0.014010741001310417, 0.013972103788478001, -0.028218478375192976, 0.005615519207221142, 0.003379285688802643, -0.019525851238767263, 0.011610135540013708, 0.003859259829714565, 0.003830191848079871, 0.03719196819938091, 0.03509000045180774, -0.013307139640789889, 0.011960426633098377, 0.0038818777495918068, 0.0185894865368742, 0.007271461849258385, -0.0009353016084513455, -0.04724903908554676, -0.041941616543826735, -0.024676745557649694, -0.04107550886749237, -0.019414485586851972, -0.031252070115458976, -0.04427651846308948, -0.04881077581615682, -0.016035343272061162, -0.010862698825270495, -0.01583999855385664, 0.013477892555347771, 0.006418495633344612, -0.015874756713149783, -0.015812870870050736, -0.015605972801978372, 0.01197901033915636, -0.012763036544326417, -0.00896410671309812, 0.010584258692632268, 0.0011357111391130058, -0.02656924747891618, 0.01832300574276583, -0.022227409232703187, 0.002677242220314171, 0.028841476646801527, 0.0394709879075764, 0.04903773279853407, 0.004273057673221616, 0.009498643642076202, 0.025120794190172584, -0.005164934535963039, -0.026551896427251413, -0.006714569360009973, -0.017020390931921498, -0.024526307502184624, 0.013681604861836475, -0.030521152866015193, -0.004776363592954666, -0.012587072401384106, 0.0017756146743551468], [-0.009611176778630033, -0.016240768505725704, 0.0008070566553530466, 0.00821714273859015, 0.0062379153019291676, -0.022272350176783876, -0.005898584696592532, -0.015732399733097792, -0.031188855894320477, -0.006222002365027886, -0.012169106202095924, -0.01700139653358378, -0.0036917120632067053, -0.029206332329760037, 0.010364148178584909, -0.01337033060088824, -0.006062574358482505, -0.006764543986640316, -0.0005169547017561428, -0.011087256888735984, -0.017520365334627478, -0.02096951056324027, -0.010109070351400266, -0.013712951530311317, -0.029103937605207658, -0.001359156986694457, 0.009109258726782116, 0.014412015589252225, 0.0016592768987146083, 0.005601335557025384, 0.02036887808043707, 0.02189613856198778, 0.025756393147328825, -0.004619532905150102, -0.007778939364999806, -0.0004915225607221483, 0.0008950647038237415, -0.0038505694687294106, 0.021419038118113826, 0.017623697539462618, 0.0008826128262549278, 0.028607466917715287, 0.00733702450221672, 0.025804991394530293, 0.016408575424990517, 0.01743004933719586, 0.02064193188290835, 0.020030950303363246, 0.014631241105487448, 0.03420335612042517, 0.022866086047070407, -0.011820016052643129, 0.007366640379841881, 0.01137382593715314, 0.01920118288126705, 0.015586223421685507, 0.024284352038544385, 0.024939311564623208, 0.027498818466659712, 0.0284686479601427, 0.022354136579814388, 0.03485007643623273, 0.030594401242385424, 0.01604955139681927, 0.011245377278876421, 0.02794321450902711, 0.023965196188563936, 0.01320751547911905, 0.04175260405734229, -0.011327092393595792, -0.03203968342036456, 0.05284083910452143, -0.010753896986536922, -0.013727346746756127, -0.025453249314236412, -0.04441200826285449, 0.0005881044604255253, -0.018679008058861295, -0.007551261191486429, 0.023928743899149958, 0.0026514470261052004, -0.024721589515849244, -0.0006042589281482344, -0.026590676700481534, -0.007394331515225385, 0.020742661408257073, 0.0021583068546805716, -0.013712109999212609, -0.0015920501930795719, -0.0046495710226264085, -0.007545179999058198, 0.004658586240127197, -0.002538918524472738, -0.006903414911980882, 0.00014410405049685766, -0.02914856241704773, -0.009945603173824669, -0.0007930802281552828, 0.01098851421876016, -0.008322576922893477, -0.01429150506061906, -0.000405043673378329, -0.01140371253878025, 0.030177488608371147, -0.001469859965840393, 0.019754718835840103, 0.002133064357112201, 0.021110657719149557, 0.011307072074004285, 0.0020731041289449334, -0.005979085524635416, 0.016023977227985865, -0.010773073264803335, -0.03772237729129199, -0.04825054374759855, -0.011923502677166915, -0.004021111748681901, 0.03129116204549384, 0.04157355400975025, 0.005136980848757906, 0.007993690412762194, 0.02252568647511537, 0.01162953557832908, 0.019294619714880237, 0.014714671664770158, 0.0015897248044320121, 0.0034846806825814735, 0.0013243524262598412, 0.006344941989493861, -0.0014093744130575043, -0.006539354733131383, 0.016245288454979072, -0.007850896018492048, 0.0019013911209136785, -0.019983832782816124, 0.002443860897475446, 0.008246065975288163, 0.0013136129233450513, 0.02066698216500179, 0.0037460326556484373, 0.00024709121245060735, -0.006471894998670524, -0.0032959747769977033, 0.00015763125987591824, -0.003739763663492417, -0.03555855429222341, -0.030451467420341462, -0.019160687852316144, 0.008949322801093106, -0.01779380725690486, -0.002839269580401238, -0.026043551455380485, -0.013364052618551166, 0.008229323214030295, -0.01262413097045151, -0.0020236653004405535, -0.015987243297640518, -0.016469901095457165, -0.018837002267503785, -0.0005557109567985681, 0.006130461387302017, -0.004547808253619516, -0.0229259100398858, -0.00598494068552526, -0.0009557923324901353, 0.001886293036890018, -0.02225774842767445, -0.044336253492926074, -0.005483161653839687, -0.0051913838883479516, -0.0019896328014154994, -0.006594007073859675, -0.011917806567169047, -0.005176761043804606, -0.009399232811080724, -0.008283217839704593, 0.02046921323176793, 0.015705740798572516, 0.009390437333395011, -0.01071857254148541, -0.0072213051421185755, 0.0012241355684978748, -0.010281382644180017, -0.0034444610911678183, -0.00013706644377185404, -0.003381587014277257, -0.004151014920675645, 0.004721606098119605, -0.013744370175401784, 0.00048646292728447865, -0.0035823882094389676, 0.00036328560427214857, -0.012694985890783024, -0.016031065291002077, 0.0008529042738206498, -0.016503679361990126, 0.023400039331403267, -0.00577031065171926, 0.014590389985770554, 0.005343529634861876, -0.006572195839503208, -0.0019250298073004025, -0.0062978478614554596, -0.00557396955971566, -0.01298028633316582, -0.005153001011945362, 0.017223796825664817, -0.0034887024432822804, -0.01731901253298143, -0.004662229779879727, -0.015143227625359993, 0.00859809403240483, -0.004363995750093994, 0.0033520769742789057, -0.008364323465655691, 0.002437216037435526, 0.005701497904364999, -0.0006661806250317623, -0.00835073562431371, 0.00355517808333393, -0.016264069753198093, 0.02024387959715473, -0.007934377622078161, -0.017563855588584115, -0.004234773078720632, -0.019626985050766575, -0.006601579815828572, 0.003776367000029768, -0.010420729597971946, 0.008799302722325202, -0.00010628418672549802, 0.0003127023023520114, -0.0005811176218621816, -0.005418799444482728, -0.0005047136072854317, -0.011953691707977044, -0.009395488610325258, 0.00414727054486521, -0.011184478940198818, -0.011419896601308424, -0.011596943830703622, 0.0009387216210847056, -0.02017063264946688, -0.023973307494024407, -0.002755870852991664, -0.03416559432245542, -0.026059974590817346, -0.02700169788352007, -0.026544853578811704, -0.016812295838504493, -0.019642102425045604, -0.015612225273456353, -0.017624917090261198, -0.024311288017224833, -0.011072781758219656, -0.012186200501106562, -0.003230016575415188, -0.017673638962976964, -0.019310324055933872, -0.0162083820785917, 0.0030804796910751434, -0.013419446120639942, -0.012559015201091034, -0.020667257285533955, -0.015079485086138704, 0.0072385672403900096, 0.016677476194829018, 0.0005359687705253619, -0.016534373228841895, -0.009576144976511887, -0.00872138613685023, 0.002508868885543806, 0.007427227417786726, 0.006430611558220601, 0.0029617632993573823, -0.011849672447030423, 0.00040357353700809447, -0.007000738024857611, 0.012948673607740074, -0.010662548893513623, 0.0013511674879266866, -0.008415557574144751, -0.006340650100326777, -0.018234664844036422, -0.01181576331585695, -0.010340607187991156, -0.008403603991838352, -0.017008735686825233, -0.00998730838214553, -0.017729257814324502, 0.004492547351588435, 0.018547426369766924, -0.00012245304776413945, 0.009124444023441506, -0.0014476639630468479, 0.013658376631438571, -0.003737107667929439, 0.015235587097758197, -0.0006887957632234645, 0.0015482786737678503, 0.015029962642882238, -0.019952864543460395, 0.01023561781661919, -0.008775958405232931, -0.015000746524538837, 0.033782709892206046, 0.012781149567303645, 0.006391652318054198, -0.002381121993227761, 0.0002292377062063124, 0.008008298556197127, -0.005378308385002576, 0.0013221144749302432, -0.00150433800896974, 0.014481776367494833, 0.01916706069499089, -0.00763215161339596, -0.022827602103928972, -0.01666292025283848, -0.01289099827032238, -0.0117143919818899, -0.02747510137273098, -0.026581970967358957, -0.009781349438032176, -0.02907195095147623, -0.00795328925469897, -0.012555977104979866, -0.021240945263479034, -0.03895456063195553, -0.008609005747231361, -0.019632542433599708, -0.015497491091030295, -0.03192966398896422, -0.036952833426646244, -0.007084391669012679, -0.02209393870446809, -0.02111906230881925, 0.007330295857343614, -0.001437828466922585, -0.009945499379538064, 0.011125255358063243, 0.003170939546408503, 0.0031166364671194186, 0.028924794463724146, 0.017652569332177803, -0.022371722727600494, 0.020465381118267307, -0.014806197252730604, -0.0007177347638185857, 0.0166840638402774, -0.0011758634514394285, 0.021158058162520837, -0.0036467257297301456, -0.0007700953823575951, -0.008231594955472439, -0.036781668378808294, -0.034836058287179596, -0.041629275765614156, -0.013657618002911157, 0.0011046723932549144, -0.006068386006838245, 0.008740350904615933, 0.01307521839936062, 0.0028222407120740566, -0.014813658299844087, -0.007413219824014492, 0.014767401805496974, -0.005105226589501731, -0.018407155734267665, -0.00909799746883721, -0.014689048785229027, -0.010571787811141087, 0.023679765340900667, -0.005656343493616549, 0.01984244053175065, 0.011651605101101904, 0.011485583208705265, -0.012050275525493379, 0.0014039710010567217, -0.0007471698252499346, -0.007371469129965924, -0.016466438367894264, -0.028532493826508097, 0.01065341434693316, 0.010068094555998873, -0.010167257205003893, 0.007574854180038849, -0.001919694527856004, 0.0025077186159520007, -0.009310889720152978, 0.015077050302107516, 0.00234784464696593, 0.009443650843858854, 0.003610808693738111, -0.0038766775335141303, -0.018953884198419698, 0.02232501527749233, -0.024869741182867357, -0.008493620592982682, 0.014303526337004862, 0.020652742689195615, 0.02622637598753545, 0.031598790180137754, 0.010008893709849101, -0.0341274018319917, -0.02100164790672482, 0.007019822101822071, -0.007205254255029511, -0.02005383776079217, 0.017420562679101137, 0.006382407518054392, -0.0007804878751502116, 0.02125913440719016, -0.0002523342964035601, 0.0040535932950191735, 0.023400728354585766, 0.002481841190406905, -0.025903277144252498, 0.008674731651099046, -0.019768079431955618, 0.007084214370172963, 0.010230769480363083, -0.023563842186875707, 0.04915116711166871, 0.04158238672153804, -0.008186299010152035, 0.00805471934370962, 0.0037324071740851865, -0.004072319769485782, 0.017507638893147357, -0.006548963058781307, -0.01953994705422448, 0.03598669283147653, 0.009945669240029806, -0.005816341830780609, -0.02140177579516251, 0.015485905673294645, 0.0034357980233271756, 0.03339415545721764, 0.0005472196950610654, 0.034871191203687125, 0.020473549477276875, 0.00215476893836068, -0.0034726662964711667, 0.024431044863666464, -0.029701971950451836, 0.060811055441816066, 0.017945858379352697, 0.004872891393455053, -0.0014300318981970346, 0.00917952942544206, -0.01446401006595156, -0.014287530130490568, 0.01925145434528052, 0.013842454624138885, 0.00668249462503016, -0.027833501166039377, -0.03101120815755486, 0.008582909270363297, -0.040060103649025194, -0.010569068973701107, -0.006242734380521856, -0.021399578872715125, -0.004547290733304074, -0.008760701541302252, 0.024776251026115102, -0.004239232381159663, -0.010611657591947887, 0.008038388558060931, -0.01342313440994523, -0.022975630722282744, -0.024380315593270318, -0.0026189181421739493, 0.024020180261132184, -0.00019464346564041743, -0.011189242138064076, 0.008985741909237682, 0.010206537621802386, -0.0033546826214874885, 0.002640207155945866, 0.015013537543645365, 0.0034070388247783153, 0.002286578249754802, -0.010619985763305941, -0.02940026796187407, 0.03012016514979594, 0.02736950172886465, 0.03387223224496293, -0.0016178149983819493, -0.02283856262238549, 0.006805255713394761, -0.020191705615266585, 0.013267292444084118, 0.021473384771103898, -0.012452066671798543, 0.01304895183196385, -0.011787874261557406, -0.0009915044998949699, 0.01911470386461753, -0.02207890294900772, 0.008307126408764832, 0.015538782348498004, -0.04463528246200287, 0.016344339180414245, 0.01437019948466809, 0.014470501893490256, 0.01901099702371214, -0.00717658146592081, -0.016830836449868755, 0.0010734795642175464, 0.001844207932271265, 0.01465427414097923, 0.054451432171041134, 0.034975774856846824, 0.0313196216134892, 0.0005187136866235039, -0.012982161670161927, -0.009060744429190816, 0.028743281603136977, 0.0034882098644250406, 0.008160382559346273, 0.022350293001919076, -0.02926682538441748, -0.0046806399978414044, -0.002398883744065087, -3.0430581578172575e-06, 0.021250926067298184, 0.007408433699340969, 0.03491147584112313, 0.0019570684381417713, 0.0075603882611738026, -0.008743962164635787, 0.01855850084621703, -0.0008814464890052656, 0.0057726958658516295, 0.010311902771478084, -0.005247518317959212, -0.0005961425411323189, 0.013840586713512277, 0.014550285369899024, 0.00744602458314996, 0.0162037963077473, -0.0211585541050374, -0.012474619366310455, 0.0028946091643196055, -0.01282175834998571, 0.027187525578800435, 0.01196290725597324, 0.015602493075711828, 0.021467276180203998, 0.02297431357390511, 0.012122968528795372, -0.0021093362870991342, 0.0496958062059012, -0.025155890203645583, 0.010563325330248289, 0.007405723490644001, -0.029390880892373652, 0.02035872378905759, -0.013286730922250148, 0.015585835832731865, 0.023310064913482344, -0.03205402263673305, 0.029190701414906463, -0.014957996201039006, 0.03720043266669742, 0.013446658271975852, -0.009601845539334469, -0.018811580892996622, -0.004809287126873618, -0.006688907226539421, 0.026650690876485583, 0.014155354644048677, 0.019995987885946462, -0.02623365256506839, 0.008357903005144812, 0.034866764203398674, -0.019323049447216495, 0.005741104827847233, 0.022454721858300608, -0.015283298627991175, 0.0073660325266574666, -0.00199244288204011, -0.015209983275362202, -0.00938533617849307, 0.04828898337645957, -0.0009191075761869822, -0.02076956422352924, -0.005520207884581707, 0.01698332147120594, -0.014468057763327947, -0.006373947711886344, 0.03052359237140116, 0.026585117026008832, 0.0066834423873151465, 0.014357097501663429, -0.01842595644470251, 0.005904417035337793, 0.027821583514658913, -0.010360568193078614, -0.004351429978463392, 0.032721377043881006, -0.02682616948030128, -0.004861974279373062, 0.017776990195584146, 0.03721541994185997, -0.006889011347974967, 0.007234766613458023, -0.01334057417284666, -0.003973182472473976, 0.05295595761022016, 0.06122260011614402, 0.020408824273070517, 0.02231969662075154, 0.013748302625566929, 0.007873191528116797, -0.04083052688095541, -0.011653584923729834, -0.01982457882734712, 0.01818356038205072, 0.038610433384131074, -0.001269495777435984, 0.029343073201949427, -0.017321619981490243, 0.024892886373620835, -0.001517637609517367, 0.005145146146409596, 0.008123857373660871, -0.01313832071577754, 0.023948298177269668, 0.007060663533733696, 0.025112137214338665, 0.016024833502030593, 0.00807746389169867, 0.0036208966303488996, -0.00452018478290204, -0.012617153287477716, 0.01189830364269169, -0.009211257180574858, 0.0027744507020816705, -0.018959331551432358, -0.02945155520813051, -0.00806338443626369, -0.012502619269656547, -0.0666404890250898, 0.012857239118457292, 0.00830222572760532, 0.025514642743844917, 0.002477790614135674, -0.02864764532686748, 0.001155698384137075, -0.005714224416048457, 0.02417045818980271, 0.0299080681950109, 0.01680745062718028, 0.009985129208006628, -0.004532110155268662, -0.03390602002985254, -0.04502650587385665, 0.012124804544260398, -0.0022004810453350363, 0.019918653618455583, 0.016154167036598138, 0.0007519113856811204, 0.003403160500103877, 0.027075360054556574, -0.01766247776163903, 0.006137551708732081, -0.020202256624836403, -0.03066538405619336, 0.011102598362551027, 0.01548672145939173, -0.018511124720373015, 0.006827290353800143, 0.008912111300368923, 0.0025943876465816746, -0.04982095628567434, -0.032694352598830426, 0.009562163828551578, -0.0028612499271119898, -0.0017514942783240523, 0.0229631303060307, -0.015060752598110357, 0.02893731677367114, -0.0037613415061771736, -0.005293475496299916, 0.0004864090967372166, 0.012353743807022196, -0.0062597715670796045, 0.015603660654502164, -0.011798462855286782, 0.03369587777457705, -0.00695374676850215, -0.02612532531189097, -0.027867085864343326, -0.020201212496478264, -0.019729983056277354, 0.001472083726832766, 0.0022222337428565125, -0.011606702954459125, -0.0104794249953959, -0.0374527761611256, -0.01479099261787301, -0.006980700905659063, -0.02287346300265137, 0.010733240614720384, 0.008013289994121308, 0.023949901200209664, 0.021560953830473437, 0.01324476971907948, 0.016112912164107113, 0.04370664959431074, 0.019360115933681626, 0.00375532775926309, 0.03187895282485725, 0.034253097243738345, -0.03092403062652165, -0.014908437987930219, -0.04016842106939689, -0.009183844841088787, 0.017583568639130825, 0.00016201294571755156, -0.0015017644209640495, -0.0220532523663347, 0.012551769880103642, 0.014913636211130189, 0.008103355677008149, -0.005155804271117863, -0.025212021403071494, -0.0069777170596778, -0.018058772344500037, 0.0004806940469505754, 0.022744726239610807, -0.02450752740674324, -0.004719574810463142, 0.0028635659743643065, 0.02591351791216319, 0.02219207181575889, 0.015484658481305988, 0.030407275710474163, 0.0153518015881204, 0.03193362826999923, 0.002027488292856602, -0.003858357730757692, -0.041188665872309835, -0.003886155856230326, 0.006226050825491651, -0.002024927703162869, -0.011952555878632509, -0.019028361069947305, 0.018933246038764746, -0.008249230512731723, -0.016985974375696992, -0.00630440531881824, -0.00690214299124467, -0.003234570612885998, 0.023970573091452767, 0.02079450968395029, 0.0011008497855982435, 0.01496893540767233, 0.007975636659565282, 0.00960447421438019, 0.024533903370982692, 0.0224682204164536, 0.01069084349327004, 0.00940631560229991, -0.010212095503121757, -0.007136141566014994, -0.013009038204071819, -0.004253531161244915, 0.0024983804073251945, 0.004880444654830513, -0.003353193537826532, -0.006685622775543818, -0.007633137321624741, 0.022671828567994524, 0.05176894607461488, -0.0024516462034902963, -0.009157800181535771, 0.0027847838735929106, -0.018973614389279247, 0.006427299881428602, -0.007406809244523387, 0.0031056243430414247, -0.021301725054845184, -0.016432412259455742, 0.01695664865068869, 0.03066575317087814, 0.02316498941096486, 0.0004076263628213107, -0.029827665838997278, -0.005539005141063498, -0.025916751559843226, 0.006668817940293201, 0.0016271174114992075, -0.002311502649857148, -0.00016834934358268567, -0.0017712763524334724, -0.013550740744339703, 0.0016356823333631956, 0.026852630221814527, 0.008516281862399229, 0.007752098086936118, -0.027158658194107253, 0.03626921155676365, -0.02077022283659394, -0.02927449541618062, -0.004246455180321803, 0.0012769402826999143, -0.001640570126787795, -0.006612038721227776, -0.018657838763210133, -0.02072521191279636, -0.03916377042286944, 0.0006752299326865229, -0.028786524796544987, -0.022875788506999693, -0.0006618420895028039, -0.018362926386821396, 0.01161224242442333, 0.01980824324122991, -0.021401584232233622, 0.006776383125802196, 0.01462681606010743, 0.005798655705476778, -0.03481910857633146, 0.01625987494317566, 0.013011208049426471, -0.01905283052083676, 0.01569423122040598, 0.016086846572547404, 0.0030463715653690614, -0.011917825362420673, 0.011151724080589715, -0.0022551007329489163, -0.011684769934232484, -0.004622511544816296, -0.00833775621246564, 0.013413503481408372, -0.01772916217237997, -0.010120324376533065, 0.02150023700573742, -0.006125127256942543, -0.03646953855507179, 0.00984946063769537, 0.01180745337426437, 0.029213854422907116, -0.017923672627209786, 0.010467983878157307, -0.00984550400897548, -0.00959781238338803, 0.0029359067916793317, -0.015642793442134845, -0.0023202246681608895, 0.02129368472359629, -0.0010079945962329956, 0.015959206879940985, 0.0125274472336101, 0.002793342764244399, -0.0047873666639338085, 0.01330480173604105, 0.009357458779562188, -0.01971707309927417, 0.00898643341378901, -0.006297668855082281, 0.01142765511655649, 0.02012665709457855, -0.002211856377597136, 0.043332998224702844, 0.004603877146334143, 0.0439458292244708, -0.03098793880004804, 0.019678806609606893, 0.00024728535620598824, -0.011366787560783959, 0.028538498912785, -0.01607489800911618, 0.0056201678850043724, 0.017725011883446114, -0.018059087944409545, 0.022720413005364384, 0.06347563379350471, 0.007426120770880936, 0.035816269350440695, -0.020091164850961952, 0.024782762328566438, 0.024546365764044006, 0.013429785022181936, -0.023605737581275182, 0.03333152529772313, -0.020411457691139116, -0.011084433039009965, 0.014902854207158337, 0.02299440806908387, 0.005811363636216035, -0.02872554509201386, 0.009757756925601704, -0.0011150381863807026, 0.02094053575061703, 0.023436223544145405, -0.007257768093471451, 0.032146862322406565, -0.0029299734256584917, 0.013155598944327218, -0.015743108695581456, -0.0007996232932870189, 0.0037410334814455617, 0.0253966913074271, -0.02935788346359695, -0.00815758682279221, -0.028550408116754522, -0.014672288279787674, -0.034102120478929215, -0.011530736204093207, -0.009871967473593085, -0.016549103785030838, 0.020315387984209753, 0.0343972063360717, 0.004942374617883871, 0.025260366301356814, -0.008135662778640512, 0.05531151238404392, 0.03473914065643487, 0.01956208093776581, -0.01392891780396545, 0.0049368518078445525, 0.010877293533609392, 0.008340314125471737, -0.012333382308027578, -0.018804835526608436, -0.013105620581501849, -0.007644630225904075, -0.00817965656495873, -0.014874992021900336, -0.012688836159844147, -0.0017281091822860244, 0.022600361069609005, 0.004849224645440137, 0.009785193405486697, -0.008165733255111548, -0.022041129182222268, -0.01235305449122077, -0.01525254639740108, -0.021022722865204874, 0.016540785240799754, -0.006217292348194823, 0.00240388910373009, -0.007297332415459892, -0.011066935372315834, -0.007994935992241506, -0.02592157744149668, -0.020725484878374827, -0.017192947467150225, 0.02614188434432233, -0.04925871253273442, 0.0016179339645588332, -0.022500115958804103, 0.0010807501843047942, -0.02043335584920678, 0.014257179502260029, 0.01965136295183064, -0.004964774808301361, 0.007346534868191209, 0.008423159833439695, 0.014361463719071727, 0.003468296881742398, 0.01505975206849648, 0.006352189035387116, 0.017781077532165745, -0.022497624249589145, -0.01943506769722812, -0.00038291164342182455, 0.0034261337361998876, -0.004779817491320736, -0.02322574087477958, -0.002982260474938394, -0.0009752404830329204, 0.010504602976584546, 0.002640577785029582, -0.014700522757802233, -0.0031136033393876225, 0.020858352786717445, -0.0047325427766104775, 0.0010488017028227345, -0.006646065990936383, -0.008952071979724969, 0.008864874609685018, -0.02143178388366616, -0.03539497804392286, -0.023690204515783502, -0.028368446101842953, -0.012816156344667793, -0.006037488638154618, -0.0038143618360079686, -0.02632316888779649, 0.0013194693226903078, 0.03361907102914653, 0.0031242458149084136, -0.026510200685756463, 0.0011049817465489768], [-0.006167817752778358, 0.0009507080822671055, 0.005086804705370265, -0.013718665639462379, 0.020934008208666442, 0.021057707095327224, 0.014383008255296944, 0.02722761100403105, 0.027783071313573934, 0.02895236367985474, 0.0013303266814027417, -0.01863083824873194, 0.0069947422554718095, -0.0007103236476998667, 0.004516239688653361, -0.0018455024783245594, -0.0023701346400256344, 0.000388805290656139, -0.0054541435624781, -0.006310013271139602, -0.016680097308103083, 0.018417479169007316, 0.0015523555663027168, 0.009590433104187746, -0.004790379001319429, -0.019219024756827827, 0.017060917949627698, 0.015751569353108476, 0.013498036063163143, 0.01965673402565733, -0.017269936058182504, -0.018130946675946422, -0.0014281702798300787, -0.0026622231612913024, -0.0035400855690352366, -0.004104805976472904, 0.0003573065012584287, -0.006960795945868594, 0.017492449091621155, -0.0009704339790187385, 0.008524250249344596, 0.018188619717633126, -0.003171338606238569, -0.0013284073723859172, -0.004241052074647221, 0.012085018881579392, -0.006764765759257577, 0.0013720579965842315, -0.007271377421825046, -0.0012208263616679204, -0.022562154326635206, -0.0012035782229908325, 0.014398505875405195, -0.018054437782059073, -0.006286789781084807, -0.0200500250540233, -0.012443301749814888, -0.01594534499196904, -0.029568845160566348, -0.02528811629893591, -0.01837069500781571, -0.029531455543769177, -0.013768267315771833, -0.016954910077709388, -0.010992845907162499, 0.0036577092354074525, -0.001121391724283668, -0.02225654451499428, -0.0005339377858751183, -0.009660753368266614, 0.018889047903885535, 0.017929979049089745, -0.012297357651169138, -0.0053573024648179484, -0.003202664029213067, 0.009044222621918315, -0.0312524485581715, 0.00041107116214879466, 0.005524364344958123, 0.02151183716200025, 0.022612501779469153, 0.022588581646632456, 0.003967753009788021, 0.011055128177199345, -8.497490171047029e-05, 0.002266621405674347, 0.01025125148151206, -0.02211525867776703, -0.01417683686472523, 0.002655551654057021, 0.005426728827135511, 0.016559486294149387, 0.00808686645968181, -0.020247479071571758, 0.0026438287988280163, 0.012061810773326848, -0.03147197838202968, -0.02919489551618415, -0.02660283977370283, -0.0006902675861689858, -0.006217965463223582, 0.00998772440843231, -0.0014804255158030171, -0.03846118155872428, -0.004866727059527896, -0.027046654237892216, -0.009884904545401882, 0.021895994297475564, 0.03753401870328769, 0.028867332026102487, 0.02481523500427468, 0.013917799758446406, 0.011651188667846746, 0.028130769147875063, 0.03513638712070493, 0.05142041294715739, 0.024339893382510042, -0.011975273269015409, -0.003679712082320814, -0.012235602794681914, 0.0180525755840232, 0.009518423434531433, 0.01854822603632731, 0.015612178587709892, 0.020742445723460422, -0.0069595702199925355, 0.04203978419653339, 0.00811737593807412, 0.0070658652218090244, 0.0008937299936572859, -0.008494791016002095, -0.0029177103070137833, -0.00664729874131486, 0.011534504308541686, 0.010391887613265413, 0.021221967230998565, -0.0100001933710062, -0.02251694584593954, 0.006941241831092813, -0.0038760144730815467, -0.007452101815928627, -0.009603417011814485, 0.01467584962028573, 0.01332372028394049, -0.016908367788320996, -0.03477429253005891, -0.0002782910495397613, -0.002322300924385754, -0.015462631890216277, 0.005044115865069824, -0.003649916857336229, -0.002241298863677878, 0.03393195733918787, 0.006811686383483263, -0.0029117414454009234, -0.00209121547312563, 0.01646496962743547, 0.026257952100853327, 0.008341025666546471, 0.008063709527340477, 0.014618459482771845, -0.011785755935204109, 0.0023335952439356347, 0.012730605127293623, 0.005547149962827987, 0.0047906043414339475, 0.014123652517319946, 0.02652681118570604, 0.0041107720749155915, 0.023533869783310096, 0.01254646014767006, -0.016994324671312358, -0.01130711231346795, -0.0018838610803065526, -0.007169066643269891, 0.03296965142215302, 0.021356726730788523, 0.0012417016469607786, -0.011044625567244523, 0.00038715074292822887, -0.005590372799566687, 0.001453056649089712, -0.007941402734718528, -0.00010335227502489234, -0.018066661120006235, 0.00047180617703177787, 0.00045342484500024085, 0.008482459165764534, 0.014084440662865811, -0.002792045374163097, 0.016699072739524805, -0.003920974884426899, 0.004273933528514474, 0.016741907146564778, 0.009487175480707674, -0.010342614828356366, -0.010005452708802804, 0.010332203832660194, -0.006462205305458323, 0.004596458894843856, 0.025783883745472348, 0.0007313092876425799, -0.0032867611739427825, 0.0025596292597277024, -0.0003103763510314383, 0.01882531519691899, 0.006207173317941891, 0.012735691456944288, 0.00502463733109835, -0.005141341098723072, 0.01809802008717697, 0.01172615891313238, 0.01932224375879046, 0.017079032842490925, 0.018156165133144848, 0.02210099298914008, 0.02713915655460898, 0.009948111785351871, 0.026429735830415774, -0.006971728024026782, 0.02644447332273506, 0.004022123122034143, 0.02936106178417184, -0.005855764294437774, -0.0011999039507518449, -0.004892701694791606, 0.012651380653024173, 0.003942681341940895, 0.025885241320038412, -0.00106804603176634, -0.006607626430462109, 0.012589428249284943, 0.018452302123739307, 0.00970495743540789, -0.009236611149485803, 0.018126486815607766, -0.0012149406636639184, -0.016314403153942655, 0.0036425098349755192, -0.0076278379681179636, 0.0009847969346428187, -0.01344831847475668, -0.00756741645816285, -0.00918824853284744, 0.02163632361791435, -0.01051064442460091, 0.016728350281046356, 0.010815922595998478, 0.00821981602870094, 0.005584351733231717, 0.012009792622119361, 0.014257572355372233, 0.02255158625265478, -0.0006442433178915057, -0.0022099713881178315, 0.002807997336803039, 0.012773398344156762, 0.011122424362255962, 0.012116968039299307, -0.0018316691398467975, 0.009771386824461036, 0.0023568906689935484, 0.0009426382390761762, -0.018340379860396636, -0.0032466233391727902, -0.003922603794921338, -0.002302830206966277, -0.003172313994921917, 0.006053573558586976, 0.007412921614623837, 0.012862773995295684, 4.125977951617088e-06, 0.006199504824084647, -0.005477798721285299, 0.012316967046857278, 0.005119862867612411, -0.0006864331697125006, -0.0018873423601860762, 0.0029651584659404263, 0.02285482605159053, -0.007764591068894358, -0.015813312253608925, -0.019908523083066256, -0.00790873329423697, -0.023360518001461276, -0.012296036968354436, -0.01993793667287808, -0.015050454615081093, 0.006861769229886732, -0.007062212511714459, 0.0042175225325344744, -0.004319785542735922, 0.0018613905187402319, 0.0022579942447971115, -0.004483683531457991, -0.0006557480128677227, -0.0077301274367836915, 0.0010660073864361224, -0.0003154256285500255, 0.006997528641424298, 0.03133757314252436, -0.0009065141309316185, 0.014623579129997047, 0.009629279826139533, 0.01728729323413757, -0.0062744710769107, -0.00933230052614875, 0.0002940798032892186, 0.005912468789531635, 0.004726158268012292, 0.022241540471717544, 0.017660498177769286, 0.019182281917574266, 0.005113732380908472, 0.013460181137684378, 0.003910994867336547, -0.0024396527554001396, 0.02567275460886509, -0.0002860416117358107, -0.011267419496750452, -0.0245410633355155, 0.013194864810485332, -0.007566151892560009, 0.01571861980291943, 0.0017153948960945597, 0.0029793339829745423, 0.008080867079357863, 0.00048557036950923734, 0.013874143764500186, 0.030648665834663396, 9.607263104045616e-05, 0.013116728545208454, 0.00012165714426668144, 0.0004392975463411437, 0.015838264549606858, -0.001400308584127238, -0.009394359400955132, 0.00317165442324217, -0.006285189591716332, 0.012621482277723962, -0.013067554413630162, 0.020805809483847942, 0.0011511325680526336, 0.0029350732903037436, -0.0025572313453796347, 0.011120669580403683, -0.011649043888995214, 0.0016415709015313669, -0.016111568889054902, -0.020265434965875864, -0.015013731608167607, 0.0176349196583068, 0.008764618017972377, 0.019707970969060754, 0.018456357743838248, 0.020168507009032405, 0.007786423176623793, 0.014190590598746706, 0.00749949696743195, -0.0020742669648938436, -0.00852958625305525, -0.002909259201420625, -0.009904853260689087, -0.027233040674056956, -0.020592020357302107, 0.0051133210487085325, -0.010963048937374287, -0.016992124540797803, 0.004880185557558253, -0.013745637154636147, -0.01167067101718268, 0.007099171964086084, -0.013050875209439757, -0.016602395864471084, -0.011419262338646067, -0.0014328151227124874, -0.008380423433873201, -0.00931672870790619, -0.01919977093299055, -0.011095295091907483, -0.012194585077045815, -0.01050320389347788, -0.018876762260258324, -0.026145582174095152, -0.011649638668361089, 0.0022265915294185537, 0.005870716312560142, -0.009245516116936024, -0.025836585838593697, 0.005022969298899019, -0.0026223512049603575, 0.005029442134005376, -0.005302062574110981, 0.010511143601528657, 0.00998622080315406, 0.001117431892781729, 0.025761760219334035, 0.018546077433916563, 0.013931884016608758, -0.012828432633846563, -0.0009838353801470583, -0.0027335693397397987, -0.024420479360294584, 0.009533835925379187, 0.027889100926519195, 0.00929973496390706, 0.012532743081471577, 0.008856433749687934, 0.00763933559426494, 0.003156778418738493, 0.02049467273466273, 0.00833045441830137, 0.0024609497387589347, 0.010231322641600048, -0.016603143605331456, 0.019843425491749125, 0.021477646684343533, -0.01669838001252717, -0.0036471396069216034, 0.02528408297173145, -0.009299736320260564, -0.016937176326659333, -0.014694874237061754, -0.018153681768126435, 