{"target_model": {"model": {"parameters": {"cache_size": 200, "decision_function_shape": "ovr", "random_state": 1, "kernel": "linear", "gamma": "auto", "verbose": false, "shrinking": true, "class_weight": null, "max_iter": -1, "coef0": 0.0, "degree": 3, "probability": false, "C": 1.0, "tol": 0.001}, "attributes": {"dual_coef_": ["float64", [[0.0, 0.0, 0.0, 0.0004961611687414125, 0.0005738464534921528, 0.0007399993900856501, 0.0, 0.0, 0.0, 0.0, 0.0009857066510118556, 0.0, 0.0, -0.0006036839381913627, -0.0, -0.00012703051428457446, -1.1908205750594959e-05, -0.0003507710216631751, -1.2954539689587269e-05, -1.5023645341410344e-05, -0.0, -0.0010339702764789393, -0.0006403715219314268, -0.0, -0.0, -0.0005908140665324204, -0.0, -0.0, -0.0, -0.003914992937487602, -0.0, -0.0, -0.0032196992487273516, -0.0, -0.001026709112536185, -4.360414869891018e-05, -0.0, -0.0027410555616358243, -0.0, -0.0, -0.0, -0.0, -0.0, -0.000880486865860698, -0.0, -0.0, -0.00291529512125825, -0.0010297891178322667, -0.00047705342202776626, -0.0, -0.0009293050785237593, -0.0010441641788979572, -0.0, -0.0, -0.00011583793893177708, -0.003948071292614676, -0.0, -0.0007795805488926283, -0.0, -0.0, -0.0, -0.0013932066500085603, -0.00033651446755128284, -0.0004478688949099972, -7.143266277254865e-05, -0.0, -0.0, -0.0, -9.941237830112085e-05, -0.0013581278863640362, -0.0, -0.0, -0.0, -0.00022999301327319857], [0.0, 0.0007460208253705956, 0.0, 0.0003317230539553727, 0.002599143325890813, 0.0025372576017140837, 0.00027283377273559025, 0.000733580543075816, 0.0016961789056552444, 0.0, 0.0024985225233884844, 0.0005702341424321921, 0.00043186724726079984, 0.0016665015447784657, 0.0, 0.000148817220415545, 0.0, 0.0, 0.0, 0.0, 0.0, 0.001616847785343087, 0.003243277984189299, 0.0009184525439638557, -0.001595306108122121, -0.0, -0.0, -0.0011861698609070836, -0.0001024347846702415, -0.0, -0.0001485443081684893, -0.00035768628189845815, -0.0, -0.0018756560265629156, -0.0, -0.0, -0.0008513479858345788, -0.00022099913297586945, -0.00046160325250856765, -0.0, -0.0, -0.0, -0.0003499314676682835, -0.0004442178693736443, -0.000897973494939848, -0.0012826194766755589, -0.0, -0.000725691475636633, -0.0, -0.0, -0.0005247813925201475, -3.175670082371213e-05, -0.00025651663111353815, -0.0, -0.0, -0.0, -0.0008231465088256115, -0.0005646698520353141, -0.0015338415371549674, -0.00019409328611593552, -0.0, -0.0005146272158553178, -0.00017674673739303978, -0.0027734255827276816, -0.0, -5.5320260829760546e-05, -0.001281046729931496, -0.0, -0.002211963027881035, -0.0, -0.0, -0.0, -0.00013139299660723126, -0.0010531966614077274], [0.0019405019011691533, 0.0011999926909764852, 0.0, 0.0, 0.0, 0.0015966841059189389, 0.0009231245912945613, 0.0014778935834643988, 0.0, 0.0013285747421928574, 0.0019927445350700576, 0.0, 0.0, 0.0009589465969332406, 0.0, 0.0, 0.0, 0.0, 0.0, 0.0, 0.0, 0.001514390911288072, 0.0020691481723137365, 0.0, 0.0, 0.0009331947014544101, 0.001984039982763655, 0.0, 0.0, 0.0, 0.0, 0.0, 0.007432535114285818, 0.004134178342007302, 0.0, 0.0, 0.008046528985032836, 0.0, 0.0005715539711283279, 0.002030314603909737, 0.006095768037007025, 0.0, 0.004744734587593016, 0.0, -0.0, -0.00665602830313219, -0.0, -0.005650640716344235, -0.0, -0.002969507606210788, -0.002828465537058187, -0.008130651668577571, -0.0, -0.0016919737564906352, -0.0, -0.005710340665403997, -0.0023352400719645187, -0.0, -0.0, -0.001245436420615453, -0.0005133230129742241, -0.004713561804703658, -0.0, -0.0033398189277516924, -0.0, -0.0004904131896632242, -0.0, -0.0013823391445383602, -0.00047142079891267653, -0.002743881323726393, -0.0003439408039168843, -0.0014350508519793566, -0.0017649276028424796, -0.0], [0.0, 0.0006618905115793261, 0.00041598690021070033, 0.00012559329291839396, 0.00150801243798493, 0.0011041040982207738, 0.0, 0.0, 0.0, 0.0, 0.000564659937219448, 0.0, 0.0003358893239398007, 4.981585300592417e-05, 0.0003044061146917448, 0.0, 0.001999265534750605, 0.0014101027897455358, 0.0, 0.0, 0.001990782594967331, 0.0011013557430489826, 0.0025527375128301557, 0.0010818577448992275, 0.0027595780385116205, 0.000224169850303808, 0.0, 0.0, 0.0, 0.0018969236084763821, 0.00021896767289716893, 0.0026046058948404854, 0.0, 0.0015087194242065834, 0.0009779160968603638, 0.0, 0.0008038745113059802, 0.0, 0.0017013464280577037, 0.0, 0.0005684550992619954, 0.0018450497977860322, 0.003334507459116279, 0.0, 0.0, 0.0019180391163073837, 0.0, 0.0015685094927758128, 0.0, 0.0, 0.0012637808546999698, 0.0010977311417735634, 0.00037402284893586264, 0.0, 0.0, 0.000705680835596659, 0.0009744087820069006, -0.0, -0.0, -0.0008452985683759018, -0.0, -0.0034410766280586593, -9.489316653734381e-05, -0.0013073874653371205, -0.0, -0.0, -0.0, -0.0004921810275695446, -0.0, -0.001146568231669002, -0.0, -0.0, -5.173225764906172e-06, -0.000569594758783674]]], "_gamma": 0.001, "fit_status_": 0, "intercept_": ["float64", [-1.4089309773351246, -2.5263184121373676, -0.512550018901376, -1.8891964992725276, 1.6660837987651236, 0.8051577670928175, -0.7029674360852041, 1.2096036116858147, -1.9096916158210195, -2.6354785350882675]], "classes_": ["int64", [0, 1, 2, 3, 4]], "probA_": ["float64", []], "class_weight_": ["float64", [1.0, 1.0, 1.0, 1.0, 1.0]], "support_": ["int32", [8, 17, 25, 44, 49, 54, 73, 76, 81, 87, 94, 96, 99, 1, 20, 28, 30, 32, 34, 43, 62, 65, 79, 88, 0, 3, 10, 13, 21, 26, 35, 37, 40, 46, 50, 57, 58, 64, 67, 75, 83, 84, 89, 92, 2, 24, 27, 29, 45, 53, 55, 56, 71, 72, 77, 82, 91, 9, 12, 14, 15, 18, 23, 31, 39, 42, 47, 51, 52, 63, 69, 74, 90, 97]], "shape_fit_": ["tuple", [100, 1000]], "_impl": "c_svc", "n_support_": ["int32", [13, 11, 20, 13, 17]], "_intercept_": ["float64", [-1.4089309773351246, -2.5263184121373676, -0.512550018901376, -1.8891964992725276, 1.6660837987651236, 0.8051577670928175, -0.7029674360852041, 1.2096036116858147, -1.9096916158210195, -2.6354785350882675]], "_sparse": false, "_dual_coef_": ["float64", [[0.0, 0.0, 0.0, 0.0004961611687414125, 0.0005738464534921528, 0.0007399993900856501, 0.0, 0.0, 0.0, 0.0, 0.0009857066510118556, 0.0, 0.0, -0.0006036839381913627, -0.0, -0.00012703051428457446, -1.1908205750594959e-05, -0.0003507710216631751, -1.2954539689587269e-05, -1.5023645341410344e-05, -0.0, -0.0010339702764789393, -0.0006403715219314268, -0.0, -0.0, -0.0005908140665324204, -0.0, -0.0, -0.0, -0.003914992937487602, -0.0, -0.0, -0.0032196992487273516, -0.0, -0.001026709112536185, -4.360414869891018e-05, -0.0, -0.0027410555616358243, -0.0, -0.0, -0.0, -0.0, -0.0, -0.000880486865860698, -0.0, -0.0, -0.00291529512125825, -0.0010297891178322667, -0.00047705342202776626, -0.0, -0.0009293050785237593, -0.0010441641788979572, -0.0, -0.0, -0.00011583793893177708, -0.003948071292614676, -0.0, -0.0007795805488926283, -0.0, -0.0, -0.0, -0.0013932066500085603, -0.00033651446755128284, -0.0004478688949099972, -7.143266277254865e-05, -0.0, -0.0, -0.0, -9.941237830112085e-05, -0.0013581278863640362, -0.0, -0.0, -0.0, -0.00022999301327319857], [0.0, 0.0007460208253705956, 0.0, 0.0003317230539553727, 0.002599143325890813, 0.0025372576017140837, 0.00027283377273559025, 0.000733580543075816, 0.0016961789056552444, 0.0, 0.0024985225233884844, 0.0005702341424321921, 0.00043186724726079984, 0.0016665015447784657, 0.0, 0.000148817220415545, 0.0, 0.0, 0.0, 0.0, 0.0, 0.001616847785343087, 0.003243277984189299, 0.0009184525439638557, -0.001595306108122121, -0.0, -0.0, -0.0011861698609070836, -0.0001024347846702415, -0.0, -0.0001485443081684893, -0.00035768628189845815, -0.0, -0.0018756560265629156, -0.0, -0.0, -0.0008513479858345788, -0.00022099913297586945, -0.00046160325250856765, -0.0, -0.0, -0.0, -0.0003499314676682835, -0.0004442178693736443, -0.000897973494939848, -0.0012826194766755589, -0.0, -0.000725691475636633, -0.0, -0.0, -0.0005247813925201475, -3.175670082371213e-05, -0.00025651663111353815, -0.0, -0.0, -0.0, -0.0008231465088256115, -0.0005646698520353141, -0.0015338415371549674, -0.00019409328611593552, -0.0, -0.0005146272158553178, -0.00017674673739303978, -0.0027734255827276816, -0.0, -5.5320260829760546e-05, -0.001281046729931496, -0.0, -0.002211963027881035, -0.0, -0.0, -0.0, -0.00013139299660723126, -0.0010531966614077274], [0.0019405019011691533, 0.0011999926909764852, 0.0, 0.0, 0.0, 0.0015966841059189389, 0.0009231245912945613, 0.0014778935834643988, 0.0, 0.0013285747421928574, 0.0019927445350700576, 0.0, 0.0, 0.0009589465969332406, 0.0, 0.0, 0.0, 0.0, 0.0, 0.0, 0.0, 0.001514390911288072, 0.0020691481723137365, 0.0, 0.0, 0.0009331947014544101, 0.001984039982763655, 0.0, 0.0, 0.0, 0.0, 0.0, 0.007432535114285818, 0.004134178342007302, 0.0, 0.0, 0.008046528985032836, 0.0, 0.0005715539711283279, 0.002030314603909737, 0.006095768037007025, 0.0, 0.004744734587593016, 0.0, -0.0, -0.00665602830313219, -0.0, -0.005650640716344235, -0.0, -0.002969507606210788, -0.002828465537058187, -0.008130651668577571, -0.0, -0.0016919737564906352, -0.0, -0.005710340665403997, -0.0023352400719645187, -0.0, -0.0, -0.001245436420615453, -0.0005133230129742241, -0.004713561804703658, -0.0, -0.0033398189277516924, -0.0, -0.0004904131896632242, -0.0, -0.0013823391445383602, -0.00047142079891267653, -0.002743881323726393, -0.0003439408039168843, -0.0014350508519793566, -0.0017649276028424796, -0.0], [0.0, 0.0006618905115793261, 0.00041598690021070033, 0.00012559329291839396, 0.00150801243798493, 0.0011041040982207738, 0.0, 0.0, 0.0, 0.0, 0.000564659937219448, 0.0, 0.0003358893239398007, 4.981585300592417e-05, 0.0003044061146917448, 0.0, 0.001999265534750605, 0.0014101027897455358, 0.0, 0.0, 0.001990782594967331, 0.0011013557430489826, 0.0025527375128301557, 0.0010818577448992275, 0.0027595780385116205, 0.000224169850303808, 0.0, 0.0, 0.0, 0.0018969236084763821, 0.00021896767289716893, 0.0026046058948404854, 0.0, 0.0015087194242065834, 0.0009779160968603638, 0.0, 0.0008038745113059802, 0.0, 0.0017013464280577037, 0.0, 0.0005684550992619954, 0.0018450497977860322, 0.003334507459116279, 0.0, 0.0, 0.0019180391163073837, 0.0, 0.0015685094927758128, 0.0, 0.0, 0.0012637808546999698, 0.0010977311417735634, 0.00037402284893586264, 0.0, 0.0, 0.000705680835596659, 0.0009744087820069006, -0.0, -0.0, -0.0008452985683759018, -0.0, -0.0034410766280586593, -9.489316653734381e-05, -0.0013073874653371205, -0.0, -0.0, -0.0, -0.0004921810275695446, -0.0, -0.001146568231669002, -0.0, -0.0, -5.173225764906172e-06, -0.000569594758783674]]], "probB_": ["float64", []], "support_vectors_": ["float64", [[-2.260575532913208, 0.6132442355155945, -1.8610345125198364, 0.2161487340927124, -1.2127113342285156, 1.1674649715423584, -6.69660758972168, -2.3848986625671387, -4.506409645080566, -0.41214942932128906, 2.921126365661621, 0.2758878767490387, -1.1747734546661377, -2.251450300216675, -0.7687578797340393, -1.654151439666748, -0.5167536735534668, -2.6856517791748047, -1.89015793800354, -0.3863309621810913, -0.617577075958252, 0.17193159461021423, -0.8625915050506592, -1.6202181577682495, -1.556969404220581, -0.10746760666370392, 2.3778440952301025, 2.7585768699645996, 0.7936179637908936, 1.2682708501815796, -3.1991794109344482, 1.4985719919204712, 1.5944592952728271, -2.696598529815674, -0.9072999954223633, -6.164450645446777, -1.6823923587799072, -7.074201583862305, 3.7258284091949463, -3.1438300609588623, -0.3254680037498474, 1.6448054313659668, 0.30477574467658997, 1.8337632417678833, 0.7191872596740723, -1.9946500062942505, -1.420716643333435, 3.897695302963257, -3.1997179985046387, -2.8517470359802246, -3.9298620223999023, 1.5629429817199707, 3.3792104721069336, 1.874271273612976, -0.13107585906982422, 0.352201908826828, 0.05434621870517731, -0.17122787237167358, -2.4401512145996094, 7.994277000427246, 1.9637620449066162, -1.219375491142273, 1.9850049018859863, 2.9439520835876465, 2.7582356929779053, 2.4396982192993164, 4.781405925750732, -2.8818087577819824, 4.473281383514404, -0.6842816472053528, -0.8260461688041687, 0.854401707649231, 0.08257704973220825, 3.8914237022399902, -2.246856212615967, 0.08466321229934692, -3.7188732624053955, -2.5027284622192383, 6.624106407165527, 0.5903812646865845, 1.7296698093414307, -1.6247230768203735, -2.8225975036621094, -0.7540231943130493, -2.97918963432312, -2.6507627964019775, -0.9482088685035706, -0.2297559678554535, -1.4523547887802124, -0.4250064790248871, -1.6735403537750244, -1.3597023487091064, 0.20082888007164001, -2.5889904499053955, -1.3957548141479492, 0.5146840810775757, -0.8011969327926636, -3.754877805709839, 0.06759791821241379, 0.030204594135284424, -0.292599081993103, 1.3194184303283691, -1.1234869956970215, 2.1529810428619385, -1.697421908378601, -2.6119940280914307, -1.5105319023132324, -0.7930986285209656, -0.7952663898468018, -1.4722988605499268, 3.52231764793396, 11.72982406616211, 0.7889578938484192, 1.1877540349960327, 0.25432726740837097, -0.0938023030757904, 1.5114150047302246, 2.490159273147583, -0.9844411611557007, -0.8643369674682617, 3.460345983505249, -0.6298867464065552, -0.6665251851081848, -4.712887287139893, -4.345195770263672, -0.4522338807582855, 3.0161383152008057, -2.313746452331543, 0.7918304204940796, -1.394994854927063, 1.241041898727417, -1.4044867753982544, 1.461512804031372, -2.682277202606201, -0.8106092214584351, 1.6436532735824585, -3.922797203063965, -4.142580509185791, -4.267237663269043, -2.1156277656555176, -3.1697869300842285, -4.1324872970581055, -2.7785022258758545, -2.940504312515259, -0.264017254114151, 1.469428300857544, 0.6693552732467651, 1.584460735321045, 1.4056400060653687, 3.5402414798736572, -1.466064453125, -0.464229941368103, 0.5972007513046265, -1.2637546062469482, -1.4256666898727417, -2.959655523300171, -0.8537731766700745, -1.2679520845413208, 0.5002111792564392, -1.7474819421768188, 0.2920830547809601, -1.3244026899337769, -2.036858081817627, -0.001863725483417511, -0.5999122262001038, -1.053459882736206, 1.0414133071899414, 2.3182849884033203, -0.3519367575645447, 0.1791975498199463, -0.5449599623680115, -0.6381329298019409, -1.1610229015350342, 0.6037963628768921, -1.2451997995376587, 0.4072546660900116, -0.05494394898414612, -1.5348565578460693, -0.8225917816162109, -2.1761364936828613, -1.6267918348312378, 2.5766568183898926, -2.206148624420166, 0.9990233182907104, -1.8492826223373413, -1.3025543689727783, -1.624079942703247, -0.8168635964393616, 2.2962636947631836, -0.04929691553115845, 2.985039710998535, -1.0640372037887573, -3.5385406017303467, -1.8301568031311035, 1.3091750144958496, -2.397189140319824, -2.7767765522003174, -2.575713634490967, -1.9815841913223267, -0.5690212845802307, -0.21993689239025116, -4.089356422424316, 1.1835507154464722, -3.082758903503418, -3.782674789428711, -2.7091050148010254, -0.564947247505188, -1.0318193435668945, -0.8623933792114258, -1.3615882396697998, -0.41389405727386475, -2.79170298576355, -1.2548720836639404, -2.3469767570495605, -2.643486499786377, -1.071641445159912, 0.506341814994812, -3.199733018875122, -2.1248817443847656, -1.9897788763046265, 0.24311292171478271, 0.640202522277832, 0.03370183706283569, -0.4172724485397339, -0.5426206588745117, -2.3557393550872803, -2.293564558029175, -1.1028447151184082, 0.7928738594055176, -1.1664960384368896, -2.3171510696411133, -1.7588536739349365, -0.7067980766296387, -0.9855371117591858, -2.2340636253356934, -1.1236193180084229, -1.0305770635604858, -3.0599281787872314, -1.5584598779678345, -2.425487518310547, -1.819019079208374, 0.0220588818192482, -2.4392902851104736, -1.6584758758544922, -1.852463960647583, -1.600943684577942, -1.2679795026779175, -0.9339334964752197, 0.2592487037181854, -1.8372381925582886, -0.5045491456985474, -0.9474692940711975, -1.2635293006896973, -1.213339924812317, -2.547757863998413, -3.0285894870758057, -0.8264335989952087, -1.9650450944900513, -1.2897034883499146, -2.448164701461792, -1.6818971633911133, -1.6295667886734009, -1.658503770828247, -2.593416690826416, -1.0035851001739502, -0.980553925037384, -0.9681273102760315, -1.3482362031936646, -0.8925023078918457, 0.4008510112762451, 0.6971358060836792, -0.276740163564682, -0.26271960139274597, -0.10537689924240112, -0.7830443382263184, -0.5018492937088013, -0.8482398390769958, -0.6751706004142761, -0.10391039401292801, 0.7012096047401428, -0.03125087916851044, -0.3922944962978363, -0.8452551364898682, 0.6675143241882324, 0.42968985438346863, -0.2803693413734436, -2.7191686630249023, -1.6376651525497437, -1.2319581508636475, -1.0858969688415527, -1.852631688117981, -1.734473466873169, -1.5904163122177124, -0.5684667825698853, 1.132521152496338, -1.4865903854370117, 1.008010745048523, 0.41513729095458984, -0.7913364768028259, 0.04273685812950134, 0.07638493180274963, 2.0629279613494873, 1.5538092851638794, 2.141906976699829, 0.2670639157295227, -3.794764518737793, -0.7951450347900391, 1.2264457941055298, -0.20737603306770325, -0.502497136592865, 3.715578556060791, -1.4461501836776733, -1.087780237197876, -1.1848783493041992, -1.2888869047164917, 1.3356938362121582, -1.4287971258163452, 0.42597144842147827, 3.851184606552124, 0.4504760503768921, 1.4061989784240723, -2.4373981952667236, -1.4162414073944092, -0.8973491787910461, -0.9155808091163635, -1.730534315109253, 2.0037596225738525, -1.0913093090057373, -2.383641481399536, -1.4326990842819214, -0.6906481385231018, 0.6693928241729736, -1.338573932647705, -2.9661808013916016, -1.2474356889724731, 1.947618842124939, -3.1291065216064453, -0.8524654507637024, -2.3660173416137695, -0.43203413486480713, -1.7784686088562012, 0.1512971967458725, -1.881446123123169, -2.8345868587493896, -3.872382879257202, 2.2471981048583984, -4.706045627593994, 0.2518533170223236, -2.044921875, 1.0257048606872559, 3.0078470706939697, 0.2061043381690979, -1.7116791009902954, 1.7516543865203857, -0.08724503219127655, -2.0417733192443848, 2.129779100418091, 0.75043123960495, 2.7193219661712646, 2.345290422439575, -1.6376358270645142, 2.00128173828125, 1.5368950366973877, -2.579854965209961, 1.9530251026153564, -0.40788039565086365, -0.5678455233573914, 1.0168029069900513, 2.316466808319092, 1.397668480873108, -0.629705011844635, 1.2590886354446411, -1.2530308961868286, -1.0829559564590454, -0.0962790921330452, 0.028301261365413666, 2.2501373291015625, 1.8756732940673828, 0.6585656404495239, 0.6588115096092224, 1.5964319705963135, -0.7907934188842773, -0.01711118221282959, 0.5402711033821106, 1.1071953773498535, 0.5905644297599792, -0.7524784803390503, 1.3842194080352783, -2.1341845989227295, -0.7941084504127502, 2.5439698696136475, -2.085310935974121, 3.5495359897613525, -0.6747238039970398, -1.3562684059143066, 1.4893052577972412, -3.385972499847412, -3.1316170692443848, 0.10563275218009949, 1.2430893182754517, -1.1231439113616943, -1.0450938940048218, 0.8628568053245544, -2.2647931575775146, 3.2961177825927734, 3.7409892082214355, -5.0567121505737305, -1.2921252250671387, -2.3542819023132324, 3.970913887023926, -3.71164608001709, -4.21909761428833, -0.9247854948043823, 2.7181835174560547, -5.209926128387451, -2.2409627437591553, 1.5023207664489746, 0.8366736769676208, 7.234769344329834, 3.866630792617798, -0.944810688495636, 3.7029531002044678, -0.3322911858558655, -0.32082247734069824, -1.2996783256530762, -4.743375778198242, 1.7831594944000244, 0.12317174673080444, -2.266786575317383, 2.2377045154571533, 0.5115687847137451, -0.6169738173484802, 6.0343170166015625, -0.20055466890335083, -1.383879542350769, -0.7113835215568542, -2.61750864982605, -0.3808538615703583, 4.647559642791748, 3.026163339614868, 0.26248645782470703, 1.718865156173706, -1.7583777904510498, 1.7691619396209717, 1.0912798643112183, -2.84566068649292, 4.925602912902832, 1.2312389612197876, -2.668311834335327, -3.2155487537384033, 1.0905814170837402, 6.9638671875, -0.004139430820941925, -1.6617965698242188, -3.99467134475708, 2.8608715534210205, 1.6753617525100708, -1.0022273063659668, -3.714432716369629, -0.11970429867506027, -2.673395872116089, -0.093531034886837, 0.08788411319255829, 0.5694687366485596, 4.3275017738342285, 1.2368884086608887, -0.27203577756881714, -3.878535509109497, -1.5078305006027222, 2.5173537731170654, 2.1753745079040527, -1.5673696994781494, -1.9798880815505981, 6.876924991607666, -0.8175682425498962, -1.6120177507400513, -5.15411376953125, 1.4496676921844482, -0.6031056642532349, 0.023841917514801025, 1.4496169090270996, 3.922736644744873, 2.4110329151153564, -2.0368056297302246, -0.5772712230682373, 2.5087854862213135, -0.167098730802536, 0.9985361099243164, 8.374581336975098, 0.9100831747055054, 5.346968173980713, 4.1731038093566895, -2.5763323307037354, -1.2071863412857056, 4.6019978523254395, -4.353287220001221, -1.0834447145462036, -4.57075309753418, -1.6721069812774658, 5.18269681930542, -2.0195138454437256, 0.490418404340744, 2.5709545612335205, 2.2911534309387207, 4.920071125030518, 1.4516041278839111, 7.917067050933838, 6.694375038146973, 0.22161346673965454, -3.9293742179870605, 0.9503303170204163, -2.620436429977417, 7.454249382019043, 3.9804933071136475, 0.04456959664821625, -0.8823665380477905, 0.9477598667144775, -0.240162193775177, 0.7617970705032349, -1.4313937425613403, -2.9939846992492676, 1.3555251359939575, -0.2934531569480896, -0.8789222836494446, -0.8461199998855591, -3.529381036758423, -2.5380256175994873, -0.27347102761268616, 1.1749653816223145, -0.8934987187385559, 4.324991703033447, 3.8825721740722656, -2.5805611610412598, 1.5915175676345825, 2.0594072341918945, -0.9721397161483765, -0.9827378988265991, -1.9644652605056763, -2.9510653018951416, 0.2429075539112091, 0.9287806749343872, 1.7307524681091309, 4.569696426391602, -0.7704735398292542, -0.2852019667625427, 1.0801986455917358, 0.6402098536491394, -3.646332263946533, -2.3729546070098877, 0.9816548824310303, 1.767149567604065, 4.047159194946289, -2.0046143531799316, 1.2476975917816162, -0.07389301061630249, -2.1161155700683594, 1.1770576238632202, -0.38460052013397217, 3.5518710613250732, 1.6931326389312744, 3.0562524795532227, -2.772880792617798, -1.0083733797073364, 1.4112398624420166, -4.006518840789795, -2.1193559169769287, 3.1790242195129395, 4.343444347381592, -2.5738346576690674, -3.221457004547119, 1.796090841293335, -1.471932291984558, 1.6988612413406372, -1.4846413135528564, 4.232579231262207, -3.153903007507324, -1.2174736261367798, 1.858524203300476, -4.148545742034912, -4.884589195251465, -5.356674671173096, -1.7441017627716064, -1.85221266746521, 1.4511041641235352, 7.61866569519043, 4.392117500305176, -1.519993543624878, 3.3670806884765625, -1.1278269290924072, 2.0548014640808105, 2.2778642177581787, 0.2225736379623413, 1.4808863401412964, 3.7808494567871094, -0.5462456345558167, -4.289036750793457, 5.082403182983398, -2.340644121170044, -1.2065889835357666, 0.7026007175445557, 8.902778625488281, -0.372067391872406, 2.6657450199127197, -6.361377716064453, 2.7894461154937744, 2.005211353302002, 4.023536682128906, -1.3237361907958984, -2.000317096710205, -4.0316243171691895, 1.9701400995254517, -1.0540401935577393, -2.660787582397461, 1.5994547605514526, -4.286843776702881, 2.9866483211517334, 7.719900131225586, 0.8097022175788879, 3.6374948024749756, 2.3102123737335205, 2.632366180419922, -2.4578182697296143, 1.638106346130371, 7.453630447387695, -2.141045570373535, -0.2876344323158264, 2.6501972675323486, -1.6693655252456665, -0.5126549601554871, 4.5122528076171875, -0.18315792083740234, 2.7656102180480957, 3.212780714035034, 6.291818141937256, -4.09443473815918, 4.392775535583496, 2.109102725982666, -1.30181086063385, -2.6312482357025146, -1.6907286643981934, -4.747766017913818, 3.614032030105591, -2.9212546348571777, 0.19864019751548767, 5.3000006675720215, -0.6612094044685364, 2.3845930099487305, 4.09240198135376, -1.088786244392395, -1.757688283920288, 2.707803726196289, 2.594928026199341, -2.0345053672790527, 3.1803319454193115, -1.9714404344558716, -3.605987548828125, -2.961589813232422, 0.9339383244514465, 0.5908752083778381, 1.4693273305892944, -1.7559232711791992, -3.851492404937744, 4.139048099517822, -1.22776198387146, -1.1297072172164917, -0.7052843570709229, 4.098142623901367, -0.33935922384262085, -3.820188283920288, -5.849029064178467, -1.3729126453399658, -1.53472900390625, -0.653001070022583, 2.8623721599578857, 2.3386242389678955, -0.20999357104301453, 4.414547443389893, 6.2379841804504395, 5.234597682952881, 1.5634115934371948, 6.749567031860352, 0.827299952507019, -1.8461180925369263, 5.301444053649902, 4.026693344116211, 0.43065863847732544, 4.578393936157227, -2.415707588195801, 0.9593421816825867, -0.5890721678733826, -3.932739496231079, 2.831249237060547, 1.6355013847351074, 0.5057228207588196, -1.643315076828003, 3.2942848205566406, 3.239711284637451, -3.6072211265563965, -4.169419288635254, 4.387453556060791, 3.4399659633636475, 2.485071897506714, 3.103027582168579, -2.034536123275757, -1.4321995973587036, -0.8974723815917969, -4.581641674041748, -1.317142367362976, 3.0511181354522705, -1.8511008024215698, 0.8372567892074585, 0.6365845799446106, 5.620471000671387, -0.9945423007011414, 7.968667030334473, 0.47184646129608154, -3.2504658699035645, -3.8369498252868652, -2.5214269161224365, 1.5419267416000366, 4.873927593231201, -2.3742520809173584, 4.790717601776123, 0.5940797328948975, -1.3213051557540894, 1.3607707023620605, 0.581175684928894, 0.0634949803352356, 1.5682010650634766, 4.086814880371094, -2.927727222442627, 3.30875563621521, -1.081079125404358, 1.4781110286712646, -2.8249623775482178, -3.004596710205078, 2.089724063873291, 1.8385722637176514, 0.5068913698196411, 1.1286648511886597, 2.4249320030212402, -1.632326602935791, -1.3572821617126465, 0.19157537817955017, 3.1797144412994385, 0.5183426737785339, 1.7631139755249023, 1.9611798524856567, 0.3269740343093872, 2.2996208667755127, -2.958588123321533, -1.4261335134506226, -1.0203802585601807, 1.8621162176132202, 0.0709538459777832, -2.123910665512085, -2.0213329792022705, -3.1392290592193604, 1.619802474975586, -0.0424262136220932, -2.277271032333374, 2.069962739944458, -2.455869674682617, 4.292464256286621, 0.24681656062602997, 1.452873706817627, -0.03198324143886566, 3.6779842376708984, 1.0549895763397217, 4.330264091491699, 0.709340512752533, 4.0641889572143555, 8.36215877532959, -0.43719911575317383, 0.5443755388259888, -3.493516683578491, 2.543285369873047, 2.825294017791748, 0.3532962203025818, -2.029487133026123, -1.046237587928772, 1.2400522232055664, 1.938704490661621, 4.22485876083374, 3.498927354812622, -0.6166878938674927, -0.14474168419837952, 0.06744782626628876, -2.0065670013427734, -0.16527628898620605, -0.007816314697265625, -2.248927354812622, 0.9186598062515259, -0.9257882833480835, 0.42151811718940735, 3.594223737716675, 3.11665940284729, -2.4270570278167725, 3.0234780311584473, -3.794032096862793, -3.0968873500823975, -0.5283939838409424, -1.6796624660491943, -3.2770469188690186, 4.542113780975342, -0.48387277126312256, -0.6790922284126282, -0.9083439111709595, -1.378844976425171, 0.996807336807251, 1.9295592308044434, 2.2006938457489014, 4.024723529815674, 4.876708984375, 1.7247562408447266, -1.9011191129684448, -1.4438048601150513, 0.04524427652359009, 5.359791278839111, -2.9563674926757812, -4.520851135253906, 1.6603902578353882, -1.5407755374908447, 3.691723585128784, -0.6377994418144226, -2.1044516563415527, 5.970986843109131, 1.0847033262252808, 3.24929141998291, -3.818798065185547, 1.0852586030960083, 0.3554772734642029, -5.2636003494262695, -1.22060227394104, -0.6163737773895264, -0.8714218139648438, 3.0052297115325928, 0.2517014145851135, 3.7185661792755127, -0.5117201209068298, -0.210160493850708, 2.2252871990203857, -1.8889421224594116, -2.463979959487915, 5.050004959106445, 2.483717679977417, 3.6175971031188965, -3.3342432975769043, 1.1727081537246704, 0.4681452512741089, -1.198431372642517, 0.9130951166152954, 4.371603965759277, -3.2264418601989746, 0.7433149814605713, 4.3153977394104, -1.0382839441299438, -0.7348435521125793, -0.1448526680469513, 0.39867928624153137, 3.356712818145752, 2.3770391941070557, 2.1960737705230713, -2.477069139480591, -1.835172176361084, -2.485626697540283, -2.693209648132324, 1.2472184896469116, -3.092284679412842, -1.2931321859359741, -1.2666521072387695, 1.638503074645996, 2.4455573558807373, -2.2183284759521484, -3.569415807723999, 2.395211935043335, -2.168489694595337, -0.626365602016449, 4.492043972015381, -1.9735370874404907, -0.5182616710662842, -0.9985238313674927, -1.0440304279327393, 1.2183092832565308, -3.5277791023254395, 3.4529175758361816, -1.544396162033081, -2.0562171936035156, -1.6850837469100952, -1.7237752676010132, -0.23114190995693207, 0.3764054775238037, 3.3712573051452637, 1.5661033391952515, -1.5213462114334106, -1.5491074323654175, 1.968631386756897, -1.7422791719436646, 0.5443820357322693, 2.339949369430542, -0.9387714862823486, 4.115020751953125, 7.19769811630249, -0.10918334126472473, -1.4168280363082886, -0.5844196677207947, 1.6881777048110962, 0.11458969116210938, -0.854997992515564, 0.9117164015769958, 0.5225580334663391, 1.8220691680908203, 1.0679492950439453, -3.7716283798217773, 1.2135671377182007, -5.034053325653076, 2.266453266143799, -0.740932822227478, 0.11257115006446838, 2.566663980484009, 0.7624099254608154, 2.019130229949951, -2.0559747219085693, 1.7495815753936768, -1.2953568696975708, 4.08323860168457, -1.108778953552246, -1.3051502704620361, -1.4830759763717651, -0.046033620834350586, 0.7096064686775208, 1.5379438400268555, 3.806642532348633, -2.9376864433288574, 0.3335837125778198, -2.02445387840271, -0.8051717281341553, -0.07693468779325485, 0.4099053144454956, -0.37384548783302307, 0.46820294857025146, -1.511216640472412, 0.019139418378472328, 0.24374470114707947, 0.5642752647399902, 2.905823230743408, 0.7422302961349487, -2.86393141746521, 1.9400768280029297, 0.8532007932662964, 0.6062777638435364, 3.049778699874878, 1.1053792238235474, -3.449789047241211, 2.492077350616455, -3.270132064819336, 0.9104759097099304, -2.0427744388580322, -3.329205274581909, 0.2908240556716919, 0.5030978918075562, -2.1025989055633545, -0.39104610681533813, -4.447953701019287, 0.09764353930950165, -2.327094793319702, 0.4162695109844208, 3.121206283569336, 5.203680038452148, 3.7543511390686035, -0.6546505093574524, 3.066425323486328, -3.1323657035827637, -1.7164379358291626, -0.13499891757965088, -0.23161393404006958, -1.6186091899871826, -1.2576565742492676, 0.1264713555574417, -2.583409070968628, -0.8530076146125793, 0.06044489145278931, -5.007966041564941, -2.0164873600006104, -1.9333083629608154, 2.920668840408325, -1.09353768825531, 0.559042751789093, 0.2256895750761032, 0.15166309475898743, 0.21254661679267883, 0.9453149437904358, -3.5254297256469727, -1.1199910640716553, 1.465827465057373, 1.7620882987976074, 1.2599327564239502, -1.5021296739578247, 0.5250343084335327, 0.9295526146888733], [-3.349592924118042, 0.8556496500968933, -0.9264772534370422, -0.6559791564941406, -1.5616919994354248, 1.1835500001907349, -5.516788005828857, -2.51358699798584, -3.649853467941284, -0.9307488203048706, 4.232069492340088, 0.4800706207752228, -0.9662818908691406, -1.0578782558441162, 0.14496544003486633, -1.0624301433563232, -0.7671868205070496, -2.151817560195923, -0.9513476490974426, 0.14211398363113403, -0.6860764622688293, 2.2286510467529297, -0.4358971416950226, -0.7274013757705688, -0.3847268223762512, -0.6642116904258728, 2.5289759635925293, 2.05899977684021, 0.4021400511264801, -0.8463517427444458, -3.453890562057495, 1.7064297199249268, 2.0866589546203613, -1.9276764392852783, 0.37450331449508667, -4.52350378036499, -1.1224840879440308, -6.401114463806152, 5.612206935882568, -3.1091744899749756, 0.2837774157524109, 1.0955922603607178, 0.9464127421379089, 2.9062366485595703, -1.1113629341125488, -1.732469916343689, -0.8668534755706787, 3.243680953979492, -4.827905654907227, -3.5272810459136963, -4.281964302062988, 1.3753682374954224, 0.8666515350341797, 0.30128759145736694, -0.8350252509117126, -1.5934398174285889, -0.6619992256164551, -1.411179542541504, -3.6863813400268555, 5.748982906341553, 0.42270663380622864, -2.0675697326660156, 0.42425215244293213, 1.2174707651138306, 2.0309553146362305, 1.6068974733352661, 3.372224807739258, -4.497684955596924, 2.602254629135132, -1.2145365476608276, -0.14821094274520874, 1.830344796180725, 1.6480093002319336, 6.0425310134887695, 0.02339722216129303, 0.6950415372848511, -3.076263427734375, -1.7235807180404663, 5.881032466888428, 0.1185770332813263, 2.6590733528137207, -1.0183861255645752, -2.401430130004883, -0.09368537366390228, -2.9984328746795654, -2.3349273204803467, -0.7778370976448059, -1.1898915767669678, -0.9017621278762817, -1.3109004497528076, -1.1975030899047852, -0.8912606239318848, 1.0786606073379517, -3.2929210662841797, 0.14205005764961243, 0.8320639133453369, -0.30525022745132446, -3.6914308071136475, -0.1884041130542755, -0.9450053572654724, -1.3674237728118896, -1.2312541007995605, -3.042994976043701, 1.0018951892852783, -2.5512514114379883, -2.6331558227539062, -2.8084371089935303, 1.6453750133514404, -2.3916807174682617, -0.7603548765182495, 3.3049604892730713, 9.582131385803223, 1.1768293380737305, 0.4879271388053894, -1.6532148122787476, 0.8391060829162598, 1.4238160848617554, 2.708806037902832, -1.7915452718734741, -1.5854259729385376, 1.0838513374328613, -0.37198010087013245, -1.3130935430526733, -4.54424524307251, -3.948310375213623, -0.9558453559875488, 4.382047176361084, -1.5592447519302368, 2.1168456077575684, -1.964966058731079, -2.0488622188568115, -2.4683282375335693, -1.0160703659057617, -1.7699741125106812, -1.680120587348938, -0.12746477127075195, -2.1756885051727295, -3.711005449295044, -3.1887290477752686, -0.9353647828102112, -2.7586042881011963, -3.061520576477051, -2.291813850402832, -0.9284970760345459, -1.8866069316864014, 0.19687360525131226, 0.39004090428352356, 0.7054648995399475, 0.9108541011810303, 0.7674447894096375, -1.8014973402023315, -0.4260389804840088, 0.8701646327972412, -1.211623191833496, -1.6743683815002441, -1.947129249572754, -0.34586966037750244, -0.8483104705810547, 1.6474497318267822, -1.8759924173355103, -0.39951443672180176, -0.7613517045974731, -0.7921702861785889, 0.5343745350837708, 0.7756916284561157, -0.7831249237060547, 2.0034544467926025, 2.76047682762146, -0.9412587881088257, 0.7382303476333618, -0.16415834426879883, -0.22254019975662231, -1.2882373332977295, -0.4363492727279663, -1.353908896446228, 1.2169643640518188, -0.2823965549468994, -1.7643707990646362, -1.5104684829711914, -2.4635469913482666, -1.3128960132598877, 2.7338931560516357, -1.3851144313812256, 0.06590668857097626, -1.9927531480789185, -0.967473030090332, -1.2063097953796387, -0.9534106850624084, 3.386124610900879, -0.4069746732711792, 3.0513253211975098, -0.1749981939792633, -3.415487766265869, -1.7554856538772583, 1.1278116703033447, -1.1474735736846924, -2.776221990585327, -2.844348669052124, -2.3372106552124023, -1.3328766822814941, -0.09953314065933228, -3.886735677719116, 0.05626741051673889, -3.0539748668670654, -3.8511533737182617, -2.5134072303771973, 0.3883134126663208, 0.06312081217765808, 0.060398492962121964, -1.6460034847259521, -0.002714596688747406, -2.388509511947632, -0.018989674746990204, -2.238921642303467, -1.871192455291748, 0.13500210642814636, 0.4740653932094574, -1.8022613525390625, -0.4683361351490021, -0.8933541774749756, 0.48634517192840576, 0.6554665565490723, 0.3642575740814209, -0.8883077502250671, -1.295881986618042, -2.2787418365478516, -2.5726382732391357, -0.3558349013328552, 0.7360484600067139, -0.7547259330749512, -1.7933695316314697, -0.7191031575202942, 0.5061946511268616, -2.3748323917388916, -1.9882768392562866, -1.0598225593566895, -0.4895476996898651, -2.2614941596984863, -0.5813541412353516, -1.6103062629699707, -0.5131415128707886, 1.5075137615203857, -2.666248321533203, -2.418984889984131, -1.684314250946045, -2.4080188274383545, -0.4034801721572876, 0.3932594358921051, 0.28365346789360046, -1.7172939777374268, -0.3431346118450165, 0.062480658292770386, -1.4507036209106445, -0.8175756335258484, -2.3471243381500244, -3.3281960487365723, -0.16157551109790802, -1.6055494546890259, -0.9740402698516846, -2.2944283485412598, -1.4472694396972656, -1.5853846073150635, -1.4330198764801025, -1.5213801860809326, 0.17224259674549103, 0.2675395607948303, -0.5907648205757141, -1.2564635276794434, -0.8098163604736328, 1.1330573558807373, 1.0258070230484009, 0.2726917862892151, 0.6923928260803223, 0.844138503074646, -0.9712174534797668, 0.1758282482624054, -0.8408488631248474, -0.3298349678516388, 0.3874925971031189, 1.495637059211731, 0.04150557145476341, -1.1246336698532104, -1.430061936378479, 0.302295058965683, -0.7467286586761475, -0.7377309203147888, -2.2306129932403564, -1.3289366960525513, -0.8068954348564148, -0.6221318244934082, -1.2029445171356201, -2.2257959842681885, -1.9749267101287842, 0.49554407596588135, 0.8069851994514465, -0.9023206830024719, 1.1361340284347534, -0.08223847299814224, -0.693695068359375, 0.8613632321357727, 0.4948083758354187, 3.3544132709503174, 2.693763017654419, 2.7039482593536377, 2.223421812057495, -2.950226068496704, -1.7097253799438477, 2.3055505752563477, 0.5405910015106201, 1.2445945739746094, 4.860941410064697, -1.3658552169799805, -0.7583413124084473, 0.19602565467357635, -0.3387658894062042, 1.6091511249542236, -1.7939649820327759, 0.7924439907073975, 3.6696226596832275, 0.32514625787734985, 1.8638287782669067, -0.2535378336906433, 0.22838325798511505, 0.03636106848716736, 0.7555249929428101, -0.4584076404571533, 3.2980377674102783, -0.9928262829780579, -1.023728370666504, -1.8325456380844116, -0.991309404373169, 0.7968611717224121, -1.925010085105896, -1.3324620723724365, -2.484663724899292, 2.1484389305114746, -2.32210636138916, -2.1999919414520264, -2.1007883548736572, -1.6973130702972412, -2.529074192047119, -1.2753255367279053, -3.0179967880249023, -4.521366596221924, -5.616615295410156, -0.1561926007270813, -5.975986480712891, -1.7579903602600098, -3.340012311935425, -0.890261709690094, 1.9487848281860352, -1.1139202117919922, -1.8246064186096191, 0.5130804181098938, 0.21100006997585297, -2.3942525386810303, 2.9784584045410156, 1.2021682262420654, 2.8256995677948, 2.3345022201538086, -1.4798558950424194, 1.169650912284851, 1.0326673984527588, -3.622339963912964, 1.6309462785720825, -0.46016013622283936, -1.0835788249969482, 0.3043215572834015, 2.256066083908081, 1.1852530241012573, -0.1754496991634369, 0.49844077229499817, -2.3990108966827393, -1.1940523386001587, -0.3415314257144928, 0.6461941599845886, 0.5841094851493835, 1.2083812952041626, 0.3354663550853729, 0.001046057790517807, 1.323305606842041, -0.654703676700592, 1.0813441276550293, 2.0784192085266113, 2.283078670501709, -2.338406562805176, -2.4143810272216797, 0.4446008503437042, -1.3623586893081665, -2.4690325260162354, -0.8119852542877197, -3.7834653854370117, 5.429419040679932, -1.5851612091064453, -2.097034454345703, -0.17703798413276672, -3.0884718894958496, -1.9552395343780518, 1.3046703338623047, 2.0525810718536377, 0.18010786175727844, -1.5367265939712524, 1.6279138326644897, -0.3179579973220825, 3.6132006645202637, 3.8311259746551514, -4.343736171722412, -1.382650375366211, -2.386338233947754, 5.216797351837158, -2.403885841369629, -3.3716318607330322, -0.8445195555686951, 2.5918705463409424, -4.532822608947754, -1.3187823295593262, 2.018756866455078, 3.557752847671509, 5.745384693145752, 4.290504455566406, 0.44521427154541016, 1.4527361392974854, 0.4965718984603882, -1.4870935678482056, -2.0650715827941895, -3.273066520690918, 3.826892137527466, 0.14818614721298218, -2.595146894454956, 2.2005374431610107, 1.1813620328903198, -2.3540685176849365, 4.188257217407227, 0.4332197904586792, -1.2784907817840576, -2.5297327041625977, -3.4916460514068604, -0.0820646733045578, 2.516547441482544, 3.259239673614502, 0.08524966239929199, 0.3313037157058716, 1.014742374420166, 2.430614948272705, -0.27031177282333374, -2.437067985534668, 4.480966567993164, 1.6265264749526978, 0.45841550827026367, -2.476130723953247, -0.5614463090896606, 7.868075847625732, -0.044606342911720276, -1.9342987537384033, -4.4101948738098145, 3.7111024856567383, 1.3837409019470215, 0.16322627663612366, -3.8411779403686523, 1.2237248420715332, -1.6640292406082153, 1.8961313962936401, 0.42249104380607605, -0.4168667197227478, 3.56523060798645, 0.8372375965118408, -0.8686223030090332, -5.238957405090332, -1.9348399639129639, 0.8791723847389221, 2.1523430347442627, -1.8470768928527832, -2.943709373474121, 5.075329780578613, -0.7575388550758362, -2.868010997772217, -5.099323272705078, 1.4163260459899902, 0.4925505518913269, -0.3359442353248596, 0.7879133224487305, 4.9736528396606445, 2.4583609104156494, -0.9977405071258545, -0.36467134952545166, 2.312464714050293, 0.2772764265537262, 2.2394256591796875, 8.347590446472168, 0.28995704650878906, 4.502455234527588, 4.589076995849609, -2.168872594833374, -1.752711534500122, 5.5831828117370605, -4.598566055297852, 1.015088438987732, -2.338482141494751, -0.8703277707099915, 5.157699108123779, -1.1558414697647095, 0.7978204488754272, 2.35516619682312, 1.5711313486099243, 1.8293622732162476, 0.23398801684379578, 5.197661399841309, 4.939810276031494, 0.5346813797950745, -5.049899578094482, 1.483590006828308, -3.4539954662323, 6.563537120819092, 1.3108234405517578, -0.19026635587215424, -0.10439247637987137, 0.33786553144454956, 0.7336210012435913, 0.25651511549949646, -1.3995137214660645, -3.479175567626953, -0.3294302225112915, -0.20399051904678345, -1.2142910957336426, 0.562329888343811, -3.7042553424835205, -3.489781618118286, 0.3255229890346527, 0.5979225635528564, -1.7666258811950684, 6.541600227355957, 6.366978168487549, -3.443913221359253, 2.416537046432495, 0.8585548400878906, 1.0009350776672363, -1.7149031162261963, -1.3677518367767334, -1.5708750486373901, 1.3110098838806152, 1.2335536479949951, 2.1242148876190186, 2.9387543201446533, 0.7042751312255859, -2.079742431640625, 0.7847576141357422, 0.6758309006690979, -3.0300028324127197, -2.1863958835601807, 1.173713207244873, 0.024099275469779968, 4.386706829071045, -0.36596736311912537, -0.7397186160087585, -0.5293940305709839, -2.83040452003479, 2.5061919689178467, -0.6741296648979187, 2.7589542865753174, 2.598078727722168, 2.6247599124908447, -2.3660504817962646, -0.39215487241744995, 1.567840814590454, -4.49617862701416, -1.8905367851257324, 1.209001898765564, 4.188068866729736, -3.0743775367736816, -3.140333414077759, 2.0568225383758545, -2.65864896774292, 0.8949601650238037, -3.2102837562561035, 4.2053632736206055, -4.5184831619262695, -1.884469985961914, 3.16218638420105, -3.3527321815490723, -3.6141357421875, -5.603954315185547, -2.6351521015167236, -4.05795431137085, 3.246110677719116, 7.07356595993042, 3.295555591583252, -0.6984597444534302, 2.614699363708496, -2.646040201187134, 0.8376375436782837, 3.1477551460266113, 1.0050252676010132, 1.5227323770523071, 3.733959197998047, -0.01719149947166443, -3.431854248046875, 5.396349906921387, -1.4738675355911255, -1.435653805732727, 4.265121936798096, 6.427009105682373, 1.0164364576339722, 1.4177683591842651, -6.882199764251709, 4.107698440551758, 2.6974687576293945, 2.573528528213501, 0.8020632266998291, -2.5209381580352783, -3.210357904434204, 3.509160280227661, 0.8780638575553894, -3.317408800125122, 2.7125890254974365, -4.349205493927002, 4.522212982177734, 5.540943622589111, -0.7016505002975464, 1.6202223300933838, 3.661346912384033, 3.291490316390991, -2.9992334842681885, 1.8090558052062988, 6.279513359069824, -2.5833683013916016, -0.7077446579933167, 4.045835971832275, -2.2517852783203125, -0.9550188183784485, 4.509853839874268, -1.8513706922531128, 2.058490753173828, 3.645568609237671, 7.430839538574219, -2.9930315017700195, 4.544808864593506, 1.3559744358062744, -1.952583909034729, -2.1470906734466553, -0.34117329120635986, -3.0435047149658203, 3.932765483856201, -1.2003291845321655, 1.5770633220672607, 7.678375720977783, 0.030653618276119232, 3.6918232440948486, 1.1639710664749146, -2.1302311420440674, -1.3555539846420288, 2.2386691570281982, 1.6901977062225342, -3.2399685382843018, 0.9976193904876709, -2.8595786094665527, -2.632641077041626, -3.290814161300659, 2.661864757537842, 0.4975338578224182, 0.11205346882343292, -2.0747311115264893, -5.067209720611572, 4.5386762619018555, -0.2485174834728241, -0.2276858389377594, -1.422414779663086, 1.8416692018508911, 1.91270112991333, -1.920539379119873, -6.157118320465088, -1.7113746404647827, -3.0471394062042236, -0.5535311102867126, 2.7911739349365234, 1.61469304561615, -0.4702270030975342, 4.611946105957031, 4.800294399261475, 4.351918697357178, 3.7903549671173096, 3.694343090057373, 0.4808846414089203, -1.162808895111084, 5.943629264831543, 4.522857189178467, 0.8471603393554688, 4.45530891418457, -2.623295307159424, 2.1711323261260986, 0.8050340414047241, -4.801028251647949, 1.8159704208374023, 1.558037519454956, 0.4072093963623047, -0.9801762104034424, 3.1948747634887695, 2.079542875289917, -3.9048924446105957, -3.747004747390747, 5.942391395568848, 1.7213902473449707, 4.019713878631592, 1.5508710145950317, -2.6262946128845215, -1.8961658477783203, -1.2173951864242554, -5.018117904663086, -1.9236029386520386, 1.884014368057251, -1.1031992435455322, 3.187162160873413, 0.5979589223861694, 4.966362476348877, -1.3205175399780273, 9.101838111877441, 1.1220260858535767, -2.667564868927002, -4.647364616394043, -1.768052101135254, 1.0095173120498657, 3.62253475189209, -1.552126169204712, 4.697855472564697, 0.7471611499786377, -0.2653507590293884, -0.8512652516365051, 1.2720403671264648, 0.41394901275634766, 0.7491497993469238, 2.383915901184082, -2.9664528369903564, 2.6450812816619873, 1.051383376121521, 1.2728554010391235, -3.0482711791992188, 0.1267589032649994, 1.7601829767227173, 0.9928805232048035, -0.21805137395858765, -0.5129475593566895, 2.609635353088379, 1.0573441982269287, -0.5403016805648804, -0.5320106744766235, 4.091709613800049, 0.9253991842269897, 2.1154112815856934, 2.4482431411743164, 0.8113218545913696, 1.8577110767364502, -3.177485704421997, -2.4990074634552, -0.4863017499446869, 0.8312127590179443, 0.09814020991325378, -0.9285195469856262, -1.9945101737976074, -3.1141014099121094, 1.3439639806747437, 0.28950753808021545, -2.5513908863067627, 2.5820424556732178, -3.4215328693389893, 4.873908519744873, -1.0289314985275269, 0.6954197883605957, -0.9123803973197937, 3.749498128890991, 0.2986001670360565, 4.283502578735352, -0.4541885554790497, 3.583091974258423, 5.809762001037598, -0.7773237228393555, -0.5923557281494141, -2.308119535446167, 1.913528561592102, 1.5040196180343628, 1.3189231157302856, -1.6114797592163086, -1.3980755805969238, 2.4859390258789062, 3.2631309032440186, 5.347172260284424, 3.314429521560669, -0.901228666305542, -1.0341534614562988, 2.5237956047058105, -3.72890305519104, -0.041053012013435364, -2.1513402462005615, -4.129866600036621, 0.8835409283638, -0.05164239555597305, -0.986344575881958, 1.9719200134277344, 4.22641658782959, -2.3977608680725098, 2.3418426513671875, -4.312116622924805, -2.6972897052764893, -1.3287012577056885, -1.6290345191955566, -2.9208006858825684, 3.557427167892456, 1.689862608909607, -0.012842580676078796, 1.5037239789962769, -0.45010650157928467, -1.1452094316482544, 1.1061077117919922, 1.8364317417144775, 6.992734432220459, 4.852908134460449, 1.9108479022979736, 0.7496688365936279, -1.5452748537063599, -1.4887950420379639, 5.500405788421631, -2.3868722915649414, -1.9295573234558105, 1.7991913557052612, -0.13627424836158752, 1.0013736486434937, 0.21204233169555664, -2.6451973915100098, 6.523894786834717, 2.4888808727264404, 1.6016513109207153, -4.114944934844971, -0.2442813515663147, -1.5028455257415771, -3.795006513595581, -1.281818151473999, -1.4827826023101807, -0.5208799839019775, 2.4052672386169434, -0.16446611285209656, 3.3239948749542236, 0.05403542518615723, 0.24649891257286072, 1.577361822128296, -1.3452776670455933, -2.6945419311523438, 5.222127914428711, 1.9665653705596924, 3.5142998695373535, -2.3379764556884766, 1.1019752025604248, -2.2105021476745605, -0.6322051286697388, 1.1686310768127441, 4.670250415802002, -3.3448143005371094, 1.6516801118850708, 3.8124191761016846, -1.011484146118164, 0.6859500408172607, -1.0921802520751953, 0.023746397346258163, 2.0621938705444336, 1.9536583423614502, 3.9861338138580322, -2.0708532333374023, -2.0330350399017334, -3.4604275226593018, -2.5669374465942383, 0.6830915212631226, -3.2644176483154297, -2.4293134212493896, -3.1311964988708496, 0.7068944573402405, 3.947139024734497, -2.508782386779785, -4.175942897796631, 1.0061659812927246, -3.9362096786499023, -2.070455312728882, 2.174367904663086, -3.2929604053497314, -1.0590200424194336, -0.8859149217605591, -2.67868709564209, 0.8665755987167358, -3.256801128387451, 4.783315658569336, -2.169386386871338, -0.9125741124153137, -1.3043556213378906, -0.8838377594947815, -0.09948013722896576, 1.588348627090454, 5.267365455627441, 2.0776615142822266, -1.9682025909423828, 0.35608652234077454, 0.5898276567459106, -2.6175389289855957, -0.4946393072605133, -0.13859407603740692, 0.24567705392837524, 2.8557586669921875, 7.435926914215088, 0.22547779977321625, -0.1396123468875885, -0.6477375030517578, 2.9844746589660645, 0.47229087352752686, 1.213886022567749, 1.0551939010620117, 0.4413144290447235, 2.813354730606079, -0.09203651547431946, -1.7769269943237305, -0.20344793796539307, -5.070317268371582, 0.671562671661377, -0.6342077255249023, -1.0304131507873535, 2.545588254928589, 3.9298784732818604, 3.139751434326172, -1.909005880355835, 2.0097570419311523, -1.8574469089508057, 3.1416501998901367, -2.17798113822937, -1.36860990524292, -1.4194583892822266, 0.7239236831665039, -0.3784272074699402, 0.7114406228065491, 2.2100439071655273, -3.6959705352783203, -2.436720371246338, -1.0066105127334595, -0.8367471098899841, 0.31157833337783813, 1.780062198638916, -0.6582805514335632, 1.8680177927017212, 0.45129892230033875, -0.18586505949497223, -0.37185853719711304, -0.11044296622276306, 1.9193416833877563, 0.310791552066803, -3.346836566925049, 1.686432123184204, 1.2225639820098877, 0.4158116579055786, 2.982988119125366, 1.7490441799163818, -2.7951483726501465, 1.138035774230957, -2.337571620941162, 2.175617218017578, -0.9133394360542297, -3.197141647338867, 0.40752822160720825, 0.808966875076294, -1.70786714553833, -0.17322459816932678, -3.88315749168396, 0.1431664079427719, -3.3252382278442383, 0.3593343496322632, 1.2504066228866577, 1.4119138717651367, 2.2111010551452637, 0.33806395530700684, 1.9530909061431885, -2.409381866455078, -1.0050134658813477, 1.2928683757781982, -1.7088510990142822, -0.6857997179031372, -1.4824647903442383, -0.458992600440979, -2.2883620262145996, 2.757498025894165, -0.5336287617683411, -4.989156723022461, -1.8301048278808594, -0.9788175225257874, 2.178534746170044, -1.067266583442688, 0.8847411274909973, 2.5649590492248535, 1.4852992296218872, 1.0782504081726074, 0.8100934624671936, -3.349168300628662, -1.4579116106033325, 0.9338499307632446, 2.2683181762695312, 1.5022718906402588, -1.8166155815124512, 1.401496410369873, -0.4879859387874603], [-2.614584445953369, 1.19533109664917, -1.0981533527374268, -0.21899864077568054, -0.8334157466888428, 1.3554930686950684, -5.633241176605225, -1.4874169826507568, -2.905269145965576, 1.0225419998168945, 2.937072515487671, 0.7859301567077637, -0.8278712034225464, -0.9722697138786316, 0.17840370535850525, -0.5991920828819275, -0.11442185938358307, -1.636238694190979, -0.4569989740848541, -0.05080235004425049, 0.5740007758140564, 1.8326411247253418, 0.03426080942153931, 0.2972067594528198, 0.3297860622406006, -0.22961920499801636, 1.7223081588745117, 1.9941810369491577, -0.012275457382202148, 0.4531872868537903, -2.5093441009521484, 0.8375506401062012, 0.13411733508110046, -1.5248812437057495, 0.3267747163772583, -5.375811576843262, -1.0348519086837769, -6.405402183532715, 2.3501243591308594, -2.2198619842529297, 0.432489812374115, 0.8021561503410339, 0.23843805491924286, 0.55755215883255, 0.23757284879684448, -2.02201247215271, -0.7525317668914795, 3.694369316101074, -2.8372836112976074, -3.2470595836639404, -3.6511642932891846, 1.1050879955291748, 2.1030070781707764, 0.9564557075500488, -1.5338505506515503, -0.11140146106481552, -1.25141179561615, -0.5776277780532837, -2.3702807426452637, 6.100466728210449, 0.4921952188014984, -2.922822952270508, -0.6263679265975952, 2.460622549057007, 1.6432571411132812, 1.464821696281433, 3.118656873703003, -3.7291572093963623, 1.9254300594329834, -0.46659982204437256, -0.07747257500886917, 0.04880504682660103, 0.1709202229976654, 3.2295806407928467, -1.4923738241195679, -0.20736566185951233, -3.6632015705108643, -2.1788439750671387, 4.8839311599731445, 0.4749152660369873, 2.313601493835449, -0.38405030965805054, -2.238368034362793, 0.0732073187828064, -1.6269652843475342, -2.117891550064087, -0.7675349712371826, 0.5435786247253418, -0.15942266583442688, 0.8904502987861633, -0.7726026773452759, -1.173215389251709, 0.8579208850860596, -1.8394749164581299, -0.20575112104415894, 0.1305932104587555, 0.34607556462287903, -2.8231282234191895, -0.6912252306938171, -0.015445530414581299, 0.4227304458618164, -0.27595239877700806, -1.6850860118865967, 0.5936591029167175, -1.3252743482589722, -2.8349690437316895, -1.2999869585037231, 1.2562355995178223, -0.38717538118362427, -0.9169999957084656, 3.398362874984741, 9.499995231628418, 1.5223805904388428, 1.3674116134643555, -0.26766717433929443, 0.7720582485198975, 0.10749620199203491, 2.9767191410064697, -2.1989917755126953, -1.65997314453125, 1.527866244316101, -1.734207034111023, -1.107009768486023, -4.245211124420166, -3.155026912689209, -0.43985679745674133, 2.608266830444336, -2.289313316345215, 0.31113219261169434, -0.3506571650505066, 1.554753065109253, -0.2966247797012329, 2.680251359939575, -0.9713503122329712, 0.7578461170196533, 1.8435821533203125, -1.9994183778762817, -2.6112842559814453, -2.824237823486328, -0.8637978434562683, -1.9880671501159668, -2.939711809158325, -2.0177628993988037, -1.9697949886322021, -0.2689538896083832, 1.989104986190796, 1.1584612131118774, 1.518467903137207, 1.6089770793914795, 2.6204452514648438, -1.3070508241653442, 0.707443356513977, 1.2615445852279663, -0.7672644853591919, -1.110483169555664, -2.387860059738159, -0.41271764039993286, 0.43625667691230774, 1.1052781343460083, -1.4868220090866089, -0.034378331154584885, -1.1961700916290283, -1.2861864566802979, -0.19460639357566833, -0.9246000051498413, -2.146939277648926, 0.9520425796508789, 2.3649048805236816, -1.179227352142334, 0.49687185883522034, -1.1778569221496582, -0.1071644127368927, -0.5114437341690063, 0.8265535831451416, -0.9883394241333008, -0.7552152276039124, -0.37287506461143494, -2.188786506652832, -0.448866605758667, -2.2019786834716797, -1.7756229639053345, 2.600813150405884, -1.5971827507019043, 0.1770230382680893, -1.9387670755386353, -1.2592555284500122, -1.5675702095031738, -1.0766021013259888, 2.081819534301758, -0.7001572847366333, 1.993680477142334, -1.172027826309204, -3.6864025592803955, -1.6563996076583862, 0.767160177230835, -1.129759430885315, -2.638043165206909, -2.580751419067383, -1.7322733402252197, -0.8517844080924988, -0.12060904502868652, -3.5805344581604004, 0.24340221285820007, -2.6438684463500977, -3.2537763118743896, -2.077364921569824, -0.42261332273483276, -0.6902782917022705, -0.39151421189308167, -1.9630100727081299, -1.2857446670532227, -2.8939130306243896, -1.4569820165634155, -2.275426149368286, -2.578791618347168, -0.658907413482666, 0.27656808495521545, -2.461008071899414, -1.4058080911636353, -1.653951644897461, -0.26142561435699463, -0.6400517225265503, 0.6402627229690552, 0.2088809609413147, -0.09430398046970367, -2.4999217987060547, -2.640861988067627, -0.6765866875648499, -0.6685331463813782, -0.9869250059127808, -1.4212692975997925, -0.5927057862281799, 0.847281813621521, -1.6906242370605469, -2.2204413414001465, -1.0882492065429688, -1.4116127490997314, -2.590489149093628, -0.7923820614814758, -1.486825704574585, -0.5417431592941284, 0.15149599313735962, -2.0180251598358154, -1.745338797569275, -2.190960168838501, -0.9770697951316833, -1.28560471534729, -0.4801637530326843, 1.0441243648529053, -1.1502152681350708, -0.0030803531408309937, -0.16624906659126282, -1.4022481441497803, -0.02080938220024109, -2.4867446422576904, -3.1704986095428467, -0.902854859828949, -0.8348366022109985, -1.048969030380249, -1.4976099729537964, -1.7486670017242432, -1.5041320323944092, -1.7695891857147217, -0.9790459871292114, 0.4333634376525879, -0.6929182410240173, -0.9038603901863098, -1.260022759437561, -0.5871919393539429, 1.1662466526031494, 1.5128506422042847, 0.8506492972373962, 0.0005345642566680908, 0.7111009359359741, -0.6723031997680664, -0.1320195347070694, -0.6843591332435608, 0.48023712635040283, 0.9207010865211487, 2.895763874053955, 1.2325540781021118, 0.35574352741241455, -0.10397578775882721, 0.6867088675498962, 0.20091313123703003, 1.298358678817749, -2.068512439727783, -0.8666150569915771, -0.9147119522094727, -0.6381930708885193, -1.362293004989624, -2.6071367263793945, -1.7674901485443115, -0.3028729557991028, 1.2934246063232422, -1.063954472541809, 1.3608627319335938, -0.2179076075553894, -0.05990934371948242, 0.7089233994483948, -0.33146342635154724, 2.490878105163574, 1.882378339767456, 2.656977891921997, 0.45899826288223267, -3.4191339015960693, -1.0485165119171143, 2.301858425140381, 0.5706876516342163, 1.1726189851760864, 3.3535029888153076, -0.8129679560661316, -0.3917446732521057, -0.18891924619674683, -1.6913409233093262, 1.841117262840271, -1.2687209844589233, 0.11131779849529266, 4.121222972869873, 0.967617928981781, 1.6352832317352295, -1.665806531906128, -0.3908523917198181, -0.22666405141353607, 0.835041344165802, -0.3658997118473053, 3.416778802871704, -0.484519362449646, -1.1492063999176025, -2.544966459274292, -0.05851608142256737, 1.9910380840301514, -0.03813612461090088, -1.9039349555969238, -1.5395958423614502, 1.722135305404663, -2.276578664779663, -1.292106032371521, -1.826802372932434, -1.644649863243103, -0.7381690144538879, -0.5016005635261536, -1.9345616102218628, -2.9313724040985107, -3.663971424102783, 1.0659263134002686, -4.743832111358643, 0.16880984604358673, -1.6320377588272095, 0.637013852596283, 2.8185930252075195, -1.0921568870544434, -0.8411881327629089, 1.4893066883087158, -0.6626859903335571, -1.1172069311141968, 2.357128620147705, 1.4798836708068848, 2.2822515964508057, 2.0241072177886963, -1.9123159646987915, 2.566507339477539, 2.118082284927368, -1.8960990905761719, 1.0378062725067139, -0.9123069643974304, -0.5249456763267517, 0.09673774987459183, 2.014756917953491, 1.1315213441848755, 0.0198248028755188, 0.6705421209335327, -1.324302315711975, -1.4892311096191406, -0.6193821430206299, 0.7786444425582886, 1.497207760810852, 1.1042072772979736, 0.2925942838191986, 0.6079179644584656, 1.5237030982971191, -0.5728102326393127, 1.182800531387329, 2.060152292251587, 2.0475852489471436, -0.4862292408943176, -1.2017265558242798, 1.3990402221679688, -2.1312336921691895, -2.0765249729156494, 1.602156162261963, -2.7059357166290283, 3.948245048522949, -0.5044780969619751, -1.659040927886963, 0.4495942294597626, -2.474041223526001, -2.3087942600250244, 1.3199630975723267, 0.28016144037246704, -1.4443833827972412, -0.918383002281189, 1.7969274520874023, -2.831847906112671, 2.357805013656616, 2.101313352584839, -4.697641849517822, -2.016148090362549, -2.939281463623047, 3.7608470916748047, -3.7806718349456787, -4.053069591522217, -1.1312000751495361, 1.1155154705047607, -4.582981586456299, -1.8932535648345947, 0.9266317486763, 1.9570297002792358, 5.809961795806885, 2.7927374839782715, -1.3502767086029053, 2.860442876815796, 0.370061457157135, -1.025702953338623, -2.127866744995117, -3.8136720657348633, 1.5806663036346436, -0.2026769369840622, -2.2626163959503174, 2.863415002822876, 0.8234243392944336, -1.1876574754714966, 4.324294567108154, 0.7919901013374329, -0.46884986758232117, -0.9253227710723877, -2.999025821685791, -0.20113861560821533, 3.960061550140381, 2.6243369579315186, -0.07150761783123016, 2.1421854496002197, -1.5544846057891846, 1.0343985557556152, 0.5321458578109741, -2.3231165409088135, 5.274486541748047, 1.0593087673187256, -3.0302786827087402, -3.3022210597991943, -1.0390291213989258, 5.231259822845459, 0.8886148929595947, -1.7948358058929443, -3.8716816902160645, 2.2878096103668213, 2.100362777709961, -0.46094539761543274, -3.91316556930542, 0.4382040500640869, -2.3672289848327637, -0.11341147869825363, -0.3101061284542084, 1.2091565132141113, 2.7061386108398438, -0.7856450080871582, -1.5835611820220947, -4.7281174659729, -0.8495373725891113, 2.562340259552002, 3.1776678562164307, -1.1719485521316528, -2.1042096614837646, 4.361525535583496, -1.2612366676330566, -1.1706076860427856, -5.174522399902344, 0.569469153881073, -0.41721946001052856, 0.4300937056541443, -0.3493092954158783, 2.6537246704101562, 1.3713480234146118, -2.1946804523468018, -0.9046579003334045, 2.1016428470611572, -0.13421615958213806, 0.46466895937919617, 7.666921615600586, 2.010521650314331, 4.279980182647705, 2.049180746078491, -2.6841201782226562, -1.8045347929000854, 4.7195820808410645, -4.366785526275635, -1.4670506715774536, -3.1723554134368896, -1.6657980680465698, 4.133389949798584, -2.691319227218628, -0.4148454964160919, 1.1291841268539429, 2.9976582527160645, 4.536747932434082, 1.1490647792816162, 9.026030540466309, 4.774710655212402, 0.24379375576972961, -3.7206506729125977, -0.4923934042453766, -3.339259624481201, 7.06571626663208, 2.15075421333313, -0.4866092801094055, -0.5136896967887878, 0.6178820133209229, 0.48485928773880005, -0.28673505783081055, -2.6090409755706787, -3.2103419303894043, -0.1675868034362793, 0.7802045941352844, -1.1464439630508423, -1.4892596006393433, -2.850389003753662, -2.4739913940429688, -0.09898027777671814, 0.13626128435134888, -0.920447051525116, 4.4130473136901855, 3.0178327560424805, -2.3267550468444824, 1.6195141077041626, 1.157677173614502, -0.06386972218751907, -1.5785402059555054, -1.525909423828125, -2.1769163608551025, -0.30350708961486816, 0.16729053854942322, 1.1533787250518799, 3.638890266418457, 0.1035996675491333, 0.28045618534088135, 2.3136065006256104, 0.24446134269237518, -4.10498571395874, -2.853573799133301, 0.7618594169616699, 0.8428674936294556, 3.26383638381958, -1.520795464515686, -0.39968016743659973, 1.1691783666610718, -2.5290660858154297, 2.555274486541748, -0.2618379592895508, 2.0659701824188232, 1.55509614944458, 2.030038356781006, -2.924409866333008, 2.2532877922058105, 1.1288444995880127, -4.1160407066345215, -2.755556106567383, 1.8326302766799927, 3.4404382705688477, -3.0911684036254883, -4.032113552093506, 2.017242193222046, -2.9451146125793457, 2.646770715713501, -1.7734553813934326, 5.465954780578613, -3.5310699939727783, -2.079205274581909, 1.8921335935592651, -3.4612038135528564, -2.982959508895874, -3.7298264503479004, -1.3186302185058594, -2.7070138454437256, 0.007481485605239868, 6.539282321929932, 3.5154948234558105, -2.5442025661468506, 2.395084857940674, -1.723403811454773, 1.0489507913589478, 1.8953579664230347, 1.1078170537948608, 2.1859946250915527, 3.1023426055908203, -0.43463265895843506, -4.073469161987305, 3.0377466678619385, -2.600839614868164, -1.4801515340805054, 1.3028613328933716, 7.489739418029785, -0.8774504065513611, 1.9658572673797607, -6.0934600830078125, 3.7188878059387207, 2.4603402614593506, 3.4334075450897217, -0.875415563583374, -1.6092462539672852, -3.8321590423583984, 0.8243563771247864, -0.22223298251628876, -3.6166720390319824, 2.110248565673828, -3.84489107131958, 2.498931407928467, 7.053102970123291, 0.49951493740081787, 2.8896360397338867, 2.547584056854248, 1.1533126831054688, -2.3702666759490967, 2.6035854816436768, 5.060349464416504, -2.443058729171753, -1.2439559698104858, 3.1339240074157715, -2.5239200592041016, -0.21132031083106995, 3.86264705657959, -1.638386607170105, 2.0294952392578125, 3.3384265899658203, 5.918282508850098, -3.819450616836548, 3.311065673828125, 1.0241317749023438, -1.9247112274169922, -2.5825042724609375, -1.5675798654556274, -4.182759761810303, 3.004702568054199, -2.0260589122772217, 0.6178667545318604, 6.804125785827637, -0.8090214729309082, 2.4516263008117676, 3.8558623790740967, -1.9535564184188843, -1.5853431224822998, 3.7752199172973633, 2.1352362632751465, -2.8665225505828857, 1.8753790855407715, -2.3827295303344727, -3.579139471054077, -2.902831554412842, 2.0226593017578125, 2.1227564811706543, 1.4136358499526978, -2.7785696983337402, -3.7549283504486084, 2.8337714672088623, -1.9728174209594727, -0.15996870398521423, -1.9630707502365112, 3.795706033706665, 0.09298934787511826, -2.927548408508301, -4.753719329833984, -1.8870676755905151, -1.8545186519622803, -0.45666301250457764, 2.7357606887817383, 1.8976404666900635, -1.4757018089294434, 2.8785595893859863, 5.643892288208008, 2.7004191875457764, 2.637051820755005, 5.7605509757995605, 0.7636921405792236, -1.4467090368270874, 4.144159317016602, 2.928178310394287, 0.32033881545066833, 3.404249668121338, -2.8311471939086914, 2.432436943054199, -1.8725018501281738, -4.581594467163086, 2.8034281730651855, 0.2829144299030304, 0.4220902919769287, -1.4830291271209717, 2.7790396213531494, 2.8467705249786377, -4.078890323638916, -3.696704149246216, 5.028074264526367, 4.093460559844971, 2.912102222442627, 1.9817781448364258, -1.6360595226287842, -0.47912800312042236, -2.5218136310577393, -3.892066478729248, -2.372131109237671, 2.3622610569000244, -1.0986032485961914, 1.3755825757980347, 1.6362965106964111, 5.548346996307373, -1.7796480655670166, 8.029143333435059, -0.8347159028053284, -1.4677343368530273, -3.840207576751709, -1.5775619745254517, 2.433730125427246, 5.396761417388916, -1.1370095014572144, 5.837985038757324, 1.6198973655700684, -1.537899136543274, 1.6907241344451904, -0.8745846152305603, 0.13003657758235931, 1.0633965730667114, 4.106204509735107, -2.5332083702087402, 1.8681519031524658, -0.6156938076019287, 1.0145328044891357, -3.170264720916748, -3.0189623832702637, 2.0857937335968018, 1.4598910808563232, 1.3466782569885254, 0.05172717571258545, 1.8778457641601562, -1.4454257488250732, -1.4226431846618652, -0.19639523327350616, 3.248767614364624, 1.2420637607574463, 1.8150386810302734, 1.1515655517578125, 0.2573535442352295, 3.5888569355010986, -3.258894443511963, -1.2349216938018799, -0.5045091509819031, 2.0535688400268555, 0.7033337950706482, -1.4943040609359741, -2.18390154838562, -3.4054160118103027, 1.7054173946380615, 0.5106828212738037, -2.9273312091827393, 2.4745960235595703, -2.582136392593384, 2.743496894836426, -1.1150590181350708, 1.8203493356704712, -0.9521974325180054, 3.8906571865081787, 0.25996729731559753, 3.645474910736084, -0.20075474679470062, 2.00795316696167, 7.081175327301025, 0.44527217745780945, -0.2618592381477356, -2.5355825424194336, 1.5667345523834229, 0.7692556381225586, 0.213925302028656, -1.922084927558899, -1.4662281274795532, 0.29450562596321106, 2.6014633178710938, 4.706170082092285, 3.014281988143921, -1.1968979835510254, -0.16721560060977936, -0.6461498141288757, -3.2547216415405273, -0.2725669741630554, 0.38705337047576904, -2.818131685256958, -0.08906783163547516, -0.8013079166412354, 0.5979790687561035, 2.3501129150390625, 3.023817777633667, -3.001254081726074, 1.7086529731750488, -3.996088981628418, -3.8034751415252686, -1.7836461067199707, -1.7110941410064697, -3.0967648029327393, 4.049339294433594, -0.6028783321380615, 0.14295002818107605, 1.1143752336502075, -0.5589587092399597, 1.8302921056747437, 0.14339077472686768, 2.411177158355713, 3.3990848064422607, 3.873080253601074, 1.7312270402908325, 0.19166535139083862, -0.08459499478340149, -0.49100205302238464, 6.08243465423584, -2.018555164337158, -4.098260402679443, 2.247981548309326, -1.5862579345703125, 3.878340005874634, -0.2364126741886139, -2.223534345626831, 4.846597194671631, 1.7123154401779175, 3.692014217376709, -4.035645484924316, -0.149872824549675, -0.2873000502586365, -3.642657518386841, -2.087151050567627, -1.1972557306289673, 0.20734727382659912, 2.877487897872925, 0.8493093848228455, 3.180964708328247, 0.23918816447257996, -0.48206189274787903, 2.0659055709838867, -1.995184302330017, -1.807615041732788, 4.146068572998047, 2.3511877059936523, 3.4691388607025146, -3.461540699005127, 0.7624638676643372, 0.7142176628112793, -0.8653397560119629, 1.561338186264038, 5.759897708892822, -4.693254470825195, 0.1735992431640625, 5.952887058258057, -2.294365406036377, -0.9093798995018005, -0.8407958745956421, 0.7876272201538086, 0.5307941436767578, 1.0889058113098145, 3.396392583847046, -2.8081445693969727, -2.1258044242858887, -3.3736186027526855, -2.6848111152648926, 0.4764662981033325, -2.861067533493042, -2.6160356998443604, -1.3931050300598145, 0.6969454884529114, 3.2783570289611816, -2.744198799133301, -3.54209041595459, 1.0939898490905762, -1.8477375507354736, -1.8771291971206665, 2.769768714904785, -2.420053005218506, -0.938735842704773, -1.424369215965271, -2.0284647941589355, 2.005161762237549, -3.552934169769287, 3.123082399368286, -2.569211483001709, -2.620231866836548, -0.7452170252799988, -0.8317477107048035, 0.2771211862564087, -0.022593632340431213, 1.6090505123138428, 0.9987927675247192, -2.7447516918182373, -1.0216906070709229, 1.807965636253357, -2.9565114974975586, 1.3626729249954224, 2.2079620361328125, -0.7294713854789734, 2.328982353210449, 6.3805718421936035, -0.20603594183921814, -0.02011805772781372, 0.9480544924736023, 0.7228543758392334, 0.6472973823547363, -0.21230751276016235, 1.2103838920593262, 1.3630437850952148, 1.9820547103881836, 0.5013363361358643, -3.5323474407196045, 0.2932761311531067, -4.406212329864502, 2.029890775680542, -1.7123048305511475, -0.4160723090171814, 0.4253246784210205, 1.6538655757904053, 0.9194895029067993, -1.8821585178375244, 2.017672538757324, -0.2743529677391052, 4.135370254516602, -1.8428277969360352, -0.6183508634567261, 0.538202166557312, 0.8295899629592896, 0.14046892523765564, 0.5490288138389587, 2.378734827041626, -2.795156478881836, -0.6729480028152466, -0.8095617294311523, -0.811373233795166, 1.3488421440124512, 0.7967209219932556, -1.2964229583740234, 0.19626343250274658, -0.9633876085281372, -0.15723703801631927, 0.4300349950790405, -0.1835864782333374, 2.4640462398529053, 1.0934066772460938, -1.6389968395233154, 2.1478240489959717, 1.8514097929000854, 2.375741958618164, 4.781838417053223, 1.3846300840377808, -2.107053279876709, 2.3322713375091553, -2.8154962062835693, 0.7999740242958069, -1.6994670629501343, -1.661123275756836, 0.24775560200214386, 0.7418648600578308, -1.8232563734054565, -0.3531573414802551, -4.455016613006592, -0.18390405178070068, -2.518355131149292, 1.6376453638076782, 3.564094305038452, 5.771409034729004, 3.741046190261841, -0.6842632293701172, 4.124362945556641, -2.9085323810577393, -0.7830509543418884, 1.2179347276687622, -0.033507026731967926, -1.1315128803253174, -1.357949137687683, 1.0362181663513184, -1.3646432161331177, -0.41269445419311523, -0.43360835313796997, -4.084115028381348, -2.070333480834961, -0.29841363430023193, 4.55917501449585, -0.4157240390777588, 1.9125393629074097, 2.1061031818389893, 1.1573333740234375, 0.6860189437866211, 1.5444412231445312, -3.1503067016601562, -1.62105131149292, 0.7817354202270508, 2.0821285247802734, 0.628989577293396, -1.6900362968444824, 1.7486026287078857, 0.7734167575836182], [-2.754669427871704, 2.7040178775787354, -1.0579181909561157, -0.20362424850463867, -1.3008216619491577, 1.6348804235458374, -5.602166652679443, -1.4296538829803467, -2.641967535018921, -1.43633234500885, 4.4168701171875, 0.6299983263015747, -0.388003945350647, -0.9962214231491089, -0.1511319875717163, -0.020406827330589294, 0.10381221026182175, -2.0218379497528076, -0.8575515747070312, 0.22092506289482117, -0.10282277315855026, 2.5762031078338623, 0.04923945665359497, -1.3162797689437866, -0.5802813768386841, -0.6408786773681641, 1.8436071872711182, 1.9150789976119995, -0.12291797995567322, -0.39594197273254395, -3.461059093475342, 2.842027425765991, 2.0978775024414062, -2.4516849517822266, -0.8111917972564697, -4.552725791931152, -0.8920615911483765, -6.252357482910156, 5.222583293914795, -2.5761399269104004, 0.6209120750427246, 0.5939512252807617, 1.4095864295959473, 3.9357900619506836, -0.760828971862793, -2.2570300102233887, -0.36350083351135254, 3.1142666339874268, -5.446040630340576, -3.363677740097046, -4.095062255859375, 2.0233535766601562, 0.5389986634254456, 0.18598701059818268, -0.7294975519180298, -1.7993983030319214, -0.4465199112892151, -1.8387703895568848, -3.8231372833251953, 5.737019062042236, 0.6937814950942993, -2.3116564750671387, 0.14717267453670502, 0.5154168605804443, 1.9175156354904175, 0.14743855595588684, 4.033655643463135, -4.535521984100342, 2.77506947517395, -2.0893852710723877, 0.336549311876297, 1.4081112146377563, 2.47436785697937, 7.176754474639893, 1.2424839735031128, 2.149052143096924, -3.7688381671905518, -1.352064847946167, 7.055581569671631, -0.09932315349578857, 3.4954278469085693, -0.40767621994018555, -2.1052324771881104, 1.1129363775253296, -3.107773780822754, -2.0305016040802, -0.9454514384269714, -0.8004353046417236, -0.7865381240844727, 0.03053184598684311, -1.041920781135559, -0.4371577799320221, 1.5951178073883057, -2.798053741455078, 1.1003615856170654, 1.547987461090088, -0.021649181842803955, -3.4338958263397217, 0.1598171889781952, -0.6111791729927063, -1.0296790599822998, -1.4991493225097656, -3.1749274730682373, 1.717061996459961, -2.595301389694214, -3.005859375, -3.013849973678589, -0.06040357053279877, -2.6368465423583984, -2.6769793033599854, 3.108049154281616, 7.471529960632324, 2.3159453868865967, 1.4195830821990967, -0.03155484050512314, 1.0670186281204224, 0.5033080577850342, 3.957923173904419, -1.116007685661316, -1.0932410955429077, 1.0466822385787964, -1.426067590713501, -1.6157383918762207, -4.6270880699157715, -3.9724559783935547, 0.07792645692825317, 4.116039752960205, -2.048703670501709, 1.8440195322036743, -1.8139106035232544, -2.0591039657592773, -2.6857759952545166, -0.3728269934654236, -1.7970547676086426, -0.8512359857559204, 0.5338083505630493, -2.5167274475097656, -3.4601476192474365, -2.6697635650634766, -1.4687778949737549, -2.3771536350250244, -2.0593080520629883, -1.465380311012268, -1.1714926958084106, -0.8415741920471191, -0.021477878093719482, 0.40856319665908813, 0.5799437165260315, 0.38948091864585876, 0.442119836807251, -1.8588593006134033, -0.342964768409729, 0.9098107814788818, -0.9162548780441284, -1.9980709552764893, -2.401287078857422, -0.6782791018486023, -1.3039658069610596, 1.917694091796875, -2.702878475189209, -0.6419522166252136, -1.1639394760131836, -1.985822081565857, 0.18402354419231415, 0.24635455012321472, -0.35762956738471985, 1.6902443170547485, 2.33845591545105, -1.0123909711837769, -0.3987191319465637, -1.0736584663391113, -0.6919405460357666, -2.1089179515838623, -0.35936278104782104, -1.6608177423477173, 0.6153802871704102, -0.9262814521789551, -2.5659708976745605, -1.5938260555267334, -2.9886624813079834, -1.6537312269210815, 1.7129405736923218, -2.2956480979919434, 0.29124730825424194, -1.8289719820022583, -1.1878621578216553, -0.6844940185546875, -0.605495810508728, 2.2257063388824463, -1.4613893032073975, 2.944993495941162, -0.9338977336883545, -3.8554141521453857, -1.724863052368164, 0.8065526485443115, -1.503730058670044, -3.117976427078247, -2.390594244003296, -1.9627968072891235, -0.8940029740333557, -0.13466164469718933, -4.023376941680908, 0.224607914686203, -3.117927074432373, -3.9423084259033203, -2.094896078109741, -0.17059092223644257, -0.6931808590888977, -0.5883889198303223, -2.115506649017334, 0.24237674474716187, -2.6325113773345947, -0.397001177072525, -2.4866762161254883, -1.4693191051483154, -0.32349511981010437, 0.3171595633029938, -2.228605031967163, -1.5072004795074463, -1.687748670578003, 0.46842169761657715, 0.6233816146850586, -0.49805229902267456, -0.22226053476333618, -0.7977142930030823, -2.5631840229034424, -2.6699471473693848, -0.718580961227417, 1.0944076776504517, -1.3966765403747559, -2.6013152599334717, -1.4544949531555176, -0.5671072006225586, -2.211470603942871, -2.0886497497558594, -1.4108054637908936, 0.2199910581111908, -2.475114107131958, -0.7970921993255615, -1.9199037551879883, -1.5159732103347778, 1.1400996446609497, -2.72930645942688, -2.604085683822632, -2.768082857131958, -2.1031649112701416, -0.507247269153595, -0.7798230051994324, 0.2094307541847229, -2.2634568214416504, -0.48172757029533386, -0.38738691806793213, -1.2362511157989502, -0.41265368461608887, -3.458656072616577, -4.121123313903809, -1.0049748420715332, -2.362210273742676, -0.6865972280502319, -2.0595762729644775, -2.1711208820343018, -1.9249223470687866, -1.30348539352417, -2.0292022228240967, -0.4544913172721863, -0.22163160145282745, -1.187152624130249, -2.1181492805480957, -0.7460411787033081, 0.5125638246536255, 0.4976746439933777, -0.34153926372528076, 0.5949058532714844, 0.11577354371547699, -1.6745853424072266, -0.38945144414901733, -1.202223539352417, -0.32991817593574524, 0.3887519836425781, 0.16384176909923553, -2.6535242795944214e-05, 0.09172216057777405, -0.24304205179214478, 1.2776174545288086, -0.3325779139995575, 0.33313804864883423, -1.9017186164855957, -0.541404664516449, -0.5557475090026855, -0.5655778646469116, -1.2570085525512695, -2.2522244453430176, -1.7550899982452393, 0.22627219557762146, -0.3256373405456543, -1.4402117729187012, 0.09573984146118164, -0.7409027814865112, -1.4567289352416992, 0.1403631716966629, -0.00955730676651001, 3.689140558242798, 2.789590358734131, 2.690077543258667, 2.0382089614868164, -3.3221888542175293, -0.6700655817985535, 2.0286717414855957, 1.5151995420455933, 1.2727755308151245, 5.3700361251831055, -0.06147168576717377, 0.6514819860458374, 0.230576753616333, 0.9160570502281189, 2.5187199115753174, -0.7826166152954102, 2.0098235607147217, 4.804792404174805, 0.8540512323379517, 2.3710148334503174, 0.6307320594787598, 1.5061434507369995, 0.49131739139556885, 1.6919543743133545, 0.23852968215942383, 4.866085529327393, -0.9233890771865845, -1.0288114547729492, -2.514594554901123, -0.8385803699493408, 0.30895665287971497, -1.4853003025054932, -1.5355273485183716, -2.322664260864258, 2.4621875286102295, -2.992036819458008, -2.5174496173858643, -2.5341029167175293, -0.9923126101493835, -2.72579288482666, -2.2116050720214844, -4.0777974128723145, -4.2075653076171875, -5.360775947570801, 0.10710981488227844, -5.843278408050537, -1.622198224067688, -4.561731815338135, -1.5325374603271484, 0.9084793329238892, -0.2740097939968109, -1.3346679210662842, 0.6732137203216553, -0.27198755741119385, -2.3129587173461914, 2.1670730113983154, 0.5701552629470825, 2.5614516735076904, 1.94503915309906, -1.8035242557525635, 0.449986070394516, -0.15461327135562897, -3.2194533348083496, 0.9283792972564697, -0.8074149489402771, -1.9002026319503784, -0.1184074729681015, 1.2832236289978027, 1.4353294372558594, -0.6627528667449951, 0.010637730360031128, -3.0434341430664062, -1.2816458940505981, -0.4630545973777771, -0.30452701449394226, 0.5346980094909668, 1.437276840209961, -0.4310971796512604, -0.3317614793777466, 0.9217435121536255, -0.4511004388332367, 0.6531413793563843, 1.1811516284942627, 1.1472984552383423, -2.2108078002929688, -2.274864912033081, 0.5094419717788696, -2.054776430130005, -1.2686269283294678, -1.0231620073318481, -3.0653793811798096, 4.850121974945068, -1.326332688331604, -2.403240442276001, 0.16885966062545776, -2.6817352771759033, -1.1139328479766846, 0.18516239523887634, 2.2132482528686523, 0.3661345839500427, -2.183985948562622, 1.2752784490585327, -0.3521330952644348, 3.992591381072998, 4.852113246917725, -3.8771185874938965, -1.0184924602508545, -2.827951669692993, 4.780792713165283, -2.2462034225463867, -3.952075958251953, -1.2060624361038208, 2.4576995372772217, -5.434503078460693, -1.4544612169265747, 1.2152668237686157, 2.5659539699554443, 6.6576056480407715, 5.121892929077148, 0.13748504221439362, 2.0751640796661377, -1.4977233409881592, -1.3743218183517456, -1.9342619180679321, -3.165792465209961, 3.550741672515869, 0.14763402938842773, -2.579209327697754, 2.7485785484313965, -0.23765528202056885, -2.5041518211364746, 3.8276522159576416, -0.7624906897544861, -1.2463127374649048, -2.062678813934326, -3.8894705772399902, -0.45201027393341064, 2.820662498474121, 4.555992126464844, 0.023274891078472137, 1.2731329202651978, 0.41540250182151794, 1.8352395296096802, -1.0308496952056885, -2.2837705612182617, 3.989772081375122, 0.5424247980117798, 1.549250841140747, -1.8540561199188232, -1.0994492769241333, 7.575608730316162, 0.6636849045753479, -2.270512819290161, -4.283422946929932, 3.019059181213379, 1.5826656818389893, 1.0223628282546997, -4.850497245788574, 1.3177580833435059, -2.4467153549194336, 1.4477099180221558, 2.0868723392486572, -0.22590483725070953, 2.6700878143310547, 0.7182144522666931, -0.6247273087501526, -4.787398815155029, -2.08009934425354, 1.4846856594085693, 4.558557987213135, -1.7749896049499512, -2.3388731479644775, 6.24175500869751, -1.4428737163543701, -2.069624185562134, -4.494762897491455, 0.5589084625244141, 1.6229609251022339, -0.6773359775543213, -0.5111238956451416, 4.51943302154541, 1.1649624109268188, -1.234212875366211, 0.8902986645698547, 1.3846302032470703, 0.4398192763328552, 0.964032769203186, 7.858821868896484, -0.8389461040496826, 3.18516206741333, 4.760982513427734, -1.8638007640838623, -0.9304998517036438, 6.773536682128906, -4.684424877166748, 1.0431925058364868, -2.527923583984375, -2.1370811462402344, 6.574832439422607, -1.5990909337997437, 1.2492884397506714, 2.0820934772491455, 2.2183642387390137, 2.4880077838897705, 0.24618975818157196, 4.029222011566162, 4.599764347076416, -0.9361370801925659, -4.564245700836182, 1.0868566036224365, -3.3196141719818115, 6.766594409942627, 1.2796157598495483, 0.4275054335594177, 0.7466038465499878, 0.7414300441741943, -0.19399282336235046, 0.1760869324207306, -0.8600534796714783, -2.7201743125915527, 0.8901314735412598, -0.30397284030914307, -2.315666437149048, 0.013577684760093689, -3.9976181983947754, -3.2643768787384033, -0.27962222695350647, 0.1972070336341858, -1.5969407558441162, 4.895646095275879, 4.770429611206055, -3.002718210220337, 1.7837486267089844, 1.7858108282089233, 0.19465988874435425, -1.087515950202942, -2.359846353530884, -1.8705884218215942, -0.8031107187271118, 1.6297425031661987, 2.163975715637207, 3.7381298542022705, -0.300039142370224, -2.087979316711426, 1.159166932106018, 0.5014151930809021, -4.003783702850342, -2.3664417266845703, 2.102822780609131, 0.24761828780174255, 4.8243584632873535, -1.0891473293304443, 0.35295653343200684, -0.7009009122848511, -3.1775054931640625, 2.0790202617645264, 0.8101128935813904, 2.8211777210235596, 1.8233397006988525, 1.39778733253479, -3.0688185691833496, -0.3181019425392151, 2.999448776245117, -3.709378719329834, -3.394765853881836, 0.9557812213897705, 4.35506534576416, -3.8436214923858643, -3.3336803913116455, 1.8828617334365845, -3.597705364227295, 1.8134406805038452, -4.138706684112549, 4.266704559326172, -4.15148401260376, -0.9223024845123291, 3.366534471511841, -3.3373608589172363, -3.80930233001709, -5.7682085037231445, -3.3588173389434814, -3.866971731185913, 2.949281692504883, 6.528746604919434, 4.014438152313232, -1.1135286092758179, 2.5703868865966797, -2.1262433528900146, 0.9045714139938354, 1.5124378204345703, 1.2435381412506104, 1.2475662231445312, 3.5204834938049316, 0.016814351081848145, -4.215205192565918, 6.290840148925781, -1.905240774154663, -1.6733311414718628, 3.6030776500701904, 6.645965099334717, 0.4660245180130005, 1.3864835500717163, -6.037970542907715, 4.901652812957764, 1.8240548372268677, 3.6294329166412354, 0.37709787487983704, -2.676391124725342, -4.212953090667725, 2.977468490600586, -0.2738357186317444, -3.769968032836914, 1.7317347526550293, -3.7954797744750977, 3.4786667823791504, 5.371918678283691, -0.2578190565109253, 2.5797815322875977, 5.620096206665039, 3.095079183578491, -3.5957937240600586, 1.4718046188354492, 7.269964694976807, -2.8928918838500977, -0.3065586984157562, 4.628324508666992, -2.8084375858306885, -1.0257033109664917, 5.616832733154297, -0.5321902632713318, 2.5751075744628906, 2.9823784828186035, 7.090663433074951, -3.3246426582336426, 4.241114616394043, 1.2019648551940918, -1.2554335594177246, -2.928600788116455, -1.4762848615646362, -5.092513561248779, 4.07832145690918, -1.7247806787490845, 1.8353158235549927, 9.094171524047852, -0.22988083958625793, 1.2381492853164673, 1.0356721878051758, -1.4461604356765747, -1.5289069414138794, 1.573299527168274, 2.315293312072754, -2.409299612045288, 2.0474677085876465, -3.3785908222198486, -3.215301513671875, -3.663038492202759, 3.0926127433776855, 0.03039885312318802, 0.45300862193107605, -1.5675169229507446, -4.621769428253174, 3.8509297370910645, -0.4807512164115906, -0.2518663704395294, -1.2004692554473877, 2.8332746028900146, 2.661205768585205, -2.6687521934509277, -4.83512544631958, -1.4989395141601562, -3.7042670249938965, -0.6873480677604675, 1.4164507389068604, 2.5014376640319824, -0.37190401554107666, 4.303782939910889, 5.577167510986328, 4.445720195770264, 3.310850143432617, 4.948209285736084, 0.177809476852417, -0.3634735345840454, 5.249835968017578, 4.495669841766357, -0.36042213439941406, 4.566669464111328, -2.604680299758911, 0.9516870975494385, 1.1091340780258179, -4.047018527984619, 1.192154884338379, 1.5963889360427856, 1.1245036125183105, -1.1440175771713257, 2.7249302864074707, 2.8907721042633057, -3.8860063552856445, -3.869518518447876, 6.358678817749023, 4.055660724639893, 3.0680105686187744, 1.173771858215332, -3.170905590057373, -3.059677839279175, -2.0118918418884277, -4.792978763580322, -2.678177833557129, 3.3103079795837402, -1.6520456075668335, 3.3684353828430176, 1.0843404531478882, 4.319486141204834, -1.1217725276947021, 8.066715240478516, 2.5039474964141846, -1.6744990348815918, -4.786441326141357, -2.1664929389953613, 1.5584522485733032, 4.631216526031494, -2.325287342071533, 4.992178440093994, 3.5234577655792236, 0.9176331162452698, -0.4861794710159302, 0.9125710129737854, 0.06113074719905853, 1.8494267463684082, 2.1231789588928223, -3.2028963565826416, 4.261711120605469, 0.36500391364097595, 1.585658311843872, -3.694448709487915, -1.0072135925292969, 3.0112569332122803, 0.7786768078804016, 0.48938611149787903, -1.4322389364242554, 2.486125946044922, -0.8811769485473633, -1.0829291343688965, -1.1451234817504883, 5.212656021118164, 1.029453992843628, 1.3061765432357788, 3.154792547225952, 0.37023666501045227, 3.054561138153076, -3.6863622665405273, -3.175863742828369, -1.3622158765792847, 1.1898804903030396, -0.42645880579948425, -0.6833282709121704, -1.6556315422058105, -2.8009021282196045, 1.9354337453842163, -0.24469992518424988, -1.450710415840149, 1.6199028491973877, -2.636606216430664, 5.780255317687988, -0.4174444377422333, 0.71782386302948, 0.05282522737979889, 4.323988437652588, 0.12863200902938843, 4.044775485992432, -0.7799860835075378, 3.609487771987915, 6.944639682769775, 0.00802573561668396, -0.5125851035118103, -2.8467206954956055, 1.7216283082962036, 1.890395164489746, 0.4141831398010254, -1.7005945444107056, 0.45356887578964233, 1.0748809576034546, 2.9061033725738525, 5.473083972930908, 3.925633668899536, -0.7287650108337402, -0.15714937448501587, 0.7953110933303833, -3.3461341857910156, 0.7442529201507568, -2.859036684036255, -4.539402961730957, 0.5275314450263977, -0.3715677261352539, -1.1416523456573486, 1.6970173120498657, 3.538429021835327, -3.2612266540527344, 3.1178412437438965, -3.9693350791931152, -3.3179166316986084, -2.619468927383423, -1.655094861984253, -2.5555994510650635, 4.590352535247803, 0.3594968020915985, -0.4072141647338867, 0.6974334120750427, -0.11201244592666626, -0.533666729927063, 0.6749476194381714, 2.30838942527771, 7.73502779006958, 5.8519721031188965, 1.370397686958313, 0.7910235524177551, -0.6785318851470947, -1.49053955078125, 7.08507776260376, -3.038236141204834, -3.420241355895996, 0.08884178102016449, -0.5029094815254211, 0.9112944602966309, -0.25087955594062805, -3.129791021347046, 5.122323036193848, 1.4129432439804077, 1.8620892763137817, -4.450178623199463, -0.9437330961227417, -0.6273863315582275, -2.9660916328430176, -1.316429615020752, -0.7845062017440796, -0.4116229712963104, 2.5889973640441895, -0.43305325508117676, 3.985982894897461, -0.6936138868331909, -0.019515326246619225, 1.037460207939148, -2.078839063644409, -3.682190179824829, 5.842484474182129, 3.2717137336730957, 5.828477382659912, -2.40751051902771, 0.031490862369537354, -1.9269732236862183, -1.1797269582748413, 1.299594521522522, 3.8648178577423096, -2.398163318634033, 1.8724511861801147, 3.9364354610443115, -1.049096703529358, 0.9700092077255249, -1.4021854400634766, 0.43709635734558105, 2.315277099609375, 1.9600803852081299, 5.069263458251953, -1.9523886442184448, -2.640519857406616, -3.7885987758636475, -3.4888272285461426, 0.7712525725364685, -4.288445949554443, -1.3413723707199097, -3.0963637828826904, 1.8960611820220947, 3.9899537563323975, -2.5732808113098145, -4.473461627960205, 0.5293945074081421, -3.513028860092163, -2.4385862350463867, 1.7785929441452026, -2.7251193523406982, -1.3437244892120361, -0.6742573976516724, -2.7930309772491455, 1.706947684288025, -3.28737211227417, 3.9228806495666504, -3.13822865486145, -1.0573399066925049, -2.3261280059814453, -0.27050501108169556, -1.3536651134490967, 1.3173110485076904, 5.711148738861084, 1.6258068084716797, -1.1262500286102295, 0.6692678928375244, 1.151286244392395, -1.921130657196045, -0.17498226463794708, 0.19063884019851685, 0.11072644591331482, 3.083686113357544, 6.936682224273682, 0.43120837211608887, -0.29045844078063965, 0.08857592940330505, 2.7178404331207275, 0.7987881898880005, 0.9059666395187378, 1.4884023666381836, 1.169671654701233, 1.905642032623291, 0.4076319932937622, -2.907823324203491, 2.3578569889068604, -4.829699993133545, -0.11892634630203247, -1.0684537887573242, -1.0170567035675049, 1.8485896587371826, 3.8256313800811768, 2.3210256099700928, -2.2123818397521973, 2.3552465438842773, -1.0038883686065674, 3.9760570526123047, -1.6070020198822021, 0.20216554403305054, -1.1872411966323853, 1.5563735961914062, 0.47339215874671936, 1.6830886602401733, 1.491666555404663, -3.1235272884368896, -1.8445677757263184, -0.4507826566696167, -1.4245747327804565, -0.03468921035528183, 1.6548526287078857, -0.5746438503265381, 2.1656861305236816, -0.3401520848274231, 0.26379474997520447, -0.15009324252605438, 0.4065535068511963, 2.076848030090332, 1.1643834114074707, -2.3129734992980957, 2.168783664703369, 2.600072145462036, 1.643750786781311, 3.697258472442627, 2.4308319091796875, -0.910301923751831, 2.91058087348938, -2.0735490322113037, 1.8751256465911865, 0.1914980113506317, -3.0212326049804688, -0.04679253324866295, 1.4071459770202637, -1.267502784729004, 0.11572140455245972, -3.73378849029541, 0.35898494720458984, -2.0909502506256104, 1.1774312257766724, 2.6003100872039795, 2.9802255630493164, 4.911896228790283, 0.21829889714717865, 1.9166404008865356, -2.821087121963501, -2.875605821609497, 1.2474298477172852, -1.3218390941619873, -1.0862479209899902, -2.046751022338867, -0.7878982424736023, -3.2430996894836426, 1.9420169591903687, -0.0754522979259491, -5.1840715408325195, -2.5365307331085205, -1.7399567365646362, 3.5248823165893555, 0.09657584130764008, 1.730660319328308, 2.615297317504883, 2.595515251159668, 2.1033873558044434, 0.9409869313240051, -1.9530779123306274, -1.5218011140823364, 1.7100555896759033, 2.828312873840332, 0.7474036812782288, -1.2636158466339111, 2.680964946746826, 0.9410094022750854], [-2.9848151206970215, 0.6529994606971741, -1.1631637811660767, -0.8381943702697754, -0.2931177020072937, 1.2355860471725464, -4.5184550285339355, -0.47801026701927185, -1.224497675895691, 1.513197660446167, 6.462502479553223, 3.44559645652771, 1.6720237731933594, 0.9309669137001038, 2.2400808334350586, 0.818029522895813, 1.8666900396347046, 1.9033739566802979, 1.651061773300171, 4.2851738929748535, 1.757269263267517, 5.4376935958862305, 1.559432029724121, 1.6082135438919067, 1.4426442384719849, 0.07875961810350418, 1.8773198127746582, 1.6785938739776611, 1.0483909845352173, -1.6094661951065063, -2.2578487396240234, 3.622373104095459, 2.4184367656707764, -1.5758895874023438, 0.7265469431877136, -3.8216590881347656, -0.4437113106250763, -5.057461738586426, 6.7311811447143555, -0.7590458393096924, 1.4954156875610352, 2.2607669830322266, 2.9807770252227783, 4.369903564453125, 1.0767210721969604, -1.871040940284729, 0.5608647465705872, 5.219441890716553, -3.301495313644409, -1.4526681900024414, -2.1014585494995117, 1.8400397300720215, 1.1191649436950684, 0.8224794864654541, 0.5991395711898804, 0.4730207920074463, 0.23873518407344818, -0.2812882959842682, -2.292536735534668, 7.60910701751709, 1.7390384674072266, 0.0026304423809051514, 1.4876072406768799, 1.9513009786605835, 3.1018686294555664, 0.9946384429931641, 4.879438877105713, -3.08296275138855, 3.670248031616211, -0.656026303768158, 1.3303357362747192, 0.8462771773338318, 1.8335750102996826, 4.918046474456787, 0.013406425714492798, 1.1826590299606323, -2.2180426120758057, -1.075830340385437, 4.660682678222656, 1.3279156684875488, 4.213449954986572, 1.1570795774459839, -0.15211287140846252, 1.8251763582229614, 1.298050045967102, -0.4144641160964966, 0.897558331489563, 0.11643262207508087, 1.347991943359375, 2.0197815895080566, 0.07577022910118103, 1.3365988731384277, 3.921077013015747, 0.15970872342586517, 3.321225166320801, 3.4642796516418457, 1.3348509073257446, -0.9184821844100952, 1.6185985803604126, 1.8100571632385254, 0.9336559176445007, -1.880353331565857, -2.401698350906372, 1.7390705347061157, -2.2419538497924805, -2.32840633392334, -2.880390167236328, 0.07705296576023102, -1.193773865699768, -0.7726082801818848, 2.7836227416992188, 6.249544143676758, 2.084484100341797, 2.2456514835357666, -0.13090652227401733, 1.64726722240448, 0.806247889995575, 3.4170150756835938, -1.5528711080551147, -0.8341242671012878, 2.449533224105835, -1.3428760766983032, -1.7324588298797607, -4.310169696807861, -2.683187484741211, 0.05986692011356354, 3.174922227859497, 1.9806437492370605, 3.96372652053833, 1.3801430463790894, 0.7281458377838135, 0.028743349015712738, 2.901948928833008, 0.2799617648124695, 2.0966720581054688, 1.871513843536377, -0.6174364686012268, -2.15079665184021, -0.16380037367343903, 1.4567888975143433, 0.2648560404777527, 0.26275163888931274, -0.40743646025657654, 1.3742810487747192, 2.0472662448883057, 0.32284635305404663, 2.620645523071289, 0.6361724138259888, 0.1821669340133667, -0.5852946639060974, -2.072246789932251, -0.7204393744468689, 0.7342123985290527, 0.1843499094247818, -1.9017161130905151, -1.3283334970474243, -0.5752816796302795, -0.34653985500335693, 1.8015271425247192, -2.2464346885681152, 0.6734572052955627, -1.7947889566421509, -1.9497522115707397, -0.06882698088884354, -0.741622805595398, -1.6212754249572754, 0.5321838855743408, 1.4733426570892334, -1.7602347135543823, 1.0205203294754028, 0.28663337230682373, 0.17421235144138336, -0.950590968132019, 0.0046867430210113525, -0.23059330880641937, 0.3677983582019806, 0.6155914068222046, -1.5266271829605103, -1.4228848218917847, -2.2641637325286865, -1.5114631652832031, 2.7864766120910645, -1.9313764572143555, 0.510409951210022, -2.0562057495117188, -0.38920268416404724, -1.0093283653259277, -1.0303329229354858, 2.973604440689087, -0.648557186126709, 2.2714874744415283, -1.3866642713546753, -3.1668925285339355, -1.991958498954773, 0.5875822305679321, -1.9645682573318481, -2.4850900173187256, -2.9254021644592285, -1.339722990989685, -1.49809992313385, 0.5673031806945801, -4.062063217163086, 0.8954555988311768, -2.546780586242676, -2.436607837677002, -1.9364137649536133, -0.9861084222793579, -0.8097482323646545, -0.6932423710823059, -2.7530441284179688, -0.4613637626171112, -3.3108205795288086, -0.9865502119064331, -2.7398006916046143, -2.7191083431243896, -0.6896222829818726, -0.0478815883398056, -1.965015172958374, -0.9222641587257385, -1.4300075769424438, -0.47949498891830444, -0.03424733877182007, 0.2529134452342987, -1.324803113937378, -1.7564404010772705, -2.107430934906006, -2.0237481594085693, -1.5520871877670288, 2.0413119792938232, -0.6541488170623779, -2.520900011062622, -1.4247241020202637, -0.2982727587223053, -2.4387154579162598, -3.079355478286743, -1.8057618141174316, -0.9520880579948425, -2.8916943073272705, -1.5890719890594482, -2.613816261291504, -1.6439331769943237, -0.3998405933380127, -2.7945544719696045, -2.8207290172576904, -3.1081748008728027, -1.7801631689071655, -0.8494084477424622, -1.034135341644287, 0.620702862739563, -1.2113429307937622, 0.13742464780807495, -0.20204296708106995, -1.864592432975769, -1.2843849658966064, -2.2503726482391357, -3.253175973892212, -0.8357706665992737, -1.4982894659042358, -1.1067461967468262, -2.0184669494628906, -1.7193753719329834, -1.249860167503357, -1.6138938665390015, -1.725537657737732, -0.36035627126693726, 0.16223332285881042, 0.06014219671487808, -0.85216224193573, -0.6993275880813599, 0.7186353206634521, 1.3642988204956055, -0.25015783309936523, 0.27198249101638794, 0.02294955961406231, -1.5106419324874878, -0.7685508131980896, -1.581499695777893, 0.4253500699996948, 0.7095103859901428, 1.6401019096374512, 1.0469341278076172, 1.1068490743637085, -0.1538844108581543, 1.4713045358657837, 1.086023211479187, 0.6419610977172852, -0.7393264770507812, 0.25136232376098633, -0.49981123208999634, 0.10874705016613007, -1.1093915700912476, -1.516287088394165, -1.2067625522613525, 0.8499888181686401, 0.26607418060302734, -2.243757486343384, 0.39677107334136963, -2.4764559268951416, -0.6701928973197937, 0.5406243205070496, 1.0950634479522705, 4.142175197601318, 2.1138010025024414, 4.2953338623046875, 2.839463233947754, -3.20109486579895, -0.35284608602523804, 2.1529412269592285, 2.94407320022583, 3.437058448791504, 5.5484232902526855, 0.47683238983154297, 0.8015356063842773, 1.2541265487670898, 0.19183200597763062, 2.1316800117492676, 0.7540290951728821, 2.438293218612671, 4.892059803009033, 2.835144281387329, 4.460493087768555, 2.8023037910461426, 2.7874772548675537, 1.821084976196289, 4.316946506500244, 1.3576369285583496, 4.428325653076172, 0.02975594997406006, 0.06401735544204712, -1.4807902574539185, -0.0860399603843689, 1.9882657527923584, -0.5220873355865479, -0.8323860168457031, -0.6526927947998047, 3.0497589111328125, -1.663561463356018, -0.6924700140953064, -2.7261557579040527, -2.1119225025177, -0.7795615196228027, -1.893276333808899, -3.265923500061035, -3.649606466293335, -4.439576148986816, -0.13780026137828827, -4.663466453552246, -1.6112055778503418, -1.716042399406433, 1.2014355659484863, 2.8276195526123047, -0.3860777020454407, -0.4688273072242737, 1.9833197593688965, 0.5776932835578918, -0.5035479068756104, 4.114072322845459, 2.053948402404785, 3.6907503604888916, 3.9746878147125244, -0.4795401692390442, 2.1614949703216553, 1.467128038406372, -3.042112112045288, 2.595036268234253, -0.5521809458732605, -1.242760181427002, 0.4632992744445801, 2.0824196338653564, 0.9370828866958618, 0.15583904087543488, 0.7680039405822754, -2.5048749446868896, -0.003553241491317749, 0.6166097521781921, 0.5715674757957458, 1.3188707828521729, 1.215853214263916, 1.7069562673568726, 0.6554231643676758, 1.5284857749938965, 0.00731455534696579, 1.410768747329712, 2.10451602935791, 2.823240280151367, -1.97556471824646, -1.9607036113739014, 0.4053172767162323, -1.4586371183395386, -0.7352475523948669, -0.7892901301383972, -2.134216785430908, 3.0185604095458984, -0.9803044199943542, -1.0751020908355713, 0.9934916496276855, -1.0146281719207764, 0.8490689396858215, -0.05027514696121216, 1.1426845788955688, -0.4569970369338989, -2.084699869155884, -0.5036817193031311, -0.16142241656780243, 2.382453441619873, 3.045569658279419, -4.660065174102783, -2.1138319969177246, -1.050597071647644, 